SVM-light Version V6.01
2 # kernel type
3 # kernel parameter -d 
1 # kernel parameter -g 
1 # kernel parameter -s 
1 # kernel parameter -r 
empty# kernel parameter -u 
23 # highest feature index 
5234 # number of training documents 
2639 # number of support vectors plus 1 
0.96928403 # threshold b, each following line is a SV (starting with alpha*y)
-0.0027601719027016365960724986194919 1:0.071502581 2:0.072464481 3:-0.16947284 4:-0.20235738 5:-0.029620949 6:0.42759866 7:2.8046672 8:4.7226758 9:2.7462659 10:4.4135699 11:2.6792822 12:4.4034076 13:2.615432 14:4.4048762 15:2.6716578 16:4.3677444 17:2.6130095 18:4.2152243 19:2.5425358 20:4.1576195 21:2.6324582 22:3.9264677 23:-1.6767584 #
2.4501201410040276407187320728553 1:-0.12311433 2:-0.13286901 3:-0.12475079 4:-0.13060421 5:-0.031149685 6:-0.049244598 7:-0.17618346 8:-0.21300471 9:-0.18903314 10:-0.2271757 11:-0.18996392 12:-0.22724831 13:-0.18927045 14:-0.22607422 15:-0.18840756 16:-0.2260185 17:-0.1952972 18:-0.25379065 19:-0.19491258 20:-0.24705973 21:-0.19959782 22:-0.2489032 23:-0.62759662 #
-0.67843043679421621838798728276743 1:-0.12681697 2:-0.13562709 3:-0.1421705 4:-0.13924827 5:-0.0311922 6:-0.055944059 7:-0.17620061 8:-0.2126514 9:-0.18905888 10:-0.22797458 11:-0.19003835 12:-0.22976702 13:-0.18947352 14:-0.23003362 15:-0.1887202 16:-0.2292656 17:-0.19571497 18:-0.25621772 19:-0.19545406 20:-0.24912895 21:-0.2003019 22:-0.25065741 23:-0.69777125 #
2.4501201410040276407187320728553 1:-0.19645417 2:-0.21068887 3:-0.27708039 4:-0.26438412 5:-0.031211706 6:-0.066730633 7:-0.17622963 8:-0.2185224 9:-0.18909062 10:-0.23116961 11:-0.19009893 12:-0.23240659 13:-0.18953101 14:-0.23193371 15:-0.18877895 16:-0.22960311 17:-0.19596881 18:-0.25687343 19:-0.19606347 20:-0.24981226 21:-0.20161413 22:-0.25222015 23:1.3987844 #
-0.67843043679421621838798728276743 1:-0.049653083 2:-0.049709342 3:-0.0813016 4:-0.080378488 5:-0.031160621 6:-0.046380058 7:-0.17617214 8:-0.20899191 9:-0.18901442 10:-0.22443241 11:-0.18992524 12:-0.22504289 13:-0.18930745 14:-0.22600113 15:-0.18846937 16:-0.22600263 17:-0.19572288 18:-0.25610533 19:-0.19587976 20:-0.25037241 21:-0.20122772 22:-0.25237975 23:1.1792567 #
-0.67843043679421621838798728276743 1:-0.1150565 2:-0.11963978 3:-0.11189338 4:-0.10686688 5:-0.031191273 6:-0.054365136 7:-0.17614342 8:-0.20725022 9:-0.1888884 10:-0.21610342 11:-0.18975791 12:-0.21800001 13:-0.1890424 14:-0.21984161 15:-0.18819055 16:-0.22272412 17:-0.19511126 18:-0.25210869 19:-0.19477716 20:-0.24617341 21:-0.19957447 22:-0.24855058 23:-0.68962926 #
-0.67843043679421621838798728276743 1:-0.17924593 2:-0.19090116 3:-0.2300128 4:-0.21889383 5:-0.031193225 6:-0.056651287 7:-0.17617795 8:-0.2120741 9:-0.18900628 10:-0.22480696 11:-0.18985976 12:-0.22209027 13:-0.1891176 14:-0.22146279 15:-0.18821721 16:-0.22277708 17:-0.19512405 18:-0.25219679 19:-0.19481118 20:-0.24643844 21:-0.19956779 22:-0.24884722 23:-1.1496453 #
-0.67843043679421621838798728276743 1:-0.080533817 2:-0.086141802 3:-0.19462989 4:-0.18288946 5:-0.031196628 6:-0.058910023 7:-0.17618698 8:-0.21096626 9:-0.1890512 10:-0.2268405 11:-0.19001524 12:-0.22811712 13:-0.18944827 14:-0.22877981 15:-0.18864651 16:-0.2279388 17:-0.19569093 18:-0.25579217 19:-0.19551863 20:-0.2488676 21:-0.2004915 22:-0.25044444 23:0.15830645 #
-0.67843043679421621838798728276743 1:-0.022004582 2:-0.023571618 3:-0.1292702 4:-0.13278401 5:-0.031171503 6:-0.060099699 7:-0.17622046 8:-0.21692625 9:-0.18911728 10:-0.23290603 11:-0.1901411 12:-0.23439179 13:-0.18967651 14:-0.23537461 15:-0.18903865 16:-0.23428266 17:-0.19625953 18:-0.26063538 19:-0.19617069 20:-0.25240865 21:-0.20114367 22:-0.25286919 23:0.025012549 #
-0.67843043679421621838798728276743 1:-0.082627937 2:-0.088466942 3:-0.18806532 4:-0.18503921 5:-0.031220486 6:-0.066719666 7:-0.17621168 8:-0.21605447 9:-0.18909153 10:-0.23133041 11:-0.19012417 12:-0.23366731 13:-0.18960321 14:-0.23336881 15:-0.18890482 16:-0.2319656 17:-0.19606042 18:-0.25888252 19:-0.19592559 20:-0.25105017 21:-0.20083755 22:-0.25179654 23:0.10042386 #
2.4501201410040276407187320728553 1:-0.14894184 2:-0.16019335 3:-0.23170044 4:-0.2059503 5:-0.031171028 6:-0.049694151 7:-0.17615514 8:-0.207027 9:-0.18886369 10:-0.2134499 11:-0.18947947 12:-0.20542081 13:-0.18849954 14:-0.2061629 15:-0.18735473 16:-0.21048021 17:-0.19410819 18:-0.24386171 19:-0.19364536 20:-0.24102935 21:-0.19814338 22:-0.24487729 23:-1.1177921 #
2.4501201410040276407187320728553 1:-0.23314686 2:-0.2491899 3:-0.22596537 4:-0.21270017 5:-0.031134304 6:-0.037221748 7:-0.17610809 8:-0.20224687 9:-0.18883415 10:-0.2120674 11:-0.18955366 12:-0.20877784 13:-0.18864802 14:-0.20964609 15:-0.18753605 16:-0.2131093 17:-0.19417919 18:-0.24465775 19:-0.1936722 20:-0.2412038 21:-0.1983268 22:-0.24527267 23:-1.1105815 #
2.4501201410040276407187320728553 1:-0.13526934 2:-0.14454278 3:-0.25462639 4:-0.25295892 5:-0.031062424 6:-0.020516954 7:-0.17614144 8:-0.20845987 9:-0.18894252 10:-0.22005396 11:-0.18976371 12:-0.21818398 13:-0.18902144 14:-0.21913119 15:-0.18813355 16:-0.22160682 17:-0.1950874 18:-0.25114012 19:-0.19466354 20:-0.24513768 21:-0.19959283 22:-0.24811116 23:-0.00089203072 #
2.4501201410040276407187320728553 1:-0.096163869 2:-0.10277053 3:-0.1316157 4:-0.12836426 5:-0.031196574 6:-0.060368337 7:-0.17618133 8:-0.21273059 9:-0.18903385 10:-0.22737181 11:-0.18998151 12:-0.22794116 13:-0.18936123 14:-0.22775692 15:-0.18856707 16:-0.22786568 17:-0.19561103 18:-0.25587198 19:-0.19547462 20:-0.24928924 21:-0.20042346 22:-0.25086436 23:0.061869852 #
2.4501201410040276407187320728553 1:-0.095207855 2:-0.10222533 3:-0.034663089 4:-0.026635019 5:-0.031091649 6:-0.016725892 7:-0.17613688 8:-0.20538297 9:-0.18896686 10:-0.22169444 11:-0.18985686 12:-0.22189906 13:-0.18915179 14:-0.22185738 15:-0.18836504 16:-0.22416297 17:-0.19523324 18:-0.25240734 19:-0.19498961 20:-0.24673 21:-0.19986472 22:-0.24910921 23:-0.17133786 #
2.4501201410040276407187320728553 1:-0.021564512 2:-0.023106592 3:-0.10544322 4:-0.11445861 5:-0.03111157 6:-0.03500139 7:-0.17617157 8:-0.21065292 9:-0.18902771 10:-0.22608821 11:-0.18998316 12:-0.22764334 13:-0.18944634 14:-0.22946088 15:-0.188737 16:-0.23000254 17:-0.19591795 18:-0.25798273 19:-0.19582839 20:-0.25084561 21:-0.20081657 22:-0.25197095 23:0.025012549 #
-0.67843043679421621838798728276743 1:-0.22958077 2:-0.24389821 3:-0.32490593 4:-0.28773057 5:-0.031161126 6:-0.03652823 7:-0.17611732 8:-0.20439467 9:-0.18888715 10:-0.21594624 11:-0.18971342 12:-0.21570787 13:-0.18890923 14:-0.2156236 15:-0.18784712 16:-0.21693806 17:-0.19481266 18:-0.24911414 19:-0.19440447 20:-0.24402258 21:-0.19903046 22:-0.24667098 23:-1.0519317 #
2.4501201410040276407187320728553 1:-0.071155787 2:-0.075173579 3:-0.18210143 4:-0.17792852 5:-0.031205462 6:-0.070455909 7:-0.17621383 8:-0.2164353 9:-0.18904305 10:-0.22706212 11:-0.18997116 12:-0.22654457 13:-0.18936679 14:-0.22705881 15:-0.18854497 16:-0.22741626 17:-0.19559632 18:-0.25567058 19:-0.19547181 20:-0.24913225 21:-0.20047487 22:-0.25085029 23:0.16817698 #
-0.67843043679421621838798728276743 1:-0.13649851 2:-0.14574544 3:-0.1706313 4:-0.16599222 5:-0.031222865 6:-0.075477764 7:-0.1762379 8:-0.21904124 9:-0.18915932 10:-0.2357831 11:-0.19023262 12:-0.23771584 13:-0.1898037 14:-0.23799634 15:-0.18922347 16:-0.2364945 17:-0.19657984 18:-0.26296395 19:-0.19666012 20:-0.25432935 21:-0.20187587 22:-0.25452879 23:1.4739509 #
-0.030164812990465823122621102925223 1:0.024445506 2:0.022738658 3:-0.24819052 4:-0.26602271 5:-0.031772055 6:-0.24795601 7:6.9089456 8:4.753643 9:6.4557085 10:4.4623413 11:6.3550181 12:4.4894285 13:6.5462632 14:4.538044 15:6.3819566 16:4.6373267 17:6.5802774 18:4.6574416 19:6.4373198 20:4.9487367 21:6.3880534 22:5.3250546 23:-1.6787069 #
-0.67843043679421621838798728276743 1:-0.21955024 2:-0.23297809 3:-0.26692602 4:-0.24102262 5:-0.03125672 6:-0.080340624 7:-0.17624804 8:-0.22005104 9:-0.18915497 10:-0.23506293 11:-0.19019043 12:-0.23599195 13:-0.18957722 14:-0.23277292 15:-0.18892895 16:-0.23170958 17:-0.19610341 18:-0.25904456 19:-0.19606692 20:-0.25142738 21:-0.20134853 22:-0.25269279 23:1.1260313 #
2.4501201410040276407187320728553 1:-0.1923418 2:-0.2050925 3:-0.32529208 4:-0.2968106 5:-0.03119305 6:-0.059428107 7:-0.17617428 8:-0.21021062 9:-0.18895909 10:-0.2201805 11:-0.18973935 12:-0.21597844 13:-0.18880318 14:-0.21272516 15:-0.18769562 16:-0.21456738 17:-0.19443631 18:-0.24609031 19:-0.19392562 20:-0.24212034 21:-0.19853438 22:-0.2457518 23:-1.0315596 #
2.4501201410040276407187320728553 1:-0.1387292 2:-0.14771779 3:-0.088166513 4:-0.096148252 5:-0.03108724 6:-0.034842398 7:-0.17612393 8:-0.2048973 9:-0.18898983 10:-0.22282787 11:-0.18995276 12:-0.22600807 13:-0.18946265 14:-0.22924706 15:-0.18887627 16:-0.23095195 17:-0.19616783 18:-0.25935063 19:-0.1963115 20:-0.2523309 21:-0.201607 22:-0.25349167 23:1.360859 #
-0.67843043679421621838798728276743 1:-0.15991324 2:-0.169542 3:-0.22828227 4:-0.21218905 5:-0.031161807 6:-0.048907433 7:-0.17614016 8:-0.20539315 9:-0.18884821 10:-0.21224585 11:-0.18954995 12:-0.20895655 13:-0.18864273 14:-0.20967339 15:-0.18749754 16:-0.21215701 17:-0.19412257 18:-0.24382567 19:-0.19326101 20:-0.23918322 21:-0.19773906 22:-0.24349494 23:-0.97137338 #
-0.67843043679421621838798728276743 1:-0.16930644 2:-0.17533077 3:-0.23361689 4:-0.21375249 5:-0.031098599 6:-0.025053618 7:-0.17614572 8:-0.20814615 9:-0.1889782 10:-0.22242716 11:-0.18988894 12:-0.22384052 13:-0.1891357 14:-0.22274551 15:-0.18814044 16:-0.22240269 17:-0.19496132 18:-0.25089544 19:-0.19451487 20:-0.24507165 21:-0.199118 22:-0.2475034 23:-0.98910111 #
-0.67843043679421621838798728276743 1:-0.20206885 2:-0.21195567 3:-0.20422648 4:-0.18016846 5:-0.03116557 6:-0.044927228 7:-0.17618087 8:-0.21089575 9:-0.18899097 10:-0.22266303 11:-0.18973006 12:-0.21591808 13:-0.18878669 14:-0.21293448 15:-0.18772082 16:-0.21563132 17:-0.19445601 18:-0.24675941 19:-0.19380634 20:-0.24184121 21:-0.19819054 22:-0.24496366 23:-1.0198455 #
2.4501201410040276407187320728553 1:-0.074676342 2:-0.082004666 3:-0.13998231 4:-0.13320494 5:-0.03121529 6:-0.073460244 7:-0.176228 8:-0.2178482 9:-0.18904759 10:-0.22702363 11:-0.18992481 12:-0.22432031 13:-0.18932077 14:-0.2259565 15:-0.18858144 16:-0.22736037 17:-0.19573531 18:-0.25582623 19:-0.19590256 20:-0.25001267 21:-0.20113192 22:-0.2515834 23:1.070343 #
-0.67843043679421621838798728276743 1:-0.17531566 2:-0.18700457 3:-0.2525526 4:-0.23797089 5:-0.031271622 6:-0.086064227 7:-0.17625739 8:-0.22012042 9:-0.18917015 10:-0.23586711 11:-0.19017665 12:-0.23472348 13:-0.18968023 14:-0.23393275 15:-0.18890435 16:-0.2316163 17:-0.19595444 18:-0.25774762 19:-0.19584703 20:-0.25046262 21:-0.20083535 22:-0.25158983 23:0.56360847 #
-0.67843043679421621838798728276743 1:-0.13033754 2:-0.14082257 3:-0.1961602 4:-0.19631405 5:-0.031185299 6:-0.058405645 7:-0.17614207 8:-0.20724797 9:-0.18897216 10:-0.22238505 11:-0.18989699 12:-0.22347572 13:-0.18919779 14:-0.22357444 15:-0.18858716 16:-0.2269441 17:-0.19587585 18:-0.25667849 19:-0.19600222 20:-0.25055695 21:-0.20153424 22:-0.25269908 23:1.316558 #
-0.67843043679421621838798728276743 1:-0.089335203 2:-0.095538557 3:-0.15368354 4:-0.14998192 5:-0.031233905 6:-0.071437247 7:-0.17619884 8:-0.21256354 9:-0.18904576 10:-0.22662589 11:-0.18994613 12:-0.22563252 13:-0.18936834 14:-0.22693345 15:-0.18861587 16:-0.22701681 17:-0.19581717 18:-0.25642118 19:-0.19593213 20:-0.25050861 21:-0.20132735 22:-0.25246343 23:1.2065524 #
2.4501201410040276407187320728553 1:-0.16745512 2:-0.18132803 3:-0.20947526 4:-0.19586307 5:-0.03120015 6:-0.063213691 7:-0.17617612 8:-0.21082033 9:-0.18898596 10:-0.22264092 11:-0.18983486 12:-0.22082166 13:-0.189115 14:-0.22128624 15:-0.18817493 16:-0.22225103 17:-0.1950694 18:-0.25157875 19:-0.1946637 20:-0.24578379 21:-0.19934453 22:-0.24817088 23:-1.0420736 #
-0.67843043679421621838798728276743 1:-0.13806151 2:-0.14167245 3:-0.24605954 4:-0.22744769 5:-0.031190353 6:-0.050771438 7:-0.17607138 8:-0.19652444 9:-0.18885332 10:-0.21229136 11:-0.18964556 12:-0.21295671 13:-0.18872997 14:-0.21237898 15:-0.18759562 16:-0.21429697 17:-0.19421346 18:-0.24472173 19:-0.19364569 20:-0.24064025 21:-0.19806142 22:-0.24422021 23:-1.0410364 #
-0.67843043679421621838798728276743 1:-0.17170405 2:-0.1838937 3:-0.21473837 4:-0.20402606 5:-0.031208858 6:-0.067703754 7:-0.17621784 8:-0.21586856 9:-0.18909851 10:-0.23109496 11:-0.19008937 12:-0.23194031 13:-0.18955775 14:-0.23237637 15:-0.18882851 16:-0.23140764 17:-0.19588171 18:-0.25795665 19:-0.19557945 20:-0.24997135 21:-0.20030209 22:-0.25088054 23:-1.0420736 #
-0.67843043679421621838798728276743 1:-0.14751542 2:-0.15866998 3:-0.24112539 4:-0.2189239 5:-0.03116294 6:-0.049378917 7:-0.17620055 8:-0.21333615 9:-0.18904956 10:-0.22762597 11:-0.19000444 12:-0.22815524 13:-0.18938984 14:-0.22794797 15:-0.18851419 16:-0.22696295 17:-0.19545189 18:-0.25465333 19:-0.19500887 20:-0.24757245 21:-0.19978583 22:-0.24955447 23:-1.1177921 #
-0.67843043679421621838798728276743 1:-0.16789518 2:-0.17889065 3:-0.14345768 4:-0.14285621 5:-0.031174256 6:-0.05811508 7:-0.17621161 8:-0.21530749 9:-0.18908142 10:-0.23012488 11:-0.19008674 12:-0.23203129 13:-0.18956766 14:-0.23275232 15:-0.18882208 16:-0.23126653 17:-0.19589782 18:-0.25791034 19:-0.19568093 20:-0.25030354 21:-0.20046125 22:-0.25117564 23:-1.0402348 #
-0.67843043679421621838798728276743 1:-0.11359973 2:-0.12081037 3:-0.13132967 4:-0.13255851 5:-0.031146938 6:-0.043748517 7:-0.17616729 8:-0.20927283 9:-0.18903479 10:-0.22623624 11:-0.19000566 12:-0.22800052 13:-0.189555 14:-0.23148575 15:-0.18900481 16:-0.2331154 17:-0.19632682 18:-0.26104593 19:-0.19647312 20:-0.25345674 21:-0.20167241 22:-0.25401706 23:1.2720376 #
-0.67843043679421621838798728276743 1:-0.068682291 2:-0.073377617 3:-0.12056033 4:-0.11967511 5:-0.031138791 6:-0.025483986 7:-0.17610678 8:-0.20077856 9:-0.18898098 10:-0.22158107 11:-0.18997101 12:-0.22616628 13:-0.18935579 14:-0.22623257 15:-0.18855654 16:-0.22680503 17:-0.19589664 18:-0.25692812 19:-0.19595751 20:-0.25066486 21:-0.2012973 22:-0.25233981 23:1.2371432 #
-0.67843043679421621838798728276743 1:-0.14573996 2:-0.15709852 3:-0.22334811 4:-0.20611566 5:-0.031215435 6:-0.065645121 7:-0.17620523 8:-0.21324039 9:-0.18907781 10:-0.22888787 11:-0.18999743 12:-0.22770584 13:-0.1894054 14:-0.22802906 15:-0.1886085 16:-0.22759221 17:-0.19582967 18:-0.25708017 19:-0.19590414 20:-0.25085747 21:-0.20122255 22:-0.25257015 23:1.2102389 #
2.4501201410040276407187320728553 1:-0.21102199 2:-0.22516885 3:-0.22582234 4:-0.21946509 5:-0.031258594 6:-0.075146079 7:-0.17615545 8:-0.20823929 9:-0.18891592 10:-0.21820928 11:-0.1896726 12:-0.21449839 13:-0.18887123 14:-0.21588148 15:-0.18783171 16:-0.21792282 17:-0.1945556 18:-0.24784027 19:-0.19403553 20:-0.24299438 21:-0.19863744 22:-0.24630015 23:-1.0239918 #
-0.67843043679421621838798728276743 1:-0.17924593 2:-0.19090116 3:-0.2300128 4:-0.21889383 5:-0.031193225 6:-0.056651287 7:-0.17617795 8:-0.2120741 9:-0.18900628 10:-0.22480696 11:-0.18985976 12:-0.22209027 13:-0.1891176 14:-0.22146279 15:-0.18821721 16:-0.22277708 17:-0.19512405 18:-0.25219679 19:-0.19481118 20:-0.24643844 21:-0.19956779 22:-0.24884722 23:-1.1496453 #
-0.67843043679421621838798728276743 1:-0.17502734 2:-0.18256275 3:-0.16513936 4:-0.14691517 5:-0.031179277 6:-0.05827681 7:-0.17620882 8:-0.21349189 9:-0.18902542 10:-0.22508453 11:-0.18983726 12:-0.22108024 13:-0.18902589 14:-0.21924812 15:-0.18806997 16:-0.22039554 17:-0.19489281 18:-0.24996322 19:-0.19439396 20:-0.24428679 21:-0.19895002 22:-0.24694681 23:-0.99997151 #
2.4501201410040276407187320728553 1:-0.048332874 2:-0.054167189 3:-0.17015934 4:-0.17534283 5:-0.031224871 6:-0.084444188 7:-0.17623278 8:-0.21873581 9:-0.18910554 10:-0.23091736 11:-0.1900696 12:-0.2301162 13:-0.18952782 14:-0.23021381 15:-0.1888077 16:-0.22990675 17:-0.19603519 18:-0.25811705 19:-0.1960863 20:-0.25109798 21:-0.20126936 22:-0.25233567 23:1.0915883 #
2.4501201410040276407187320728553 1:-0.10315946 2:-0.11130137 3:-0.16868624 4:-0.16914918 5:-0.031233175 6:-0.068487734 7:-0.17618033 8:-0.20948476 9:-0.18903852 10:-0.22585191 11:-0.18998298 12:-0.22621864 13:-0.1893156 14:-0.22504428 15:-0.18843344 16:-0.22492476 17:-0.19536535 18:-0.25343779 19:-0.19499505 20:-0.24693297 21:-0.19961943 22:-0.24861413 23:-0.64969963 #
2.4501201410040276407187320728553 1:-0.14894184 2:-0.16019335 3:-0.23170044 4:-0.2059503 5:-0.031171028 6:-0.049694151 7:-0.17615514 8:-0.207027 9:-0.18886369 10:-0.2134499 11:-0.18947947 12:-0.20542081 13:-0.18849954 14:-0.2061629 15:-0.18735473 16:-0.21048021 17:-0.19410819 18:-0.24386171 19:-0.19364536 20:-0.24102935 21:-0.19814338 22:-0.24487729 23:-1.1177921 #
2.4501201410040276407187320728553 1:-0.14496605 2:-0.15507805 3:-0.06815815 4:-0.080378488 5:-0.031194454 6:-0.067799695 7:-0.17621909 8:-0.21570341 9:-0.18902576 10:-0.22494201 11:-0.18990797 12:-0.22344761 13:-0.18919402 14:-0.22275658 15:-0.18822615 16:-0.22289684 17:-0.19512399 18:-0.25178024 19:-0.19482392 20:-0.24624926 21:-0.19963822 22:-0.24876124 23:-0.75706393 #
-0.67843043679421621838798728276743 1:-0.12352405 2:-0.13233984 3:-0.086064138 4:-0.079792202 5:-0.031161536 6:-0.038781486 7:-0.17614616 8:-0.20491239 9:-0.18900549 10:-0.22331983 11:-0.18993503 12:-0.22474034 13:-0.18919957 14:-0.22310334 15:-0.1882896 16:-0.22320299 17:-0.19538729 18:-0.25356072 19:-0.19527209 20:-0.248006 21:-0.20048609 22:-0.25066701 23:0.41544786 #
-0.027551830126259613251704649883322 1:1.47194 2:1.5523248 3:0.32358533 4:0.19531424 5:-0.031334769 6:-0.1637906 7:5.1993241 8:4.7505107 9:4.7734447 10:4.456306 11:4.9308391 12:4.478261 13:5.0805259 14:4.5168524 15:4.869463 16:4.5788836 17:5.0203857 18:4.5620613 19:5.1324515 20:4.8077154 21:5.0059066 22:4.9457326 23:-1.6784786 #
2.4501201410040276407187320728553 1:-0.12297776 2:-0.13304539 3:-0.13886677 4:-0.14252548 5:-0.031145023 6:-0.045727655 7:-0.17616227 8:-0.21010315 9:-0.18894267 10:-0.21979128 11:-0.18976523 12:-0.21801101 13:-0.18906251 14:-0.22001408 15:-0.18826938 16:-0.22338083 17:-0.19534634 18:-0.25364 19:-0.19519524 20:-0.24806675 21:-0.20010346 22:-0.25020197 23:-1.1426518 #
2.4501201410040276407187320728553 1:-0.20609018 2:-0.21639748 3:-0.1916694 4:-0.16832235 5:-0.031196369 6:-0.070014574 7:-0.17624737 8:-0.21926372 9:-0.18912539 10:-0.23323549 11:-0.19008906 12:-0.2307668 13:-0.18939334 14:-0.22769745 15:-0.18865724 16:-0.22834629 17:-0.19578639 18:-0.2559768 19:-0.19589831 20:-0.24968654 21:-0.20140044 22:-0.25186351 23:1.2511142 #
-0.67843043679421621838798728276743 1:-0.14962472 2:-0.15559119 3:-0.13064317 4:-0.13346051 5:-0.031088952 6:-0.032556251 7:-0.17610353 8:-0.20576985 9:-0.18884574 10:-0.21418495 11:-0.18969494 12:-0.21663456 13:-0.1889099 14:-0.21799292 15:-0.18789051 16:-0.21924661 17:-0.19467801 18:-0.24884526 19:-0.19420059 20:-0.24382478 21:-0.19860743 22:-0.24627358 23:-1.0388741 #
-0.67843043679421621838798728276743 1:-0.1175907 2:-0.11997653 3:-0.15100908 4:-0.13986462 5:-0.031136822 6:-0.035418049 7:-0.17616184 8:-0.20893951 9:-0.18899214 10:-0.22350551 11:-0.18988645 12:-0.22338438 13:-0.18913744 14:-0.22216666 15:-0.18820213 16:-0.2226432 17:-0.19504003 18:-0.25138304 19:-0.1945917 20:-0.24541435 21:-0.19910464 22:-0.24749748 23:-1.0776614 #
-0.67843043679421621838798728276743 1:-0.09671016 2:-0.097863689 3:-0.1557001 4:-0.12810871 5:-0.031180874 6:-0.057111807 7:-0.17619121 8:-0.21210803 9:-0.1890461 10:-0.22688262 11:-0.18996088 12:-0.22594221 13:-0.18915939 14:-0.22222555 15:-0.1880403 16:-0.22025803 17:-0.19477911 18:-0.24928154 19:-0.19419333 20:-0.24338812 21:-0.19861852 22:-0.24596658 23:-1.0683295 #
2.4501201410040276407187320728553 1:-0.17769811 2:-0.18934573 3:-0.23812199 4:-0.21360217 5:-0.03112668 6:-0.034253042 7:-0.17613021 8:-0.20865066 9:-0.1890029 10:-0.22494967 11:-0.18991552 12:-0.22514825 13:-0.18937586 14:-0.22794345 15:-0.18870695 16:-0.22918625 17:-0.1959324 18:-0.2576521 19:-0.19594364 20:-0.25078782 21:-0.20114151 22:-0.2523503 23:0.92814583 #
-0.67843043679421621838798728276743 1:-0.15476897 2:-0.16663958 3:-0.11526863 4:-0.11487954 5:-0.031036722 6:-0.0030473671 7:-0.17612295 8:-0.20367144 9:-0.18890694 10:-0.21645777 11:-0.1898113 12:-0.21979988 13:-0.18908338 14:-0.22055326 15:-0.18836197 16:-0.22418961 17:-0.19565779 18:-0.25529072 19:-0.1959223 20:-0.25014433 21:-0.20131253 22:-0.25222862 23:1.3333519 #
-0.67843043679421621838798728276743 1:-0.11683196 2:-0.12420988 3:-0.14950739 4:-0.14261569 5:-0.031140748 6:-0.044425592 7:-0.17617647 8:-0.21114801 9:-0.18902642 10:-0.22592422 11:-0.18996069 12:-0.22648722 13:-0.18936634 14:-0.22728953 15:-0.18861793 16:-0.22808279 17:-0.19573641 18:-0.25618857 19:-0.19567467 20:-0.24968725 21:-0.20082651 22:-0.25130621 23:0.45451644 #
2.4501201410040276407187320728553 1:-0.072172493 2:-0.073313475 3:-0.035792939 4:-0.055107784 5:-0.031213736 6:-0.068161532 7:-0.17616829 8:-0.20899494 9:-0.18904991 10:-0.22649339 11:-0.19000109 12:-0.22730492 13:-0.18929088 14:-0.22463636 15:-0.1882482 16:-0.2225665 17:-0.19530511 18:-0.25270563 19:-0.19510235 20:-0.24695955 21:-0.19982858 22:-0.24883766 23:-0.13814113 #
-0.67843043679421621838798728276743 1:-0.11003364 2:-0.11816452 3:-0.20266756 4:-0.19840366 5:-0.031272765 6:-0.089509897 7:-0.17625405 8:-0.22096959 9:-0.18916309 10:-0.23516735 11:-0.19015318 12:-0.23379242 13:-0.18959288 14:-0.23237541 15:-0.18884653 16:-0.23124078 17:-0.19597916 18:-0.25816578 19:-0.19584699 20:-0.2505919 21:-0.20081277 22:-0.25153112 23:0.51781434 #
2.4501201410040276407187320728553 1:-0.14316025 2:-0.15498184 3:-0.16372348 4:-0.1626699 5:-0.031170785 6:-0.051961113 7:-0.17619109 8:-0.21238783 9:-0.18897747 10:-0.22172847 11:-0.1898009 12:-0.21894594 13:-0.1890247 14:-0.21872021 15:-0.18803127 16:-0.21987376 17:-0.19474652 18:-0.24889673 19:-0.19422035 20:-0.24364108 21:-0.19881985 22:-0.24662697 23:-0.99912542 #
-0.67843043679421621838798728276743 1:-0.085890524 2:-0.089765809 3:-0.20374021 4:-0.19024067 5:-0.031152304 6:-0.033104487 7:-0.17607921 8:-0.19902782 9:-0.18875666 10:-0.20640768 11:-0.18940338 12:-0.20287147 13:-0.1885072 14:-0.20659454 15:-0.18726598 16:-0.20955282 17:-0.19393693 18:-0.24266334 19:-0.19327213 20:-0.23934405 21:-0.19765735 22:-0.24345168 23:-1.1629621 #
-0.67843043679421621838798728276743 1:-0.10769672 2:-0.11268041 3:-0.16134936 4:-0.13942866 5:-0.031043062 6:0.0043127211 7:-0.17611119 8:-0.20269446 9:-0.18894468 10:-0.21985403 11:-0.18972649 12:-0.21685526 13:-0.1888614 14:-0.21548623 15:-0.18768133 16:-0.21564418 17:-0.19431689 18:-0.24568483 19:-0.19354977 20:-0.24048267 21:-0.19784872 22:-0.24383122 23:-1.0572107 #
-0.67843043679421621838798728276743 1:-0.096376315 2:-0.10493531 3:-0.21179219 4:-0.21573687 5:-0.031242823 6:-0.077917419 7:-0.17622434 8:-0.21607973 9:-0.18908884 10:-0.2300113 11:-0.1899803 12:-0.22718145 13:-0.18934084 14:-0.22669981 15:-0.18840989 16:-0.22483894 17:-0.19529189 18:-0.25351769 19:-0.1953834 20:-0.24845652 21:-0.18097943 22:-0.19763143 23:-1.0575603 #
2.4501201410040276407187320728553 1:-0.1505959 2:-0.16036974 3:-0.21601124 4:-0.20289858 5:-0.031151703 6:-0.04860042 7:-0.17620182 8:-0.21358164 9:-0.18907771 10:-0.22892892 11:-0.19003823 12:-0.22934885 13:-0.18947193 14:-0.22989938 15:-0.1888493 16:-0.23111703 17:-0.19611825 18:-0.25931892 19:-0.19615251 20:-0.25207353 21:-0.20128356 22:-0.25305712 23:0.88923603 #
-0.67843043679421621838798728276743 1:-0.12309915 2:-0.12815459 3:-0.084633946 4:-0.076394707 5:-0.031118948 6:-0.03918444 7:-0.17616682 8:-0.20944214 9:-0.18896574 10:-0.22102828 11:-0.18985988 12:-0.22204629 13:-0.18917288 14:-0.22274886 15:-0.18837199 16:-0.22470073 17:-0.1955145 18:-0.25454536 19:-0.19549491 20:-0.24910291 21:-0.20064175 22:-0.25128567 23:0.38115504 #
-0.67843043679421621838798728276743 1:-0.12446488 2:-0.13416786 3:-0.13476212 4:-0.13358077 5:-0.031167125 6:-0.055853602 7:-0.1761986 8:-0.21331994 9:-0.18904749 10:-0.2270817 11:-0.18995519 12:-0.22600044 13:-0.18929034 14:-0.22555214 15:-0.18849306 16:-0.2261944 17:-0.19566935 18:-0.25593656 19:-0.19572993 20:-0.25023896 21:-0.20094641 22:-0.25217229 23:0.44157884 #
-0.014092970914467393972469011487192 1:-0.60306317 2:-0.64035779 3:-1.2652276 4:-1.1079687 5:-0.032063656 6:-0.3077468 7:5.8564363 8:4.7540941 9:5.7516112 10:4.4607487 11:5.6174269 12:4.4888434 13:5.7871485 14:4.5417547 15:5.9065838 16:4.6138177 17:6.0900073 18:4.6335964 19:5.9037986 20:4.8582797 21:6.1107502 22:5.2347188 23:-1.6786484 #
-0.67843043679421621838798728276743 1:0.0066909799 2:0.0079059005 3:-0.12074625 4:-0.12316281 5:-0.031215098 6:-0.072188333 7:-0.176219 8:-0.21695869 9:-0.18908542 10:-0.23065193 11:-0.19003969 12:-0.22956732 13:-0.18939836 14:-0.22809014 15:-0.18854946 16:-0.22700822 17:-0.19555216 18:-0.2547181 19:-0.19545394 20:-0.24826445 21:-0.20063306 22:-0.25058335 23:0.55561936 #
-0.67843043679421621838798728276743 1:-0.02972856 2:-0.045892913 3:-0.038324378 4:-0.044163659 5:-0.031111877 6:-0.02939566 7:-0.17613026 8:-0.20525628 9:-0.18892628 10:-0.21831903 11:-0.18970931 12:-0.2158031 13:-0.18895191 14:-0.21714978 15:-0.18812785 16:-0.22107346 17:-0.1951557 18:-0.25185391 19:-0.19500747 20:-0.24685222 21:-0.20030946 22:-0.25014141 23:0.38585123 #
-0.67843043679421621838798728276743 1:-0.055313285 2:-0.06154348 3:0.058528122 4:0.038578738 5:-0.031095184 6:-0.03578537 7:-0.17617497 8:-0.21213934 9:-0.18902391 10:-0.22587892 11:-0.18999831 12:-0.22896619 13:-0.18933056 14:-0.22703974 15:-0.18853241 16:-0.22607622 17:-0.19564177 18:-0.25508025 19:-0.19558749 20:-0.24882133 21:-0.20074533 22:-0.25051948 23:0.54471457 #
2.4501201410040276407187320728553 1:-0.084980033 2:-0.09255597 3:-0.1984628 4:-0.19541207 5:-0.031088259 6:-0.025442868 7:-0.17610525 8:-0.20236188 9:-0.18885295 10:-0.21339799 11:-0.18964271 12:-0.21293321 13:-0.18887669 14:-0.2158477 15:-0.18791914 16:-0.21876352 17:-0.19476376 18:-0.24943218 19:-0.19436285 20:-0.24439022 21:-0.19898051 22:-0.24710269 23:-0.91579139 #
-0.67843043679421621838798728276743 1:-0.098045543 2:-0.10416561 3:-0.21671203 4:-0.20265804 5:-0.0311004 6:-0.025716987 7:-0.17613815 8:-0.20610017 9:-0.18895532 10:-0.22023751 11:-0.18974733 12:-0.21680352 13:-0.18890846 14:-0.21598202 15:-0.1878774 16:-0.21783544 17:-0.19464324 18:-0.24790697 19:-0.19404617 20:-0.24272835 21:-0.19860932 22:-0.24605921 23:-0.99797839 #
2.4501201410040276407187320728553 1:0.0025634321 2:0.0052279863 3:-0.070875511 4:-0.07404954 5:-0.031133775 6:-0.047007788 7:-0.17620277 8:-0.21371813 9:-0.18910928 10:-0.2307923 11:-0.19002482 12:-0.22835582 13:-0.18950167 14:-0.22933209 15:-0.18868895 16:-0.22786683 17:-0.19587423 18:-0.25603077 19:-0.1959586 20:-0.24964619 21:-0.20151027 22:-0.25192004 23:1.0369598 #
-0.67843043679421621838798728276743 1:-0.14177933 2:-0.14900063 3:-0.19262762 4:-0.18364112 5:-0.03116041 6:-0.05022046 7:-0.17618114 8:-0.21285124 9:-0.18899681 10:-0.22424227 11:-0.18984975 12:-0.22189407 13:-0.18909687 14:-0.22086741 15:-0.18817027 16:-0.22213712 17:-0.19498776 18:-0.25084579 19:-0.19458462 20:-0.2453561 21:-0.19926189 22:-0.24791758 23:-0.9724946 #
-0.67843043679421621838798728276743 1:-0.11749965 2:-0.12350432 3:-0.16369487 4:-0.15020742 5:-0.031104272 6:-0.02182176 7:-0.17615567 8:-0.20776267 9:-0.18900402 10:-0.22320774 11:-0.18989089 12:-0.22260679 13:-0.18920729 14:-0.22279705 15:-0.18826506 16:-0.22313665 17:-0.19513002 18:-0.25197911 19:-0.19469267 20:-0.24584861 21:-0.19929904 22:-0.24803439 23:-0.9957279 #
2.4501201410040276407187320728553 1:-0.15654443 2:-0.16851573 3:-0.046805408 4:-0.0486736 5:-0.031152135 6:-0.054907892 7:-0.17622885 8:-0.21869962 9:-0.1890799 10:-0.22948596 11:-0.18999207 12:-0.22814137 13:-0.18934587 14:-0.22701091 15:-0.18849649 16:-0.2262668 17:-0.19572705 18:-0.25539914 19:-0.19573364 20:-0.24911812 21:-0.20119646 22:-0.2514829 23:0.91806203 #
-0.67843043679421621838798728276743 1:-0.1403529 2:-0.14497574 3:-0.13111514 4:-0.11630769 5:-0.03112179 6:-0.025974657 7:-0.17617831 8:-0.20953226 9:-0.18900168 10:-0.22336981 11:-0.18990494 12:-0.22336912 13:-0.18916552 14:-0.22196455 15:-0.18819368 16:-0.22209159 17:-0.19503286 18:-0.25109351 19:-0.19448265 20:-0.24482663 21:-0.19896421 22:-0.24701396 23:-1.0122714 #
-0.67843043679421621838798728276743 1:-0.17410168 2:-0.18623486 3:-0.1601766 4:-0.16236924 5:-0.031135935 6:-0.043715622 7:-0.17620063 8:-0.21289988 9:-0.18908021 10:-0.22898571 11:-0.19005305 12:-0.22997923 13:-0.18950622 14:-0.230716 15:-0.18873218 16:-0.22984259 17:-0.19579607 18:-0.25703594 19:-0.19545773 20:-0.24936476 21:-0.200214 22:-0.25052541 23:-0.99526155 #
2.4501201410040276407187320728553 1:-0.096391492 2:-0.10495134 3:-0.12402139 4:-0.12630473 5:-0.031158531 6:-0.048526406 7:-0.17617162 8:-0.21120872 9:-0.18898596 10:-0.22218831 11:-0.18979105 12:-0.21903904 13:-0.18914869 14:-0.2210093 15:-0.18837349 16:-0.22343554 17:-0.19564937 18:-0.25454167 19:-0.19562039 20:-0.24846768 21:-0.2008862 22:-0.250622 23:0.85794556 #
2.4501201410040276407187320728553 1:-0.08935038 2:-0.093582235 3:0.010073268 4:-0.0036343173 5:-0.031274233 6:-0.086532973 7:-0.1762249 8:-0.21551526 9:-0.18902859 10:-0.22589083 11:-0.18997733 12:-0.2265107 13:-0.18928006 14:-0.22485149 15:-0.18841471 16:-0.22428374 17:-0.19542311 18:-0.25293243 19:-0.19542405 20:-0.24772741 21:-0.20044366 22:-0.24942547 23:0.93707252 #
-0.67843043679421621838798728276743 1:-0.1264376 2:-0.13471307 3:-0.12425022 4:-0.12092286 5:-0.031179072 6:-0.054175995 7:-0.17617659 8:-0.2117057 9:-0.18905799 10:-0.22831063 11:-0.19001484 12:-0.22966555 13:-0.18947741 14:-0.23087065 15:-0.1887407 16:-0.23029718 17:-0.19589037 18:-0.25797084 19:-0.19576268 20:-0.25062069 21:-0.20073578 22:-0.25173447 23:0.26294008 #
-0.67843043679421621838798728276743 1:-0.20524038 2:-0.21997337 3:-0.31366464 4:-0.29530728 5:-0.031272862 6:-0.083092779 7:-0.17626433 8:-0.22050767 9:-0.18915178 10:-0.23440507 11:-0.1901664 12:-0.2343163 13:-0.18965447 14:-0.2336984 15:-0.18895184 16:-0.23227443 17:-0.19606736 18:-0.25875652 19:-0.19601569 20:-0.25097609 21:-0.20120209 22:-0.25229388 23:0.94405669 #
2.4501201410040276407187320728553 1:-0.1666812 2:-0.17837751 3:-0.17486466 4:-0.16179797 5:-0.031146323 6:-0.043359268 7:-0.17615093 8:-0.20582566 9:-0.18894713 10:-0.21948181 11:-0.18974283 12:-0.21683925 13:-0.18889572 14:-0.21588191 15:-0.18789417 16:-0.21811596 17:-0.19474077 18:-0.24898595 19:-0.19433334 20:-0.24417025 21:-0.19898032 22:-0.24717318 23:-0.99526155 #
2.4501201410040276407187320728553 1:-0.17062666 2:-0.18339659 3:-0.10358397 4:-0.10646099 5:-0.03122896 6:-0.0721993 7:-0.17619517 8:-0.21538855 9:-0.18903984 10:-0.22754514 11:-0.1899278 12:-0.22531222 13:-0.18923947 14:-0.22418061 15:-0.18826948 16:-0.22319908 17:-0.1954443 18:-0.25347754 19:-0.19518948 20:-0.24667871 21:-0.20063703 22:-0.24989378 23:0.89143205 #
-0.67843043679421621838798728276743 1:-0.22889791 2:-0.24303229 3:-0.15434143 4:-0.14512622 5:-0.031135568 6:-0.04842224 7:-0.17616533 8:-0.21118082 9:-0.18902025 10:-0.22633323 11:-0.18998165 12:-0.2280935 13:-0.18938646 14:-0.22844805 15:-0.18857042 16:-0.22770557 17:-0.19549972 18:-0.25491104 19:-0.19509585 20:-0.2478776 21:-0.1998377 22:-0.24967617 23:-1.0063548 #
2.4501201410040276407187320728553 1:-0.13986732 2:-0.15089281 3:-0.20325394 4:-0.19799776 5:-0.031247208 6:-0.078073665 7:-0.17622051 8:-0.21531954 9:-0.18903282 10:-0.22633472 11:-0.18992469 12:-0.22484943 13:-0.18921834 14:-0.22397108 15:-0.18841146 16:-0.22523327 17:-0.19549987 18:-0.25465065 19:-0.19527863 20:-0.24817798 21:-0.20013598 22:-0.2499464 23:-0.047142345 #
-0.67843043679421621838798728276743 1:-0.10998812 2:-0.11763536 3:-0.13416144 4:-0.13500892 5:-0.031239277 6:-0.086291745 7:-0.17623386 8:-0.21866719 9:-0.18912399 10:-0.23308979 11:-0.19013432 12:-0.23365469 13:-0.18962045 14:-0.2332816 15:-0.18890423 16:-0.2319726 17:-0.19604485 18:-0.25866145 19:-0.19594926 20:-0.2507934 21:-0.20095567 22:-0.25178012 23:0.20742656 #
-0.67843043679421621838798728276743 1:-0.12478355 2:-0.13261244 3:-0.11769995 4:-0.11653319 5:-0.031130986 6:-0.041807756 7:-0.17615922 8:-0.21034899 9:-0.18898101 10:-0.22288211 11:-0.18987046 12:-0.22266452 13:-0.18919787 14:-0.22366807 15:-0.18837395 16:-0.22515643 17:-0.19542253 18:-0.2540186 19:-0.1953522 20:-0.24843994 21:-0.20054457 22:-0.25099373 23:0.39148206 #
-0.67843043679421621838798728276743 1:-0.16725785 2:-0.179051 3:-0.1226198 4:-0.12054703 5:-0.03118236 6:-0.061166022 7:-0.17622627 8:-0.21728183 9:-0.1891233 10:-0.23248766 11:-0.19013451 12:-0.23357384 13:-0.18962149 14:-0.23340093 15:-0.18889089 16:-0.23188061 17:-0.19593401 18:-0.25830457 19:-0.19569217 20:-0.25038558 21:-0.20044369 22:-0.25113627 23:-1.0047215 #
-0.67843043679421621838798728276743 1:-0.16484505 2:-0.17284529 3:-0.01393963 4:-0.010910356 5:-0.031147294 6:-0.048677173 7:-0.17619231 8:-0.2130477 9:-0.18903252 10:-0.22607844 11:-0.18992923 12:-0.22500777 13:-0.18918446 14:-0.22273736 15:-0.18819691 16:-0.22222492 17:-0.19510993 18:-0.25165513 19:-0.19471636 20:-0.24567991 21:-0.19936502 22:-0.247971 23:-0.84239763 #
-0.67843043679421621838798728276743 1:-0.14007977 2:-0.14685188 3:-0.049379751 4:-0.037113119 5:-0.03114769 6:-0.033397794 7:-0.17618905 8:-0.21068534 9:-0.18889067 10:-0.21455142 11:-0.18974437 12:-0.2160318 13:-0.18898292 14:-0.21682784 15:-0.18789409 16:-0.21774845 17:-0.19455872 18:-0.24707286 19:-0.19385995 20:-0.24172674 21:-0.19818147 22:-0.2446399 23:-0.8603276 #
-0.67843043679421621838798728276743 1:-0.12322055 2:-0.12778577 3:-0.038381584 4:-0.026574887 5:-0.03116424 6:-0.049507752 7:-0.17618507 8:-0.21189763 9:-0.18899696 10:-0.22328217 11:-0.18988864 12:-0.22301871 13:-0.18917227 14:-0.22243631 15:-0.18820639 16:-0.22236849 17:-0.19498266 18:-0.25091186 19:-0.19445455 20:-0.24478142 21:-0.19907939 22:-0.24730375 23:-0.94994891 #
2.4501201410040276407187320728553 1:-0.09382695 2:-0.10224136 3:-0.23051338 4:-0.22009648 5:-0.031254698 6:-0.081949703 7:-0.1761826 8:-0.2117155 9:-0.18904379 10:-0.22695471 11:-0.18996698 12:-0.2265667 13:-0.18932375 14:-0.22642061 15:-0.1884453 16:-0.22633076 17:-0.19545609 18:-0.25456104 19:-0.19525373 20:-0.24824323 21:-0.20012991 22:-0.24994852 23:-0.041503962 #
-0.67843043679421621838798728276743 1:-0.20847262 2:-0.222523 3:-0.21559648 4:-0.19658466 5:-0.0311873 6:-0.054529607 7:-0.17618589 8:-0.2117977 9:-0.18899913 10:-0.22392854 11:-0.18991616 12:-0.22438291 13:-0.18926072 14:-0.22464807 15:-0.1884663 16:-0.22594605 17:-0.19557354 18:-0.25527427 19:-0.1955431 20:-0.24929416 21:-0.2006287 22:-0.25128937 23:0.48290125 #
-0.67843043679421621838798728276743 1:-0.059349783 2:-0.061864186 3:-0.01206608 4:-0.022530973 5:-0.031108024 6:-0.030470205 7:-0.17613025 8:-0.20426005 9:-0.18890996 10:-0.21671832 11:-0.1898205 12:-0.22019343 13:-0.18927282 14:-0.22497992 15:-0.1885483 16:-0.22688469 17:-0.19568656 18:-0.2559925 19:-0.19582392 20:-0.25028983 21:-0.20125058 22:-0.25243172 23:1.2046158 #
2.4501201410040276407187320728553 1:-0.1648147 2:-0.17645326 3:-0.10039464 4:-0.090976857 5:-0.031153399 6:-0.043954108 7:-0.17616545 8:-0.20928867 9:-0.18898411 10:-0.222247 11:-0.18985271 12:-0.22138268 13:-0.18914948 14:-0.2219149 15:-0.18822098 16:-0.22251558 17:-0.19506878 18:-0.25138831 19:-0.19466959 20:-0.24566662 21:-0.19926158 22:-0.24795105 23:-1.0047215 #
-0.016836134509007078668973989010738 1:-0.60295695 2:-0.64024556 3:0.78467876 4:0.56182218 5:-0.030361926 6:0.11026783 7:2.5930254 8:4.7169695 9:2.4013357 10:4.3995819 11:2.3554809 12:4.3898301 13:2.3107693 14:4.3573828 15:2.2498755 16:4.3264642 17:2.2137213 18:4.1673131 19:2.1666384 20:4.0720758 21:2.2434733 22:3.9329853 23:-1.676216 #
-0.67843043679421621838798728276743 1:-0.11633119 2:-0.12437023 3:-0.092971958 4:-0.098508455 5:-0.031127715 6:-0.038844533 7:-0.17616229 8:-0.20936182 9:-0.18900123 10:-0.22386941 11:-0.18994974 12:-0.22566664 13:-0.18935275 14:-0.22699226 15:-0.18873571 16:-0.22960146 17:-0.19609337 18:-0.25919893 19:-0.19617136 20:-0.25219986 21:-0.20129597 22:-0.25314748 23:0.37429014 #
-0.67843043679421621838798728276743 1:-0.15994358 2:-0.16827519 3:-0.11453923 4:-0.10779893 5:-0.031139592 6:-0.043301705 7:-0.17616926 8:-0.21104658 9:-0.18901005 10:-0.22416867 11:-0.18986027 12:-0.22176671 13:-0.18923022 14:-0.22322609 15:-0.18835399 16:-0.22393842 17:-0.19531682 18:-0.252938 19:-0.19515447 20:-0.24736245 21:-0.20028771 22:-0.24990404 23:0.37383774 #
-0.67843043679421621838798728276743 1:-0.099138133 2:-0.10726044 3:-0.12798302 4:-0.12740214 5:-0.031151744 6:-0.048438687 7:-0.17616536 8:-0.20915632 9:-0.18896668 10:-0.22108103 11:-0.18988478 12:-0.22255805 13:-0.18917756 14:-0.22253431 15:-0.18837027 16:-0.22452979 17:-0.19553442 18:-0.25470173 19:-0.19542901 20:-0.24861157 21:-0.20064835 22:-0.25106555 23:0.39148206 #
-0.67843043679421621838798728276743 1:-0.21804792 2:-0.23350726 3:-0.29095322 4:-0.26331675 5:-0.031268802 6:-0.084279716 7:-0.17625214 8:-0.22119507 9:-0.18914668 10:-0.23440635 11:-0.19014764 12:-0.23344636 13:-0.18955581 14:-0.2315159 15:-0.18880205 16:-0.23056975 17:-0.19602564 18:-0.25845733 19:-0.19604954 20:-0.25111121 21:-0.20124502 22:-0.25237662 23:1.0224187 #
-0.67843043679421621838798728276743 1:-0.06886439 2:-0.074307665 3:-0.061951123 4:-0.059031434 5:-0.031158496 6:-0.050820779 7:-0.17615761 8:-0.20866349 9:-0.18893443 10:-0.21867231 11:-0.18970591 12:-0.21513636 13:-0.18889092 14:-0.21504438 15:-0.18785104 16:-0.21689668 17:-0.19444692 18:-0.24629803 19:-0.19392972 20:-0.24192637 21:-0.19830714 22:-0.2448917 23:-0.99670631 #
-0.67843043679421621838798728276743 1:-0.08285556 2:-0.078765512 3:-0.055229228 4:-0.046358496 5:-0.031043658 6:-0.0035654516 7:-0.17611499 8:-0.20358434 9:-0.18889719 10:-0.21638525 11:-0.18965361 12:-0.21326314 13:-0.18883012 14:-0.21428154 15:-0.18780193 16:-0.21707921 17:-0.19459185 18:-0.24795745 19:-0.19410071 20:-0.24333061 21:-0.19881785 22:-0.24678105 23:-0.97307736 #
-0.67843043679421621838798728276743 1:-0.066345371 2:-0.071068518 3:-0.075223289 4:-0.086707443 5:-0.031088855 6:-0.019143619 7:-0.17611971 8:-0.20345539 9:-0.18894777 10:-0.21953818 11:-0.18984649 12:-0.22120434 13:-0.18906917 14:-0.21990217 15:-0.18805499 16:-0.22047663 17:-0.19491374 18:-0.25024644 19:-0.19442926 20:-0.24445277 21:-0.19908823 22:-0.24715158 23:-0.90919566 #
-0.67843043679421621838798728276743 1:-0.10315946 2:-0.11165415 3:-0.1458461 4:-0.14169866 5:-0.031124808 6:-0.037802882 7:-0.17614323 8:-0.20703568 9:-0.18897265 10:-0.22200391 11:-0.18986773 12:-0.22253668 13:-0.18918407 14:-0.22341967 15:-0.18840037 16:-0.22532409 17:-0.19555429 18:-0.25515383 19:-0.19552317 20:-0.24934216 21:-0.20064345 22:-0.25140586 23:0.37352115 #
2.4501201410040276407187320728553 1:-0.066406071 2:-0.072511703 3:-0.08768025 4:-0.093427256 5:-0.031212876 6:-0.061407246 7:-0.17617743 8:-0.20887993 9:-0.18896577 10:-0.22048423 11:-0.18974973 12:-0.21670754 13:-0.18892665 14:-0.21598805 15:-0.18787736 16:-0.21729542 17:-0.19462194 18:-0.24749163 19:-0.19398464 20:-0.24224178 21:-0.19829908 22:-0.24505262 23:-1.0925995 #
-0.67843043679421621838798728276743 1:-0.11885021 2:-0.12760939 3:-0.12898415 4:-0.13291931 5:-0.03115269 6:-0.046352644 7:-0.17616616 8:-0.2096533 9:-0.18895404 10:-0.22067544 11:-0.18984364 12:-0.22123246 13:-0.18909517 14:-0.22037511 15:-0.18823101 16:-0.2227408 17:-0.19538993 18:-0.25364542 19:-0.19534613 20:-0.24845619 21:-0.20053932 22:-0.25096557 23:0.35119089 #
-0.013011538807636337591877584429767 1:0.26739419 2:0.27946565 3:0.1627032 4:0.066420108 5:-0.031753678 6:-0.24427734 7:4.6401367 8:4.7461033 9:4.2746301 10:4.4490004 11:4.4160862 12:4.467907 13:4.5507517 14:4.4972634 15:4.3767281 16:4.5774956 17:4.5122094 18:4.529314 19:4.3599195 20:4.6358118 21:4.5131178 22:4.8931217 23:-1.6782433 #
-0.029926391129726243739428426238192 1:-0.60298729 2:-0.64027762 3:3.6210611 4:2.7076373 5:7.3126922 6:22.099983 7:2.7277584 8:4.7310309 9:2.6705267 10:4.4233389 11:2.7607269 12:4.4217286 13:2.6299081 14:4.4228811 15:2.6864226 16:4.3917069 17:2.5709431 18:4.3429713 19:2.6302252 20:4.2440577 21:2.7232006 22:4.1587873 23:-1.6773746 #
2.4501201410040276407187320728553 1:-0.11845566 2:-0.12826684 3:-0.2043552 4:-0.20369533 5:-0.031197825 6:-0.06938684 7:-0.17619182 8:-0.21277922 9:-0.1890282 10:-0.22523852 11:-0.18998705 12:-0.22635037 13:-0.18926051 14:-0.22454849 15:-0.18850346 16:-0.22590481 17:-0.19571379 18:-0.25555021 19:-0.1957871 20:-0.24942566 21:-0.20109609 22:-0.25140575 23:0.96858495 #
-0.67843043679421621838798728276743 1:-0.11447986 2:-0.10857535 3:-0.06132184 4:-0.044223793 5:-0.031103218 6:-0.027649524 7:-0.17610919 8:-0.20407152 9:-0.18887542 10:-0.21560127 11:-0.18962534 12:-0.21268389 13:-0.18873261 14:-0.2120783 15:-0.18768011 16:-0.21496458 17:-0.19443481 18:-0.24656694 19:-0.19394223 20:-0.24242955 21:-0.19845805 22:-0.24578784 23:-1.0520278 #
-0.67843043679421621838798728276743 1:-0.11212777 2:-0.11962375 3:-0.065183356 4:-0.046989888 5:-0.031062363 6:-0.0070220889 7:-0.17609209 8:-0.19968429 9:-0.18888326 10:-0.21490172 11:-0.18967354 12:-0.21399474 13:-0.18883294 14:-0.21445496 15:-0.18778415 16:-0.21676932 17:-0.19460344 18:-0.24801016 19:-0.19403365 20:-0.24294557 21:-0.19858544 22:-0.24600132 23:-1.15294 #
-0.67843043679421621838798728276743 1:-0.11323553 2:-0.10681146 3:-0.17485036 4:-0.14099211 5:-0.03117007 6:-0.031163726 7:-0.17615548 8:-0.20668688 9:-0.18899861 10:-0.22376648 11:-0.18995082 12:-0.22594008 13:-0.18931846 14:-0.22650777 15:-0.18852203 16:-0.2271571 17:-0.19558911 18:-0.25556687 19:-0.19535923 20:-0.24869876 21:-0.2002226 22:-0.250386 23:-0.3790848 #
-0.010698743517643771738789837399963 1:0.93828762 2:0.98840737 3:1.3557538 4:1.0086823 5:-0.031110696 6:-0.12300447 7:4.1810369 8:4.7412782 9:3.863142 10:4.436408 11:3.7711847 12:4.4491587 13:3.6830084 14:4.4697404 15:3.7605102 16:4.4992833 17:3.6825092 18:4.4353771 19:3.5854213 20:4.4976521 21:3.5412786 22:4.522367 23:-1.6778314 #
-0.67843043679421621838798728276743 1:-0.098485611 2:-0.10435803 3:-0.16033393 4:-0.15343955 5:-0.031172099 6:-0.046264928 7:-0.17619751 8:-0.21373171 9:-0.18910931 10:-0.23138805 11:-0.1900337 12:-0.22932836 13:-0.18946686 14:-0.22970951 15:-0.18864335 16:-0.22841907 17:-0.19576949 18:-0.2566835 19:-0.19561215 20:-0.24958654 21:-0.20061848 22:-0.25105497 23:0.20602778 #
-0.013961167446612706907749235085703 1:4.4329548 2:4.735034 3:4.7806025 4:4.8171024 5:-0.029299179 6:0.74980056 7:-0.17517379 8:-0.079645947 9:-0.18807627 10:-0.15864278 11:-0.18890996 12:-0.1905777 13:-0.18830711 14:-0.20712106 15:-0.18767852 16:-0.2171194 17:-0.19491701 18:-0.25018609 19:-0.19537981 20:-0.24780756 21:-0.20114952 22:-0.25141221 23:2.4389372 #
2.4501201410040276407187320728553 1:0.022563828 2:0.019194832 3:0.088075854 4:0.095915124 5:-0.030947821 6:0.040120851 7:-0.17601362 8:-0.19009915 9:-0.18875074 10:-0.20536019 11:-0.1895346 12:-0.20818372 13:-0.18872924 14:-0.21151321 15:-0.18770774 16:-0.21521336 17:-0.19456424 18:-0.24722956 19:-0.19415946 20:-0.24311468 21:-0.19872884 22:-0.24621856 23:-1.0235032 #
-0.67843043679421621838798728276743 1:-0.099684425 2:-0.10761322 3:-0.056716628 4:-0.055243082 5:-0.031124391 6:-0.034719046 7:-0.1761636 8:-0.21006884 9:-0.18902849 10:-0.22633727 11:-0.19001427 12:-0.22900543 13:-0.18942679 14:-0.22955109 15:-0.18864107 16:-0.22863092 17:-0.19560322 18:-0.2557416 19:-0.19525813 20:-0.2484667 21:-0.19988766 22:-0.249699 23:-1.0409429 #
-0.67843043679421621838798728276743 1:-0.020456752 2:-0.022192573 3:0.0046957522 4:-0.010805124 5:-0.031108757 6:-0.030453758 7:-0.17609899 8:-0.20101084 9:-0.18888427 10:-0.21430044 11:-0.18968928 12:-0.21373929 13:-0.188898 14:-0.21481273 15:-0.18788685 16:-0.21756601 17:-0.19442183 18:-0.24621238 19:-0.19378361 20:-0.24140616 21:-0.19832212 22:-0.24500053 23:-1.0325011 #
-0.67843043679421621838798728276743 1:-0.026390102 2:-0.016371718 3:0.0087002851 4:0.029152958 5:-0.031079292 6:-0.018447358 7:-0.17612082 8:-0.20572384 9:-0.18890552 10:-0.21727493 11:-0.18960652 12:-0.21140079 13:-0.18868694 14:-0.2110932 15:-0.18761471 16:-0.21449773 17:-0.19425881 18:-0.24524267 19:-0.19370089 20:-0.24135046 21:-0.19825192 22:-0.24516615 23:-1.0588328 #
-0.67843043679421621838798728276743 1:-0.043552808 2:-0.044690259 3:0.045384672 4:0.024222089 5:-0.031080291 6:-0.026095271 7:-0.17610054 8:-0.2036771 9:-0.18890408 10:-0.21705565 11:-0.18964669 12:-0.21331301 13:-0.18878278 14:-0.21305904 15:-0.18763158 16:-0.21452527 17:-0.19445178 18:-0.24653557 19:-0.19387688 20:-0.24204853 21:-0.19803943 22:-0.2444637 23:-0.98540622 #
-0.67843043679421621838798728276743 1:-0.21630283 2:-0.22977102 3:-0.29347035 4:-0.26590246 5:-0.031253923 6:-0.074077018 7:-0.17623146 8:-0.21760045 9:-0.18911345 10:-0.23191957 11:-0.19012633 12:-0.23309332 13:-0.18958277 14:-0.2322325 15:-0.18889959 16:-0.23185153 17:-0.19607075 18:-0.25899574 19:-0.19601332 20:-0.25130007 21:-0.20115504 22:-0.25226921 23:1.0816523 #
-0.67843043679421621838798728276743 1:-0.11596699 2:-0.12355243 3:-0.10375559 4:-0.088300958 5:-0.03113384 6:-0.037394445 7:-0.17617041 8:-0.21001981 9:-0.18903659 10:-0.22649913 11:-0.19001235 12:-0.22855753 13:-0.18945561 14:-0.2297831 15:-0.18871374 16:-0.22945118 17:-0.19586429 18:-0.25751981 19:-0.19572686 20:-0.2502819 21:-0.20065504 22:-0.25148004 23:0.18235023 #
-0.67843043679421621838798728276743 1:-0.11888056 2:-0.12757732 3:-0.14533123 4:-0.14577265 5:-0.031162674 6:-0.05181035 7:-0.17616013 8:-0.20958957 9:-0.18899466 10:-0.22358909 11:-0.18989815 12:-0.2236452 13:-0.18922098 14:-0.22408888 15:-0.18839093 16:-0.22526944 17:-0.19550885 18:-0.25486037 19:-0.19558145 20:-0.24963516 21:-0.20075236 22:-0.25171089 23:0.23687086 #
-0.67843043679421621838798728276743 1:-0.11596699 2:-0.12355243 3:-0.10375559 4:-0.088300958 5:-0.03113384 6:-0.037394445 7:-0.17617041 8:-0.21001981 9:-0.18903659 10:-0.22649913 11:-0.19001235 12:-0.22855753 13:-0.18945561 14:-0.2297831 15:-0.18871374 16:-0.22945118 17:-0.19586429 18:-0.25751981 19:-0.19572686 20:-0.2502819 21:-0.20065504 22:-0.25148004 23:0.18235023 #
2.4501201410040276407187320728553 1:-0.12117195 2:-0.12592566 3:0.082612529 4:0.080010064 5:-0.031013036 6:0.014408514 7:-0.17610379 8:-0.19800973 9:-0.18889382 10:-0.21342692 11:-0.18971092 12:-0.21397649 13:-0.18895701 14:-0.21599963 15:-0.18800993 16:-0.21890427 17:-0.19472817 18:-0.24837662 19:-0.19431661 20:-0.24390547 21:-0.19900925 22:-0.24700028 23:-0.94048923 #
-0.67843043679421621838798728276743 1:-0.058606219 2:-0.057149775 3:0.075275652 4:0.068028659 5:-0.031057902 6:0.0017716403 7:-0.17613131 8:-0.20271632 9:-0.18890756 10:-0.21547811 11:-0.18975233 12:-0.21669453 13:-0.18907201 14:-0.21948807 15:-0.18812358 16:-0.22058056 17:-0.19495916 18:-0.25002497 19:-0.19440667 20:-0.24405257 21:-0.19886646 22:-0.24651252 23:-0.98213387 #
-0.67843043679421621838798728276743 1:-0.078803889 2:-0.082581945 3:-0.022291942 4:-0.04220935 5:-0.030946076 6:0.029419256 7:-0.17605832 8:-0.19848068 9:-0.18881646 10:-0.21114665 11:-0.18967186 12:-0.21457174 13:-0.18869217 14:-0.21188167 15:-0.18748938 16:-0.21346603 17:-0.19414429 18:-0.24455027 19:-0.19350246 20:-0.2404018 21:-0.19787192 22:-0.24398701 23:-1.0343177 #
-0.67843043679421621838798728276743 1:-0.096315615 2:-0.10113492 3:-0.027269006 4:-0.016427519 5:-0.031068886 6:-0.017671602 7:-0.17612344 8:-0.20539466 9:-0.18896236 10:-0.22113378 11:-0.18989946 12:-0.22391951 13:-0.18921249 14:-0.22395201 15:-0.18828079 16:-0.22381388 17:-0.19514741 18:-0.25203818 19:-0.194611 20:-0.24515015 21:-0.19905633 22:-0.24708924 23:-0.96976674 #
-0.67843043679421621838798728276743 1:-0.10177854 2:-0.10703595 3:-0.11403866 4:-0.10897152 5:-0.031136056 6:-0.036703665 7:-0.17617159 8:-0.20913747 9:-0.18899527 10:-0.2230027 11:-0.18987708 12:-0.22206378 13:-0.18923818 14:-0.22344749 15:-0.18840952 16:-0.22493243 17:-0.19549225 18:-0.25454953 19:-0.19544356 20:-0.24881881 21:-0.2006119 22:-0.25118428 23:0.27469444 #
2.4501201410040276407187320728553 1:-0.099942394 2:-0.10761322 3:-0.012881289 4:-0.011090755 5:-0.031089878 6:-0.019686375 7:-0.17609525 8:-0.20098142 9:-0.18885195 10:-0.21340097 11:-0.18960159 12:-0.21153913 13:-0.18873574 14:-0.21218838 15:-0.18775977 16:-0.21620733 17:-0.19459949 18:-0.24778309 19:-0.19416678 20:-0.24342078 21:-0.19886127 22:-0.24685609 23:-1.0409429 #
2.4501201410040276407187320728553 1:-0.12056496 2:-0.11136551 3:-0.14455892 4:-0.11444359 5:-0.03124867 6:-0.070373669 7:-0.17621118 8:-0.21179356 9:-0.18894874 10:-0.21979575 11:-0.18977183 12:-0.21853741 13:-0.18889968 14:-0.21594241 15:-0.18799025 16:-0.21917902 17:-0.19485894 18:-0.24986115 19:-0.19461027 20:-0.24511126 21:-0.19961302 22:-0.24834336 23:-0.11037569 #
-0.67843043679421621838798728276743 1:-0.12938152 2:-0.13790412 3:-0.10312631 4:-0.098643757 5:-0.031157272 6:-0.047142107 7:-0.17618924 8:-0.21184295 9:-0.18902938 10:-0.22560562 11:-0.18995111 12:-0.22560665 13:-0.18945099 14:-0.22921866 15:-0.18886922 16:-0.23131445 17:-0.19624291 18:-0.26011929 19:-0.19634844 20:-0.25280082 21:-0.20155835 22:-0.2536175 23:1.3307555 #
-0.67843043679421621838798728276743 1:-0.0025656528 2:-0.0010258254 3:0.064005747 4:0.043374307 5:-0.031031886 6:-0.0099743474 7:-0.17612745 8:-0.20593727 9:-0.18901414 10:-0.22486077 11:-0.19000724 12:-0.22753488 13:-0.18939847 14:-0.22761329 15:-0.18864097 16:-0.22919716 17:-0.19580169 18:-0.25715542 19:-0.19556996 20:-0.24969356 21:-0.18275365 22:-0.20273125 23:-1.0347867 #
-0.67843043679421621838798728276743 1:0.060455322 2:0.068375446 3:0.11083019 4:0.11176006 5:-0.031117441 6:-0.034858845 7:-0.17615859 8:-0.20967819 9:-0.18898861 10:-0.22307566 11:-0.189798 12:-0.2199626 13:-0.18902653 14:-0.21933359 15:-0.18799616 16:-0.21972607 17:-0.19468097 18:-0.24840221 19:-0.19400935 20:-0.24267019 21:-0.19835219 22:-0.24524711 23:-0.97957516 #
-0.67843043679421621838798728276743 1:-0.021761784 2:-0.017253665 3:-0.082216926 4:-0.080829486 5:-0.031014493 6:0.0063110464 7:-0.17608291 8:-0.20033965 9:-0.18887292 10:-0.21541792 11:-0.18970525 12:-0.21611266 13:-0.18878891 14:-0.21373756 15:-0.18761805 16:-0.21469826 17:-0.19425394 18:-0.24523345 19:-0.19352096 20:-0.24058826 21:-0.19788364 22:-0.24424455 23:-1.0637016 #
-0.67843043679421621838798728276743 1:-0.12083811 2:-0.12772164 3:-0.10894718 4:-0.11088073 5:-0.031139573 6:-0.042673972 7:-0.17618474 8:-0.21124944 9:-0.18896672 10:-0.22102106 11:-0.18981513 12:-0.22028016 13:-0.18909909 14:-0.22078688 15:-0.18827982 16:-0.22321945 17:-0.19531713 18:-0.253227 19:-0.19517703 20:-0.24774377 21:-0.20029308 22:-0.25035879 23:0.20681696 #
2.4501201410040276407187320728553 1:-0.00517572 2:0.0095415125 3:-0.10790315 4:-0.093096524 5:-0.031183926 6:-0.050437015 7:-0.17620447 8:-0.2120692 9:-0.18896088 10:-0.2201101 11:-0.18980202 12:-0.21943009 13:-0.18914217 14:-0.22188257 15:-0.18839857 16:-0.22481115 17:-0.19555861 18:-0.25495562 19:-0.19545683 20:-0.24898319 21:-0.20032492 22:-0.25059673 23:-0.944112 #
-0.67843043679421621838798728276743 1:-0.024614649 2:-0.025848648 3:-0.022492168 4:-0.023733623 5:-0.031104621 6:-0.030834783 7:-0.17613402 8:-0.20817217 9:-0.18890654 10:-0.21730854 11:-0.18967123 12:-0.21446176 13:-0.1887631 14:-0.21311153 15:-0.18761814 16:-0.21494302 17:-0.19435291 18:-0.24614212 19:-0.19387439 20:-0.24182975 21:-0.19846952 22:-0.24541391 23:-0.82008576 #
-0.67843043679421621838798728276743 1:-0.030214153 2:-0.034331381 3:-0.1841037 4:-0.18601635 5:-0.031227371 6:-0.083175018 7:-0.17615077 8:-0.20730339 9:-0.1888878 10:-0.21523565 11:-0.1894993 12:-0.20667379 13:-0.18827426 14:-0.20191817 15:-0.18691911 16:-0.20526057 17:-0.19344729 18:-0.23896894 19:-0.19290538 20:-0.23770508 21:-0.19726366 22:-0.24221842 23:-1.3437792 #
-0.67843043679421621838798728276743 1:-0.080913186 2:-0.083688386 3:-0.056759533 4:-0.06352634 5:-0.031010849 6:-0.0031241204 7:-0.17608583 8:-0.20186527 9:-0.18888615 10:-0.21632846 11:-0.18966635 12:-0.2147892 13:-0.1888043 14:-0.214702 15:-0.18761323 16:-0.21518493 17:-0.19430414 18:-0.24568582 19:-0.19364937 20:-0.24108286 21:-0.19780545 22:-0.24389558 23:-1.1470228 #
-0.67843043679421621838798728276743 1:-0.053522658 2:-0.057694979 3:-0.085005797 4:-0.080694184 5:-0.031046271 6:-0.013609162 7:-0.17612435 8:-0.2065451 9:-0.18893839 10:-0.21993229 11:-0.18976779 12:-0.21856926 13:-0.18898542 14:-0.21850501 15:-0.18796213 16:-0.21964511 17:-0.19466116 18:-0.24855782 19:-0.19400091 20:-0.24274932 21:-0.19840257 22:-0.24550237 23:-1.1111757 #
2.4501201410040276407187320728553 1:-0.20316143 2:-0.21777652 3:-0.29485765 4:-0.27696684 5:-0.031194657 6:-0.066568904 7:-0.17617264 8:-0.21219589 9:-0.188997 10:-0.22437371 11:-0.18997534 12:-0.22719544 13:-0.18938549 14:-0.22808178 15:-0.18865483 16:-0.22866189 17:-0.19587176 18:-0.25729585 19:-0.19586366 20:-0.25056496 21:-0.20094608 22:-0.25193015 23:0.84514004 #
2.4501201410040276407187320728553 1:-0.1218093 2:-0.13181067 3:-0.23150021 4:-0.20837064 5:-0.031139133 6:-0.043534704 7:-0.17615576 8:-0.20868838 9:-0.18897882 10:-0.2225384 11:-0.18986921 12:-0.22205453 13:-0.18926956 14:-0.22478756 15:-0.1884484 16:-0.22553128 17:-0.19568963 18:-0.25574812 19:-0.19563544 20:-0.249632 21:-0.20081064 22:-0.25150552 23:0.69029909 #
2.4501201410040276407187320728553 1:-0.16440497 2:-0.17577977 3:-0.075480729 4:-0.078499347 5:-0.03109934 6:-0.026818944 7:-0.17612788 8:-0.20385998 9:-0.18888164 10:-0.21432617 11:-0.18963528 12:-0.2117271 13:-0.1887998 14:-0.21279411 15:-0.18775456 16:-0.21564648 17:-0.19447109 18:-0.24653091 19:-0.19395544 20:-0.24223201 21:-0.19851926 22:-0.24574065 23:-1.1540945 #
-0.67843043679421621838798728276743 1:-0.15950352 2:-0.16840348 3:-0.16475321 4:-0.15380034 5:-0.031177718 6:-0.052314728 7:-0.17616844 8:-0.20938446 9:-0.1890059 10:-0.22383454 11:-0.18992288 12:-0.22418582 13:-0.18919928 14:-0.223206 15:-0.18839487 16:-0.22515905 17:-0.19550776 18:-0.25475445 19:-0.19546221 20:-0.24898696 21:-0.20063068 22:-0.25125176 23:0.35602868 #
2.4501201410040276407187320728553 1:-0.089304857 2:-0.095602699 3:-0.19797654 4:-0.1880759 5:-0.031171624 6:-0.049995683 7:-0.17617737 8:-0.21023738 9:-0.18897477 10:-0.22129054 11:-0.18980709 12:-0.21895094 13:-0.18904892 14:-0.21888308 15:-0.18811288 16:-0.22079189 17:-0.19499871 18:-0.250837 19:-0.19461703 20:-0.24536376 21:-0.19934189 22:-0.2480403 23:-1.0269439 #
-0.019315674137382204261781382115259 1:1.083207 2:1.1415455 3:0.031840768 4:-0.038796827 5:-0.03096292 6:-0.09694948 7:3.1972327 8:4.7314148 9:3.1328595 10:4.4261675 11:3.0471981 12:4.4317532 13:2.9663742 14:4.4472394 15:3.0295939 16:4.4624143 17:2.95667 18:4.3615246 19:3.0242641 20:4.3961658 21:2.9720094 22:4.409286 23:-1.6774076 #
-0.67843043679421621838798728276743 1:-0.11803076 2:-0.1248994 3:-0.15189581 4:-0.15198132 5:-0.031202529 6:-0.061360646 7:-0.17615774 8:-0.21054168 9:-0.18901132 10:-0.22542164 11:-0.18994214 12:-0.22554742 13:-0.18925792 14:-0.2249023 15:-0.18834935 16:-0.22468473 17:-0.19530769 18:-0.25326362 19:-0.19501606 20:-0.2469884 21:-0.19965577 22:-0.24872981 23:-0.70656151 #
-0.67843043679421621838798728276743 1:-0.262586 2:-0.27927235 3:-0.19101152 4:-0.18872233 5:-0.031239264 6:-0.074074276 7:-0.17621137 8:-0.21294363 9:-0.18908936 10:-0.22956422 11:-0.19004726 12:-0.22919726 13:-0.18946573 14:-0.22848234 15:-0.18868735 16:-0.22760265 17:-0.1956909 18:-0.25540802 19:-0.19538206 20:-0.24835877 21:-0.20010974 22:-0.24991101 23:-0.67497271 #
-0.67843043679421621838798728276743 1:-0.26747227 2:-0.28491679 3:-0.18291663 4:-0.17570363 5:-0.031296283 6:-0.091461621 7:-0.17621993 8:-0.21631728 9:-0.18910235 10:-0.23150121 11:-0.19009274 12:-0.23240384 13:-0.18957826 14:-0.23296607 15:-0.18887487 16:-0.23180163 17:-0.19595206 18:-0.25824162 19:-0.19572136 20:-0.25031954 21:-0.20052388 22:-0.25115126 23:-0.60702288 #
2.4501201410040276407187320728553 1:0.016038662 2:0.013855039 3:-0.015126687 4:-0.040119745 5:-0.031213567 6:-0.07918933 7:-0.17622824 8:-0.21832028 9:-0.18908781 10:-0.2302995 11:-0.19001293 12:-0.22906917 13:-0.18937789 14:-0.22756574 15:-0.18853198 16:-0.22647624 17:-0.19572181 18:-0.25578403 19:-0.1956834 20:-0.24931481 21:-0.2008007 22:-0.25085726 23:0.65200573 #
2.4501201410040276407187320728553 1:-0.13593704 2:-0.14191298 3:-0.17588009 4:-0.17361401 5:-0.031222938 6:-0.079192072 7:-0.17615812 8:-0.2094806 9:-0.18898486 10:-0.22146623 11:-0.18985015 12:-0.22052647 13:-0.18914945 14:-0.22149074 15:-0.18835294 16:-0.22390303 17:-0.19557571 18:-0.25450817 19:-0.19562709 20:-0.24911936 21:-0.20072947 22:-0.25089139 23:0.68528962 #
-0.67843043679421621838798728276743 1:-0.12792474 2:-0.13763152 3:-0.15056573 4:-0.14742629 5:-0.031185035 6:-0.060398489 7:-0.17618495 8:-0.21208164 9:-0.18903206 10:-0.22639066 11:-0.18990865 12:-0.2241867 13:-0.18917751 14:-0.22276334 15:-0.18840376 16:-0.22515188 17:-0.19548057 18:-0.25463521 19:-0.19542649 20:-0.24890986 21:-0.20064223 22:-0.25127771 23:0.42335534 #
-0.67843043679421621838798728276743 1:-0.14317542 2:-0.15275292 3:-0.081816472 4:-0.081085049 5:-0.031113919 6:-0.032386295 7:-0.17615671 8:-0.20860279 9:-0.18897024 10:-0.22164382 11:-0.1898485 12:-0.22153313 13:-0.18911712 14:-0.22147779 15:-0.18828718 16:-0.22368146 17:-0.1954764 18:-0.25437647 19:-0.19559051 20:-0.24947388 21:-0.20078096 22:-0.25166747 23:0.2551783 #
-0.67843043679421621838798728276743 1:-0.13625571 2:-0.1450078 3:-0.11403866 4:-0.10393542 5:-0.031130968 6:-0.031295303 7:-0.1761315 8:-0.20392974 9:-0.18891682 10:-0.21753122 11:-0.18976039 12:-0.21782655 13:-0.1890516 14:-0.21958636 15:-0.18816374 16:-0.22178505 17:-0.19528954 18:-0.25302327 19:-0.19520123 20:-0.24784787 21:-0.20036529 22:-0.25055823 23:0.25774416 #
-0.67843043679421621838798728276743 1:-0.1521589 2:-0.16178085 3:-0.13188744 4:-0.12009604 5:-0.031167028 6:-0.046730928 7:-0.1761398 8:-0.20611072 9:-0.1889419 10:-0.21939355 11:-0.18982948 12:-0.22063945 13:-0.1890911 14:-0.22053994 15:-0.1881804 16:-0.22228616 17:-0.19528222 18:-0.25307551 19:-0.19520375 20:-0.24780431 21:-0.2003765 22:-0.25057587 23:0.26204243 #
-0.67843043679421621838798728276743 1:-0.1747542 2:-0.18621883 3:-0.21904324 4:-0.20757388 5:-0.031187437 6:-0.063482322 7:-0.17619801 8:-0.21242477 9:-0.18900307 10:-0.22409445 11:-0.18982668 12:-0.22077893 13:-0.18896085 14:-0.21779875 15:-0.18808062 16:-0.22060195 17:-0.19511157 18:-0.2516976 19:-0.19508712 20:-0.24711344 21:-0.20028464 22:-0.25018033 23:0.38856235 #
-0.0087679968154324196272231262128116 1:-0.60291141 2:-0.64019746 3:0.32404298 4:0.19588549 5:-0.030828981 6:-0.073857717 7:5.2234488 8:4.7484984 9:5.1282525 10:4.4502821 11:5.0355287 12:4.4669995 13:4.9436474 14:4.5078034 15:4.8184695 16:4.5740051 17:4.7524314 18:4.583828 19:4.6563191 20:4.7896786 21:4.6264982 22:4.9243636 23:-1.6782914 #
-0.67843043679421621838798728276743 1:-0.19672732 2:-0.20837978 3:-0.12914146 4:-0.11217358 5:-0.031144276 6:-0.047207896 7:-0.17614385 8:-0.20848174 9:-0.18896569 10:-0.22191224 11:-0.18978651 12:-0.21956493 13:-0.18896717 14:-0.21854091 15:-0.18790607 16:-0.21877718 17:-0.19469175 18:-0.2486428 19:-0.19424775 20:-0.24361092 21:-0.19886725 22:-0.24664308 23:-0.8336131 #
-0.67843043679421621838798728276743 1:-0.19672732 2:-0.20837978 3:-0.12914146 4:-0.11217358 5:-0.031144276 6:-0.047207896 7:-0.17614385 8:-0.20848174 9:-0.18896569 10:-0.22191224 11:-0.18978651 12:-0.21956493 13:-0.18896717 14:-0.21854091 15:-0.18790607 16:-0.21877718 17:-0.19469175 18:-0.2486428 19:-0.19424775 20:-0.24361092 21:-0.19886725 22:-0.24664308 23:-0.8336131 #
-0.67843043679421621838798728276743 1:-0.11614909 2:-0.12518804 3:0.035115901 4:0.016705519 5:-0.031159904 6:-0.050193049 7:-0.17614849 8:-0.20804924 9:-0.18897577 10:-0.22283745 11:-0.1898818 12:-0.22311167 13:-0.18914713 14:-0.22184879 15:-0.1881855 16:-0.22202449 17:-0.19499063 18:-0.25109869 19:-0.19459523 20:-0.2452594 21:-0.19928424 22:-0.24782105 23:-0.80989468 #
-0.67843043679421621838798728276743 1:-0.076922208 2:-0.075462222 3:0.046929277 4:0.058978707 5:-0.031123338 6:-0.027644042 7:-0.17613493 8:-0.20548064 9:-0.18897335 10:-0.22174549 11:-0.18982911 12:-0.22069395 13:-0.18910766 14:-0.22134027 15:-0.18812434 16:-0.22161052 17:-0.19501145 18:-0.25114653 19:-0.19460803 20:-0.24543284 21:-0.19929072 22:-0.24785155 23:-0.75340694 #
2.4501201410040276407187320728553 1:-0.15807708 2:-0.16886851 3:-0.247218 4:-0.23550545 5:-0.031203685 6:-0.066840276 7:-0.17621891 8:-0.21704692 9:-0.18909578 10:-0.23174877 11:-0.19006796 12:-0.2315935 13:-0.18953803 14:-0.23231201 15:-0.18881063 16:-0.23141982 17:-0.19600895 18:-0.25881729 19:-0.19590808 20:-0.25101915 21:-0.20094876 22:-0.25210041 23:0.66538519 #
-0.67843043679421621838798728276743 1:-0.12904768 2:-0.1377598 3:-0.11940187 4:-0.11976531 5:-0.031152925 6:-0.051242922 7:-0.17616743 8:-0.21075775 9:-0.18899548 10:-0.22334598 11:-0.18986234 12:-0.22184032 13:-0.18915164 14:-0.22192313 15:-0.18827595 16:-0.22341377 17:-0.19538741 18:-0.25361991 19:-0.19532984 20:-0.24838069 21:-0.20048343 22:-0.25086305 23:0.26204243 #
2.4501201410040276407187320728553 1:-0.19809306 2:-0.21139443 3:-0.21329388 4:-0.20488295 5:-0.031168865 6:-0.053819638 7:-0.17615049 8:-0.208096 9:-0.18902203 10:-0.22532827 11:-0.18998644 12:-0.22693463 13:-0.18924546 14:-0.22447662 15:-0.18836156 16:-0.22443125 17:-0.19535553 18:-0.25346464 19:-0.1951075 20:-0.24731165 21:-0.20002273 22:-0.24961354 23:-0.095097393 #
-0.012483090415223481103867975150479 1:2.3894393 2:2.6516485 3:2.832597 4:2.9333749 5:-0.030346047 6:0.35148135 7:-0.1756992 8:-0.13552715 9:-0.18858939 10:-0.18687242 11:-0.1894626 12:-0.20495728 13:-0.18895856 14:-0.21578319 15:-0.18855956 16:-0.22356497 17:-0.19623752 18:-0.25739127 19:-0.19679663 20:-0.25234628 21:-0.2025636 22:-0.25407973 23:2.514982 #
-0.67843043679421621838798728276743 1:-0.14507227 2:-0.15549497 3:-0.14111216 4:-0.13230295 5:-0.031225985 6:-0.074011229 7:-0.17618579 8:-0.21171927 9:-0.18901134 10:-0.22463979 11:-0.18991023 12:-0.22361483 13:-0.18920732 14:-0.22323716 15:-0.18839073 16:-0.22472106 17:-0.19539189 18:-0.25381017 19:-0.19539995 20:-0.24848163 21:-0.20048663 22:-0.25077525 23:0.44073686 #
2.4501201410040276407187320728553 1:-0.14100543 2:-0.1515182 3:-0.030687161 4:-0.015826194 5:-0.031064671 6:-0.015300475 7:-0.17616972 8:-0.20963182 9:-0.18902752 10:-0.22570005 11:-0.18991973 12:-0.22464186 13:-0.18909054 14:-0.22110388 15:-0.18813081 16:-0.2220093 17:-0.19508275 18:-0.25157249 19:-0.19471593 20:-0.2458728 21:-0.19946992 22:-0.24838239 23:-0.83385539 #
-0.67843043679421621838798728276743 1:-0.11614909 2:-0.12518804 3:0.035115901 4:0.016705519 5:-0.031159904 6:-0.050193049 7:-0.17614849 8:-0.20804924 9:-0.18897577 10:-0.22283745 11:-0.1898818 12:-0.22311167 13:-0.18914713 14:-0.22184879 15:-0.1881855 16:-0.22202449 17:-0.19499063 18:-0.25109869 19:-0.19459523 20:-0.2452594 21:-0.19928424 22:-0.24782105 23:-0.80989468 #
-0.67843043679421621838798728276743 1:-0.11200637 2:-0.11917476 3:-0.049365446 4:-0.033610396 5:-0.031063519 6:-0.010698021 7:-0.17611779 8:-0.20380756 9:-0.18896444 10:-0.22078179 11:-0.18986072 12:-0.22183596 13:-0.18919721 14:-0.22333275 15:-0.18836951 16:-0.22475259 17:-0.1953827 18:-0.25385132 19:-0.19505347 20:-0.24741004 21:-0.19977911 22:-0.24926816 23:-0.8736226 #
-0.67843043679421621838798728276743 1:-0.12983677 2:-0.13589969 3:-0.049551371 4:-0.062639385 5:-0.031165794 6:-0.054535091 7:-0.17619504 8:-0.2147087 9:-0.18908231 10:-0.23024845 11:-0.19000202 12:-0.22842705 13:-0.18924548 14:-0.2248335 15:-0.18817557 16:-0.22252657 17:-0.19492128 18:-0.25046182 19:-0.19446234 20:-0.24469478 21:-0.19881777 22:-0.24664199 23:-0.92360109 #
-0.67843043679421621838798728276743 1:-0.11449504 2:-0.11830884 3:-0.090569235 4:-0.086015917 5:-0.031205546 6:-0.065332629 7:-0.17619209 8:-0.21203791 9:-0.18900588 10:-0.22391005 11:-0.18984048 12:-0.22076494 13:-0.18908598 14:-0.22002412 15:-0.18812132 16:-0.22102241 17:-0.19493906 18:-0.25026101 19:-0.19439855 20:-0.24427702 21:-0.19905719 22:-0.2471173 23:-0.91666704 #
-0.67843043679421621838798728276743 1:-0.14152136 2:-0.15264067 3:-0.18932389 4:-0.17935668 5:-0.031198435 6:-0.060357369 7:-0.17619483 8:-0.21357296 9:-0.18904324 10:-0.22730523 11:-0.18994103 12:-0.22512437 13:-0.18918134 14:-0.22266717 15:-0.18828876 16:-0.22362736 17:-0.19538507 18:-0.2538133 19:-0.19532564 20:-0.24841373 21:-0.20048234 22:-0.25081369 23:0.46447432 #
2.4501201410040276407187320728553 1:-0.15751562 2:-0.16715272 3:-0.25182322 4:-0.22666596 5:-0.031235205 6:-0.074320979 7:-0.17617834 8:-0.21006846 9:-0.18897405 10:-0.22196519 11:-0.18994391 12:-0.22542606 13:-0.18925774 14:-0.22468922 15:-0.18855761 16:-0.2264668 17:-0.19574608 18:-0.25567192 19:-0.19564794 20:-0.249248 21:-0.20077482 22:-0.25089243 23:0.58552694 #
2.4501201410040276407187320728553 1:-0.030441774 2:-0.034844514 3:-0.052740697 4:-0.073628612 5:-0.031201258 6:-0.067585886 7:-0.17620471 8:-0.2142483 9:-0.18902135 10:-0.22505559 11:-0.1898551 12:-0.22167511 13:-0.18905477 14:-0.2195659 15:-0.18800126 16:-0.21972315 17:-0.19481052 18:-0.2494795 19:-0.19431944 20:-0.2440459 21:-0.19890532 22:-0.24683324 23:-0.86458027 #
2.4501201410040276407187320728553 1:-0.14496605 2:-0.15507805 3:-0.06815815 4:-0.080378488 5:-0.031194454 6:-0.067799695 7:-0.17621909 8:-0.21570341 9:-0.18902576 10:-0.22494201 11:-0.18990797 12:-0.22344761 13:-0.18919402 14:-0.22275658 15:-0.18822615 16:-0.22289684 17:-0.19512399 18:-0.25178024 19:-0.19482392 20:-0.24624926 21:-0.19963822 22:-0.24876124 23:-0.75706393 #
-0.67843043679421621838798728276743 1:-0.19672732 2:-0.20837978 3:-0.12914146 4:-0.11217358 5:-0.031144276 6:-0.047207896 7:-0.17614385 8:-0.20848174 9:-0.18896569 10:-0.22191224 11:-0.18978651 12:-0.21956493 13:-0.18896717 14:-0.21854091 15:-0.18790607 16:-0.21877718 17:-0.19469175 18:-0.2486428 19:-0.19424775 20:-0.24361092 21:-0.19886725 22:-0.24664308 23:-0.8336131 #
-0.67843043679421621838798728276743 1:-0.17334294 2:-0.18504824 3:-0.09606117 4:-0.095712289 5:-0.031182541 6:-0.061105717 7:-0.17620987 8:-0.21496661 9:-0.1891004 10:-0.23110411 11:-0.19009846 12:-0.23195606 13:-0.18956195 14:-0.23201875 15:-0.18879257 16:-0.2306722 17:-0.19582826 18:-0.25742972 19:-0.19552602 20:-0.24958903 21:-0.20033258 22:-0.25076494 23:-0.9256292 #
-0.67843043679421621838798728276743 1:-0.17357056 2:-0.18528877 3:-0.10949066 4:-0.10767867 5:-0.031210899 6:-0.072136253 7:-0.17622145 8:-0.21645944 9:-0.1890931 10:-0.23081656 11:-0.1900956 12:-0.23189782 13:-0.18956237 14:-0.23201875 15:-0.18879855 16:-0.23071472 17:-0.19584572 18:-0.25754225 19:-0.19555785 20:-0.24975385 21:-0.20033738 22:-0.25082037 23:-0.9256292 #
-0.67843043679421621838798728276743 1:-0.12080775 2:-0.12890826 3:-0.14310013 4:-0.13684297 5:-0.031183355 6:-0.062402297 7:-0.176199 8:-0.21445191 9:-0.18902464 10:-0.22576386 11:-0.18990716 12:-0.22417496 13:-0.18916419 14:-0.22260718 15:-0.1882605 16:-0.2231434 17:-0.19519025 18:-0.25234497 19:-0.19510062 20:-0.24745779 21:-0.20022686 22:-0.2502476 23:0.23225738 #
-0.67843043679421621838798728276743 1:-0.11363007 2:-0.11991239 3:-0.13587767 4:-0.1238393 5:-0.031273566 6:-0.084732011 7:-0.17626239 8:-0.21995677 9:-0.18918173 10:-0.2359122 11:-0.19017732 12:-0.23473571 13:-0.18964414 14:-0.2328174 15:-0.18895945 16:-0.23204891 17:-0.19606495 18:-0.25864267 19:-0.19587223 20:-0.25062567 21:-0.20079604 22:-0.25144121 23:0.40048742 #
-0.67843043679421621838798728276743 1:-0.1354211 2:-0.14515214 3:-0.12206203 4:-0.12183989 5:-0.031161921 6:-0.054751642 7:-0.17619391 8:-0.21307975 9:-0.18905418 10:-0.22762044 11:-0.18994361 12:-0.22507451 13:-0.18924999 14:-0.22430322 15:-0.18840396 16:-0.22501694 17:-0.19541733 18:-0.25408891 19:-0.19533323 20:-0.24851426 21:-0.2005402 22:-0.25102675 23:0.35440198 #
2.4501201410040276407187320728553 1:-0.19174998 2:-0.20600653 3:-0.15531395 4:-0.13950382 5:-0.031183667 6:-0.0556206 7:-0.17620116 8:-0.21354392 9:-0.18903002 10:-0.22534017 11:-0.18989578 12:-0.22281912 13:-0.18917035 14:-0.22181283 15:-0.18820235 16:-0.22203808 17:-0.19499078 18:-0.25066316 19:-0.19445002 20:-0.24453808 21:-0.19904999 22:-0.24715163 23:-1.0169189 #
2.4501201410040276407187320728553 1:-0.023127517 2:-0.025062911 3:-0.093215086 4:-0.094539709 5:-0.03119426 6:-0.06640169 7:-0.17620063 8:-0.21362424 9:-0.18907721 10:-0.22937302 11:-0.1900647 12:-0.23036064 13:-0.18945855 14:-0.22876598 15:-0.18870892 16:-0.2286467 17:-0.19585311 18:-0.25664425 19:-0.19568756 20:-0.24919 21:-0.20092236 22:-0.25121221 23:0.70936704 #
-0.67843043679421621838798728276743 1:-0.14662011 2:-0.15369901 3:-0.14381522 4:-0.11902869 5:-0.03095288 6:0.042396039 7:-0.17607653 8:-0.19683214 9:-0.18888155 10:-0.21334375 11:-0.18968268 12:-0.21310593 13:-0.1888068 14:-0.21252757 15:-0.18761659 16:-0.21401678 17:-0.19425024 18:-0.24501437 19:-0.19347639 20:-0.2403888 21:-0.19767717 22:-0.24365486 23:-1.0217587 #
-0.67843043679421621838798728276743 1:-0.22889791 2:-0.24303229 3:-0.15434143 4:-0.14512622 5:-0.031135568 6:-0.04842224 7:-0.17616533 8:-0.21118082 9:-0.18902025 10:-0.22633323 11:-0.18998165 12:-0.2280935 13:-0.18938646 14:-0.22844805 15:-0.18857042 16:-0.22770557 17:-0.19549972 18:-0.25491104 19:-0.19509585 20:-0.2478776 21:-0.1998377 22:-0.24967617 23:-1.0063548 #
-0.67843043679421621838798728276743 1:-0.18722789 2:-0.19835763 3:-0.20940377 4:-0.18347576 5:-0.031225726 6:-0.057832737 7:-0.17613614 8:-0.20556773 9:-0.18889695 10:-0.21648903 11:-0.18970272 12:-0.21518286 13:-0.18884265 14:-0.2147464 15:-0.18781671 16:-0.21710153 17:-0.19460519 18:-0.24788508 19:-0.19404186 20:-0.24293514 21:-0.19857712 22:-0.24597335 23:-0.89130718 #
-0.67843043679421621838798728276743 1:-0.24924733 2:-0.26620346 3:-0.2652384 4:-0.2492758 5:-0.031157266 6:-0.045250688 7:-0.17616969 8:-0.21022531 9:-0.18900624 10:-0.22474933 11:-0.18996274 12:-0.22662257 13:-0.18937461 14:-0.22760317 15:-0.18849407 16:-0.22649096 17:-0.19539502 18:-0.25415465 19:-0.19502248 20:-0.24731959 21:-0.19963877 22:-0.24901566 23:-1.1105815 #
2.4501201410040276407187320728553 1:-0.10469211 2:-0.11372272 3:-0.14797708 4:-0.14254051 5:-0.031213308 6:-0.069079831 7:-0.17621842 8:-0.21563931 9:-0.18907946 10:-0.22972332 11:-0.19000831 12:-0.22816311 13:-0.18941909 14:-0.2283593 15:-0.18862085 16:-0.22807595 17:-0.19581644 18:-0.25695941 19:-0.19578788 20:-0.25035039 21:-0.20088078 22:-0.25164273 23:0.58647197 #
2.4501201410040276407187320728553 1:-0.1689726 2:-0.18026969 3:-0.15939 4:-0.1521467 5:-0.031157862 6:-0.051909033 7:-0.17616774 8:-0.20979509 9:-0.18896823 10:-0.22163403 11:-0.1897824 12:-0.21884109 13:-0.18901557 14:-0.21906814 15:-0.18806519 16:-0.22082758 17:-0.1949113 18:-0.25037479 19:-0.19448836 20:-0.2448774 21:-0.19912443 22:-0.24749534 23:-1.0402348 #
-0.67843043679421621838798728276743 1:-0.059349783 2:-0.061864186 3:-0.01206608 4:-0.022530973 5:-0.031108024 6:-0.030470205 7:-0.17613025 8:-0.20426005 9:-0.18890996 10:-0.21671832 11:-0.1898205 12:-0.22019343 13:-0.18927282 14:-0.22497992 15:-0.1885483 16:-0.22688469 17:-0.19568656 18:-0.2559925 19:-0.19582392 20:-0.25028983 21:-0.20125058 22:-0.25243172 23:1.2046158 #
-0.67843043679421621838798728276743 1:-0.19018698 2:-0.20284756 3:-0.29518658 4:-0.2694653 5:-0.031334888 6:-0.10376956 7:-0.17627747 8:-0.22255555 9:-0.18916966 10:-0.23599346 11:-0.19018824 12:-0.23554343 13:-0.18964224 14:-0.23373574 15:-0.18895952 16:-0.2326677 17:-0.19605465 18:-0.2589218 19:-0.19586244 20:-0.25085747 21:-0.20083766 22:-0.25181773 23:0.57104301 #
-0.67843043679421621838798728276743 1:-0.16935197 2:-0.1793236 3:-0.27909693 4:-0.26158795 5:-0.031302359 6:-0.095724173 7:-0.17627141 8:-0.22166868 9:-0.18915685 10:-0.23472708 11:-0.19015287 12:-0.23369831 13:-0.18960351 14:-0.23235124 15:-0.18883339 16:-0.23051693 17:-0.19596997 18:-0.25765488 19:-0.19583823 20:-0.2502037 21:-0.20082231 22:-0.25138658 23:0.55196607 #
-0.67843043679421621838798728276743 1:-0.18822943 2:-0.19946408 3:-0.28713462 4:-0.26555669 5:-0.031295169 6:-0.085680462 7:-0.17626582 8:-0.22057743 9:-0.18916897 10:-0.23512079 11:-0.19016901 12:-0.23431593 13:-0.18961774 14:-0.23261552 15:-0.18886442 16:-0.23115234 17:-0.19595976 18:-0.25795111 19:-0.19583276 20:-0.2504628 21:-0.20089556 22:-0.25169423 23:0.57870477 #
2.4501201410040276407187320728553 1:-0.18910956 2:-0.20140436 3:-0.31975725 4:-0.29156402 5:-0.031197127 6:-0.061560754 7:-0.17617783 8:-0.21070571 9:-0.18896486 10:-0.22059248 11:-0.1897687 12:-0.21721031 13:-0.18884835 14:-0.2137972 15:-0.18774247 16:-0.21519867 17:-0.19448623 18:-0.24647707 19:-0.19397825 20:-0.24240202 21:-0.19859231 22:-0.24592924 23:-1.0188526 #
-0.67843043679421621838798728276743 1:-0.096179046 2:-0.1015358 3:-0.18029939 4:-0.18615165 5:-0.031155936 6:-0.053967662 7:-0.17618984 8:-0.21399528 9:-0.18904528 10:-0.22787759 11:-0.19003585 12:-0.22944084 13:-0.18944262 14:-0.22930712 15:-0.18858431 16:-0.22787859 17:-0.19552504 18:-0.25503746 19:-0.19502117 20:-0.24722236 21:-0.1996699 22:-0.2489661 23:-0.98034954 #
-0.67843043679421621838798728276743 1:-0.14329682 2:-0.15150215 3:-0.27474916 4:-0.25583026 5:-0.031094925 6:-0.012024756 7:-0.17612803 8:-0.20410658 9:-0.18893747 10:-0.21937016 11:-0.18973067 12:-0.21700285 13:-0.18891138 14:-0.21656954 15:-0.18787679 16:-0.21812207 17:-0.19473247 18:-0.24901822 19:-0.19426379 20:-0.24398077 21:-0.19885831 22:-0.24688376 23:-1.0054791 #
-0.67843043679421621838798728276743 1:-0.18086964 2:-0.19293766 3:-0.30908805 4:-0.28774559 5:-0.031225335 6:-0.072001934 7:-0.17621125 8:-0.2149093 9:-0.18908747 10:-0.22990793 11:-0.19008164 12:-0.23095189 13:-0.18952775 14:-0.23079129 15:-0.18869792 16:-0.22902249 17:-0.19565204 18:-0.25581816 19:-0.1952827 20:-0.24840999 21:-0.20003891 22:-0.25001705 23:-1.0188526 #
-0.67843043679421621838798728276743 1:-0.13352424 2:-0.14066221 3:-0.25409722 4:-0.23392697 5:-0.031099238 6:-0.012433193 7:-0.17612807 8:-0.20382831 9:-0.18893644 10:-0.21919787 11:-0.18976085 12:-0.21813835 13:-0.1889594 14:-0.2175585 15:-0.18792242 16:-0.21869251 17:-0.19478068 18:-0.24939553 19:-0.1943021 20:-0.24413382 21:-0.19886436 22:-0.24686396 23:-0.98952407 #
2.4501201410040276407187320728553 1:-0.22399645 2:-0.23979315 3:-0.24086796 4:-0.23258902 5:-0.031271957 6:-0.098215908 7:-0.17625028 8:-0.21995337 9:-0.18903583 10:-0.22579278 11:-0.18990219 12:-0.22336826 13:-0.1891854 14:-0.22237588 15:-0.18832147 16:-0.22348663 17:-0.19548538 18:-0.25394732 19:-0.19551547 20:-0.24861093 21:-0.20075132 22:-0.25085318 23:0.51476598 #
-0.67843043679421621838798728276743 1:-0.08499521 2:-0.0920268 3:-0.13373238 4:-0.138677 5:-0.031125024 6:-0.03488626 7:-0.176149 8:-0.20642407 9:-0.18897888 10:-0.221553 11:-0.18990485 12:-0.22298546 13:-0.18919191 14:-0.22282122 15:-0.18842012 16:-0.22505929 17:-0.19547024 18:-0.25439945 19:-0.1951409 20:-0.24773365 21:-0.19990128 22:-0.24954444 23:-1.4184184 #
-0.67843043679421621838798728276743 1:-0.12359992 2:-0.12788199 3:-0.13340344 4:-0.14399873 5:-0.031122036 6:-0.048348229 7:-0.17614329 8:-0.20872194 9:-0.18901484 10:-0.22623008 11:-0.18997486 12:-0.22921614 13:-0.18941133 14:-0.23132749 15:-0.18876638 16:-0.23116061 17:-0.19567937 18:-0.25646344 19:-0.19527099 20:-0.2485567 21:-0.16139926 22:-0.14930426 23:-1.3194566 #
2.4501201410040276407187320728553 1:-0.10514735 2:-0.1125361 3:-0.13776553 4:-0.12955189 5:-0.031172292 6:-0.052736871 7:-0.17617443 8:-0.21057788 9:-0.18899328 10:-0.22266644 11:-0.18983738 12:-0.22043112 13:-0.18903801 14:-0.218868 15:-0.1880288 16:-0.22005008 17:-0.19469304 18:-0.24858731 19:-0.1941724 20:-0.24344675 21:-0.19889928 22:-0.24671124 23:-0.79964674 #
-0.67843043679421621838798728276743 1:-0.16853252 2:-0.17999709 3:-0.20790206 4:-0.1980579 5:-0.031230858 6:-0.073035359 7:-0.17624171 8:-0.21850957 9:-0.18914509 10:-0.2340603 11:-0.19016139 12:-0.23389465 13:-0.18962386 14:-0.23305875 15:-0.18893944 16:-0.23203877 17:-0.19606517 18:-0.25862119 19:-0.19592336 20:-0.25078765 21:-0.20094398 22:-0.25180972 23:0.50801271 #
-0.67843043679421621838798728276743 1:-0.1864388 2:-0.20010549 3:-0.22640872 4:-0.22208086 5:-0.031220896 6:-0.084762163 7:-0.17626423 8:-0.22156535 9:-0.18909547 10:-0.22972545 11:-0.1897679 12:-0.2178243 13:-0.18910183 14:-0.22066319 15:-0.18822113 16:-0.22365303 17:-0.19526096 18:-0.25318152 19:-0.19464788 20:-0.2454069 21:-0.17955448 22:-0.19360262 23:-1.1600415 #
2.4501201410040276407187320728553 1:-0.19202313 2:-0.20600653 3:-0.34030908 4:-0.31476015 5:-0.031198403 6:-0.05846047 7:-0.17618515 8:-0.21278186 9:-0.18901782 10:-0.22562902 11:-0.18982339 12:-0.22058359 13:-0.18914071 14:-0.2215939 15:-0.18841709 16:-0.22463657 17:-0.19560201 18:-0.25455341 19:-0.19563575 20:-0.24878724 21:-0.20086154 22:-0.25085279 23:0.75412542 #
-0.67843043679421621838798728276743 1:-0.15196164 2:-0.16234209 3:-0.22612269 4:-0.21724018 5:-0.031230615 6:-0.076914147 7:-0.17622454 8:-0.21749187 9:-0.18910646 10:-0.23174281 11:-0.19005658 12:-0.23025241 13:-0.1893014 14:-0.22596371 15:-0.18820836 16:-0.22280203 17:-0.1951355 18:-0.25207415 19:-0.19488229 20:-0.24653655 21:-0.19983108 22:-0.2492796 23:-1.2043282 #
-0.67843043679421621838798728276743 1:-0.17114259 2:-0.1790029 3:-0.24997826 4:-0.2296726 5:-0.031196693 6:-0.07145644 7:-0.17616364 8:-0.20713334 9:-0.18891233 10:-0.21715178 11:-0.18983598 12:-0.21936198 13:-0.18911041 14:-0.22068503 15:-0.18820567 16:-0.2219692 17:-0.19526789 18:-0.25237715 19:-0.19480471 20:-0.24555519 21:-0.17991723 22:-0.19322148 23:-1.2283622 #
2.4501201410040276407187320728553 1:-0.24903488 2:-0.26625156 3:-0.24278441 4:-0.22911637 5:-0.031182392 6:-0.059603546 7:-0.1762201 8:-0.21667098 9:-0.18907689 10:-0.22946192 11:-0.19001542 12:-0.22831284 13:-0.18942291 14:-0.22834124 15:-0.18854849 16:-0.22661607 17:-0.19561984 18:-0.25524253 19:-0.19546233 20:-0.24849923 21:-0.200681 22:-0.25068566 23:0.64533204 #
-0.67843043679421621838798728276743 1:-0.12904768 2:-0.13678165 3:-0.096175581 4:-0.08905261 5:-0.031153912 6:-0.043507293 7:-0.1761741 8:-0.20960127 9:-0.18900526 10:-0.22409509 11:-0.18989903 12:-0.22343923 13:-0.18918908 14:-0.2227276 15:-0.18836202 16:-0.22466619 17:-0.19547607 18:-0.25449204 19:-0.19541487 20:-0.2487749 21:-0.20062067 22:-0.2511946 23:0.3911621 #
-0.67843043679421621838798728276743 1:-0.11689266 2:-0.1251239 3:-0.1579026 4:-0.14765179 5:-0.031199783 6:-0.062341992 7:-0.17617607 8:-0.21088859 9:-0.18896227 10:-0.22089621 11:-0.18991487 12:-0.22429918 13:-0.1892909 14:-0.22554611 15:-0.18858472 16:-0.22732854 17:-0.19594461 18:-0.25770783 19:-0.1960955 20:-0.25147763 21:-0.20138642 22:-0.25297517 23:1.3776805 #
-0.67843043679421621838798728276743 1:-0.11663468 2:-0.12473904 3:-0.1458032 4:-0.14662953 5:-0.031172581 6:-0.057660043 7:-0.17617242 8:-0.21070458 9:-0.18899752 10:-0.22335747 11:-0.18989182 12:-0.22324578 13:-0.18923755 14:-0.22424853 15:-0.18848594 16:-0.22620951 17:-0.19565657 18:-0.25588238 19:-0.19571361 20:-0.25017509 21:-0.20092811 22:-0.25207815 23:0.33378094 #
-0.67843043679421621838798728276743 1:-0.14750025 2:-0.15462907 3:-0.14371511 4:-0.11889339 5:-0.030953085 6:0.042190447 7:-0.17607611 8:-0.19674163 9:-0.18888207 10:-0.2133729 11:-0.18968441 12:-0.21318278 13:-0.18880586 14:-0.21254089 15:-0.18761906 16:-0.21405336 17:-0.1942566 18:-0.24505454 19:-0.19348972 20:-0.24043842 21:-0.19770364 22:-0.2437382 23:-1.0161479 #
-0.67843043679421621838798728276743 1:-0.21328303 2:-0.22847214 3:-0.10647295 4:-0.11026437 5:-0.031140331 6:-0.06081789 7:-0.17621362 8:-0.21677014 9:-0.18905537 10:-0.22819003 11:-0.19004509 12:-0.23000447 13:-0.18944088 14:-0.22966954 15:-0.18868394 16:-0.22893883 17:-0.19578332 18:-0.2568495 19:-0.19576177 20:-0.25056887 21:-0.2003306 22:-0.25080058 23:-1.1690925 #
-0.67843043679421621838798728276743 1:-0.23282818 2:-0.24277574 3:-0.075795367 4:-0.057543151 5:-0.031132516 6:-0.016342126 7:-0.17615443 8:-0.20628983 9:-0.18889564 10:-0.21625827 11:-0.18983003 12:-0.21977577 13:-0.18922676 14:-0.22286986 15:-0.18831982 16:-0.22368978 17:-0.19523954 18:-0.25190303 19:-0.19502324 20:-0.24657813 21:-0.18023084 22:-0.19456054 23:-1.1448591 #
-0.0011362417056280937899259697587695 1:-0.18138559 2:-0.1947657 3:-0.58900493 4:-0.54539859 5:-0.031610198 6:-0.21606778 7:-0.17621179 8:-0.21594097 9:3.9048789 10:4.4371734 11:3.8835163 12:4.4448972 13:3.8579493 14:4.4715199 15:3.8011999 16:4.5046902 17:3.7857561 18:4.4419484 19:3.7439485 20:4.4943614 21:3.7519829 22:4.5166736 23:-1.6775738 #
-0.67843043679421621838798728276743 1:-0.12666523 2:-0.13610816 3:-0.11096375 4:-0.1130455 5:-0.031167571 6:-0.055568516 7:-0.17618568 8:-0.21211369 9:-0.18900774 10:-0.22443667 11:-0.18989146 12:-0.22321317 13:-0.18922928 14:-0.22395477 15:-0.18847431 16:-0.22592908 17:-0.19562098 18:-0.25544351 19:-0.19571315 20:-0.25004306 21:-0.20090468 22:-0.25200364 23:0.40558013 #
-0.67843043679421621838798728276743 1:-0.12352405 2:-0.13233984 3:-0.086064138 4:-0.079792202 5:-0.031161536 6:-0.038781486 7:-0.17614616 8:-0.20491239 9:-0.18900549 10:-0.22331983 11:-0.18993503 12:-0.22474034 13:-0.18919957 14:-0.22310334 15:-0.1882896 16:-0.22320299 17:-0.19538729 18:-0.25356072 19:-0.19527209 20:-0.248006 21:-0.20048609 22:-0.25066701 23:0.41544786 #
-0.010946932186225265606904777371255 1:1.4721222 2:1.5525172 3:0.32404298 4:0.19559987 5:-0.031772178 6:-0.2479286 7:3.8940156 8:4.7375278 9:3.628026 10:4.435647 11:3.748821 12:4.441968 13:3.6795862 14:4.4724884 15:3.5852716 16:4.4865623 17:3.69595 18:4.4312043 19:3.6136069 20:4.5463915 21:3.7408206 22:4.5788927 23:-1.6777213 #
-0.67843043679421621838798728276743 1:-0.15865372 2:-0.16947785 3:-0.097677283 4:-0.1056041 5:-0.031170949 6:-0.06178553 7:-0.17620949 8:-0.21468796 9:-0.1890882 10:-0.23034267 11:-0.19007762 12:-0.23131856 13:-0.1895573 14:-0.23189069 15:-0.1888001 16:-0.23049766 17:-0.19580022 18:-0.25689209 19:-0.1954387 20:-0.24909148 21:-0.20010649 22:-0.25018659 23:-1.1540945 #
-0.67843043679421621838798728276743 1:-0.16725785 2:-0.179051 3:-0.1226198 4:-0.12054703 5:-0.03118236 6:-0.061166022 7:-0.17622627 8:-0.21728183 9:-0.1891233 10:-0.23248766 11:-0.19013451 12:-0.23357384 13:-0.18962149 14:-0.23340093 15:-0.18889089 16:-0.23188061 17:-0.19593401 18:-0.25830457 19:-0.19569217 20:-0.25038558 21:-0.20044369 22:-0.25113627 23:-1.0047215 #
-0.67843043679421621838798728276743 1:-0.12407034 2:-0.13184273 3:-0.12274852 4:-0.11226378 5:-0.031128427 6:-0.037317693 7:-0.17616293 8:-0.20928264 9:-0.18898055 10:-0.22235145 11:-0.18984623 12:-0.22163175 13:-0.18921563 14:-0.22380233 15:-0.18851885 16:-0.22660223 17:-0.19581549 18:-0.2570124 19:-0.19593193 20:-0.25110427 21:-0.20113777 22:-0.25264212 23:0.38582745 #
-0.67843043679421621838798728276743 1:-0.1607175 2:-0.17292547 3:-0.2353045 4:-0.23269425 5:-0.03118079 6:-0.06241326 7:-0.17620119 8:-0.21322341 9:-0.18900374 10:-0.22315244 11:-0.1898611 12:-0.22111373 13:-0.1891415 14:-0.22117922 15:-0.18824178 16:-0.22248833 17:-0.19530216 18:-0.25294322 19:-0.19523831 20:-0.24780785 21:-0.20043945 22:-0.25036493 23:0.56621653 #
2.4501201410040276407187320728553 1:-0.086239547 2:-0.092267334 3:-0.028885121 4:-0.052071091 5:-0.031117098 6:-0.034817729 7:-0.17609762 8:-0.20180646 9:-0.18889585 10:-0.21625848 11:-0.18982655 12:-0.22053798 13:-0.18919197 14:-0.22309132 15:-0.18840227 16:-0.22514437 17:-0.19551846 18:-0.25471878 19:-0.19539651 20:-0.24863622 21:-0.20035592 22:-0.25034624 23:-0.072468758 #
-0.67843043679421621838798728276743 1:-0.1406564 2:-0.15031554 3:-0.1570874 4:-0.15229702 5:-0.031185577 6:-0.05897307 7:-0.17618972 8:-0.21234182 9:-0.18901798 10:-0.22503476 11:-0.18988168 12:-0.22291023 13:-0.18922307 14:-0.22369938 15:-0.18847398 16:-0.22620514 17:-0.19579212 18:-0.25687745 19:-0.19588743 20:-0.25088665 21:-0.20104948 22:-0.25244731 23:0.30367321 #
-0.67843043679421621838798728276743 1:-0.12460146 2:-0.13312557 3:-0.12868381 4:-0.12439552 5:-0.031194989 6:-0.063485064 7:-0.1761786 8:-0.21117742 9:-0.18899722 10:-0.22341384 11:-0.18986766 12:-0.2220654 13:-0.1891593 14:-0.22219068 15:-0.18834972 16:-0.22445382 17:-0.19551322 18:-0.25471684 19:-0.19557962 20:-0.24943644 21:-0.2007468 22:-0.25156322 23:0.30543774 #
-0.67843043679421621838798728276743 1:-0.15196164 2:-0.16234209 3:-0.22612269 4:-0.21724018 5:-0.031230615 6:-0.076914147 7:-0.17622454 8:-0.21749187 9:-0.18910646 10:-0.23174281 11:-0.19005658 12:-0.23025241 13:-0.1893014 14:-0.22596371 15:-0.18820836 16:-0.22280203 17:-0.1951355 18:-0.25207415 19:-0.19488229 20:-0.24653655 21:-0.19983108 22:-0.2492796 23:-1.2043282 #
-0.67843043679421621838798728276743 1:-0.062900692 2:-0.066257894 3:-0.10442778 4:-0.082543261 5:-0.03117853 6:-0.045198604 7:-0.17618676 8:-0.211464 9:-0.18901071 10:-0.22379604 11:-0.18983886 12:-0.22058572 13:-0.18908244 14:-0.22044879 15:-0.18811926 16:-0.22161153 17:-0.19506329 18:-0.251569 19:-0.19467577 20:-0.24576953 21:-0.19922414 22:-0.24781358 23:-0.99324048 #
-0.67843043679421621838798728276743 1:-0.093128905 2:-0.10014072 3:-0.098492488 4:-0.096599251 5:-0.031175634 6:-0.051163428 7:-0.17617188 8:-0.20975737 9:-0.18901071 10:-0.22426651 11:-0.18990393 12:-0.2237048 13:-0.18923905 14:-0.22396635 15:-0.18834473 16:-0.22412434 17:-0.19526429 18:-0.25277174 19:-0.19485557 20:-0.24628267 21:-0.19937 22:-0.24797788 23:-0.93791717 #
-0.67843043679421621838798728276743 1:-0.096179046 2:-0.1015358 3:-0.18029939 4:-0.18615165 5:-0.031155936 6:-0.053967662 7:-0.17618984 8:-0.21399528 9:-0.18904528 10:-0.22787759 11:-0.19003585 12:-0.22944084 13:-0.18944262 14:-0.22930712 15:-0.18858431 16:-0.22787859 17:-0.19552504 18:-0.25503746 19:-0.19502117 20:-0.24722236 21:-0.1996699 22:-0.2489661 23:-0.98034954 #
2.4501201410040276407187320728553 1:-0.097271629 2:-0.10349213 3:-0.21546777 4:-0.21106157 5:-0.031133076 6:-0.046009995 7:-0.17618972 8:-0.21224114 9:-0.18905298 10:-0.22710679 11:-0.18996958 12:-0.22638312 13:-0.18914151 14:-0.22149366 15:-0.18834743 16:-0.22359599 17:-0.19544314 18:-0.253117 19:-0.19534031 20:-0.24739213 21:-0.20056263 22:-0.25017571 23:0.54908353 #
-0.67843043679421621838798728276743 1:-0.16352484 2:-0.17334239 3:-0.23624843 4:-0.22752285 5:-0.031268857 6:-0.085603707 7:-0.17627299 8:-0.22136137 9:-0.18917751 10:-0.23588562 11:-0.19018465 12:-0.23489082 13:-0.18964562 14:-0.23365092 15:-0.18889245 16:-0.23176649 17:-0.19599174 18:-0.25843197 19:-0.19589584 20:-0.25070241 21:-0.20090201 22:-0.25162429 23:0.53751838 #
-0.67843043679421621838798728276743 1:-0.11816734 2:-0.12669536 3:-0.12972786 4:-0.11985552 5:-0.031174593 6:-0.054773573 7:-0.17619954 8:-0.21426035 9:-0.18904477 10:-0.22756854 11:-0.18993129 12:-0.22549568 13:-0.18925181 14:-0.22518653 15:-0.18844219 16:-0.22583559 17:-0.19550644 18:-0.25488588 19:-0.19544914 20:-0.24902621 21:-0.20058529 22:-0.25126833 23:0.44075182 #
-0.67843043679421621838798728276743 1:-0.21290366 2:-0.22669221 3:-0.32667938 4:-0.30029827 5:-0.031296268 6:-0.090913385 7:-0.17627883 8:-0.22257967 9:-0.18917064 10:-0.23565549 11:-0.1902048 12:-0.23565152 13:-0.18959738 14:-0.23252095 15:-0.18889189 16:-0.23128524 17:-0.19599527 18:-0.25834855 19:-0.19586964 20:-0.25061035 21:-0.2008674 22:-0.25164652 23:0.69006199 #
-0.67843043679421621838798728276743 1:-0.086588562 2:-0.089429066 3:-0.19159789 4:-0.18355092 5:-0.031107891 6:-0.033419725 7:-0.17609955 8:-0.20279476 9:-0.18890806 10:-0.21769521 11:-0.18978465 12:-0.21927249 13:-0.18901971 14:-0.21985158 15:-0.18800806 16:-0.22054575 17:-0.1948652 18:-0.25015861 19:-0.19437531 20:-0.24456353 21:-0.19900015 22:-0.2472132 23:-0.92935383 #
-0.67843043679421621838798728276743 1:-0.14393416 2:-0.15296137 3:-0.23172903 4:-0.21839774 5:-0.031118622 6:-0.028225172 7:-0.1761356 8:-0.20699571 9:-0.18892704 10:-0.2191698 11:-0.18983401 12:-0.2214524 13:-0.18912105 14:-0.2219703 15:-0.18817843 16:-0.22274555 17:-0.19501446 18:-0.25139499 19:-0.19451137 20:-0.24500148 21:-0.19906498 22:-0.24734309 23:-0.96182847 #
-0.67843043679421621838798728276743 1:-0.12431314 2:-0.13233984 3:-0.19241309 4:-0.19300677 5:-0.031036684 6:-0.0023017642 7:-0.17609626 8:-0.20328081 9:-0.18891238 10:-0.21854639 11:-0.18974969 12:-0.21914464 13:-0.18895155 14:-0.21848856 15:-0.18787213 16:-0.21858637 17:-0.19458096 18:-0.24772924 19:-0.19395182 20:-0.24239416 21:-0.19835357 22:-0.2452541 23:-0.94536591 #
-0.67843043679421621838798728276743 1:-0.17602888 2:-0.18817514 3:-0.26399413 4:-0.25011766 5:-0.031211713 6:-0.066733375 7:-0.1762041 8:-0.21394777 9:-0.18905292 10:-0.22707978 11:-0.18992023 12:-0.2242763 13:-0.18916494 14:-0.22246966 15:-0.18838526 16:-0.22495213 17:-0.19549261 18:-0.25451609 19:-0.19543889 20:-0.24883212 21:-0.20059927 22:-0.25117081 23:0.53080684 #
-0.67843043679421621838798728276743 1:-0.055191886 2:-0.06027668 3:0.088647932 4:0.094396777 5:-0.031026725 6:0.0056504202 7:-0.17613332 8:-0.20427175 9:-0.18896173 10:-0.21976151 11:-0.18979448 12:-0.21861576 13:-0.18914698 14:-0.2213704 15:-0.1882862 16:-0.22309859 17:-0.19541101 18:-0.2534551 19:-0.19530855 20:-0.2480024 21:-0.20055717 22:-0.25071993 23:0.39398465 #
-0.67843043679421621838798728276743 1:-0.20898856 2:-0.22393411 3:-0.28503224 4:-0.26438412 5:-0.031296674 6:-0.096072301 7:-0.17626995 8:-0.22107442 9:-0.18912259 10:-0.23232092 11:-0.19010195 12:-0.23158877 13:-0.18962298 14:-0.23230086 15:-0.18891855 16:-0.23131891 17:-0.19604465 18:-0.25868532 19:-0.1960263 20:-0.2512413 21:-0.20121315 22:-0.25244543 23:1.058527 #
2.4501201410040276407187320728553 1:-0.11335693 2:-0.12251013 3:-0.18848008 4:-0.19022563 5:-0.031158032 6:-0.053616792 7:-0.17619421 8:-0.2123799 9:-0.18897511 10:-0.22113229 11:-0.18978527 12:-0.21789303 13:-0.18907732 14:-0.21937938 15:-0.18804213 16:-0.21958412 17:-0.19481502 18:-0.24926502 19:-0.19436373 20:-0.2441289 21:-0.19901903 22:-0.24709457 23:-0.9421609 #
-0.67843043679421621838798728276743 1:-0.13672613 2:-0.14648306 3:-0.17346308 4:-0.17576376 5:-0.03120669 6:-0.072295241 7:-0.1762291 8:-0.21848544 9:-0.18914475 10:-0.23467796 11:-0.19019057 12:-0.23624077 13:-0.18973258 14:-0.23658897 15:-0.1891222 16:-0.23526911 17:-0.19634308 18:-0.26143363 19:-0.19628792 20:-0.25304136 21:-0.20124166 22:-0.25332564 23:-1.1426518 #
2.4501201410040276407187320728553 1:-0.068439491 2:-0.073024839 3:-0.03886785 4:-0.044915315 5:-0.031204106 6:-0.066313975 7:-0.17621091 8:-0.21491344 9:-0.18907614 10:-0.22922434 11:-0.1899419 12:-0.22635925 13:-0.18931141 14:-0.22622493 15:-0.1884675 16:-0.22598654 17:-0.19570021 18:-0.25599581 19:-0.1957304 20:-0.24968857 21:-0.20088743 22:-0.25139448 23:0.5239253 #
-0.67843043679421621838798728276743 1:-0.10375127 2:-0.11235971 3:-0.18810822 4:-0.19060147 5:-0.031184781 6:-0.061791014 7:-0.17622994 8:-0.21718757 9:-0.18911453 10:-0.23150715 11:-0.19011533 12:-0.23219176 13:-0.18957071 14:-0.23182888 15:-0.18879254 16:-0.23040748 17:-0.19579041 18:-0.25694463 19:-0.19543092 20:-0.24912141 21:-0.20016284 22:-0.2503075 23:-0.9421609 #
-0.67843043679421621838798728276743 1:-0.12218866 2:-0.12954967 3:-0.27563587 4:-0.2562061 5:-0.031106217 6:-0.036810573 7:-0.1761592 8:-0.21019439 9:-0.1890059 10:-0.22499584 11:-0.18996279 12:-0.22728255 13:-0.1893802 14:-0.22842598 15:-0.18852375 16:-0.22747342 17:-0.19546394 18:-0.25491092 19:-0.19507366 20:-0.24764088 21:-0.19975653 22:-0.24930038 23:-0.95624679 #
-0.67843043679421621838798728276743 1:-0.16167352 2:-0.16731307 3:-0.1714322 4:-0.15165061 5:-0.031181024 6:-0.056771897 7:-0.1761854 8:-0.21298133 9:-0.18902317 10:-0.22553203 11:-0.18994665 12:-0.22562203 13:-0.18925534 14:-0.22485717 15:-0.18835941 16:-0.22495973 17:-0.19530971 18:-0.2535007 19:-0.19487618 20:-0.24674828 21:-0.19959611 22:-0.2487632 23:-0.92777902 #
2.4501201410040276407187320728553 1:-0.13592187 2:-0.14406171 3:-0.12994237 4:-0.11922412 5:-0.031102555 6:-0.034074865 7:-0.1761788 8:-0.20990293 9:-0.18896694 10:-0.21966536 11:-0.18973558 12:-0.21575436 13:-0.18912113 14:-0.22022136 15:-0.1882638 16:-0.22266653 17:-0.19544026 18:-0.25356424 19:-0.19547813 20:-0.24822672 21:-0.20074068 22:-0.2507987 23:0.52592331 #
2.4501201410040276407187320728553 1:-0.026056256 2:-0.026025036 3:-0.027912591 4:-0.033264633 5:-0.031105265 6:-0.033567749 7:-0.17618737 8:-0.21331844 9:-0.18905547 10:-0.22815834 11:-0.19005622 12:-0.23018518 13:-0.18949768 14:-0.23018302 15:-0.18869895 16:-0.2285414 17:-0.1958846 18:-0.25719005 19:-0.19579045 20:-0.24987456 21:-0.20086651 22:-0.25129774 23:0.53339666 #
-0.017967826257683800622588776718658 1:-0.084190942 2:-0.092058875 3:0.031426013 4:-0.040255044 5:-0.031738374 6:-0.24136619 7:-0.17642134 8:-0.24944939 9:0.88139522 10:4.256844 11:0.86825991 12:4.1620331 13:0.85568476 14:4.0245008 15:0.83568585 16:3.8018215 17:0.82089764 18:3.3429527 19:0.80518728 20:2.8520989 21:0.79870343 22:2.4183354 23:-1.6710062 #
-0.67843043679421621838798728276743 1:-0.12235559 2:-0.12995055 3:-0.11772855 4:-0.1158116 5:-0.031139327 6:-0.042547878 7:-0.17615221 8:-0.20797646 9:-0.18897867 10:-0.22201432 11:-0.18984853 12:-0.22113372 13:-0.1891733 14:-0.22237515 15:-0.18841967 16:-0.22490723 17:-0.1955688 18:-0.25495058 19:-0.19566406 20:-0.24973351 21:-0.20086993 22:-0.25181568 23:0.27607268 #
2.4501201410040276407187320728553 1:-0.15391919 2:-0.16319197 3:-0.054700058 4:-0.066532969 5:-0.031159308 6:-0.060486209 7:-0.17620303 8:-0.21485764 9:-0.18904521 10:-0.22635876 11:-0.18993112 12:-0.22439578 13:-0.18916488 14:-0.22158022 15:-0.18826972 16:-0.22296278 17:-0.19517879 18:-0.25182086 19:-0.19502395 20:-0.24672998 21:-0.20005283 22:-0.24943656 23:-0.088805206 #
-0.67843043679421621838798728276743 1:-0.11965447 2:-0.12703212 3:-0.091956519 4:-0.085625052 5:-0.031122699 6:-0.034039233 7:-0.17616363 8:-0.20903905 9:-0.18900709 10:-0.2240434 11:-0.18988927 12:-0.2231313 13:-0.1891693 14:-0.22298816 15:-0.1883678 16:-0.22498353 17:-0.19551302 18:-0.25467214 19:-0.1955706 20:-0.24952848 21:-0.20075171 22:-0.25167114 23:0.30850333 #
2.4501201410040276407187320728553 1:-0.17929147 2:-0.19085306 3:-0.19826257 4:-0.18455814 5:-0.031162705 6:-0.050439756 7:-0.1761668 8:-0.20783393 9:-0.18896253 10:-0.22063226 11:-0.18975715 12:-0.21746537 13:-0.18890336 14:-0.21615922 15:-0.18790078 16:-0.21826155 17:-0.19475064 18:-0.24907909 19:-0.19433948 20:-0.24421801 21:-0.19899367 22:-0.24721381 23:-0.99131882 #
-0.67843043679421621838798728276743 1:-0.21328303 2:-0.22847214 3:-0.10647295 4:-0.11026437 5:-0.031140331 6:-0.06081789 7:-0.17621362 8:-0.21677014 9:-0.18905537 10:-0.22819003 11:-0.19004509 12:-0.23000447 13:-0.18944088 14:-0.22966954 15:-0.18868394 16:-0.22893883 17:-0.19578332 18:-0.2568495 19:-0.19576177 20:-0.25056887 21:-0.2003306 22:-0.25080058 23:-1.1690925 #
-0.67843043679421621838798728276743 1:-0.059258737 2:-0.065215588 3:-0.089167647 4:-0.10201117 5:-0.031247413 6:-0.080581851 7:-0.17624006 8:-0.21681087 9:-0.18912736 10:-0.23224562 11:-0.19010849 12:-0.23218739 13:-0.18955731 14:-0.23153614 15:-0.18879026 16:-0.23011135 17:-0.19574001 18:-0.25631574 19:-0.19539286 20:-0.24864015 21:-0.20010044 22:-0.24996743 23:-1.0925995 #
2.4501201410040276407187320728553 1:-0.1689726 2:-0.18026969 3:-0.15939 4:-0.1521467 5:-0.031157862 6:-0.051909033 7:-0.17616774 8:-0.20979509 9:-0.18896823 10:-0.22163403 11:-0.1897824 12:-0.21884109 13:-0.18901557 14:-0.21906814 15:-0.18806519 16:-0.22082758 17:-0.1949113 18:-0.25037479 19:-0.19448836 20:-0.2448774 21:-0.19912443 22:-0.24749534 23:-1.0402348 #
-0.67843043679421621838798728276743 1:-0.1112021 2:-0.12295911 3:-0.10723095 4:-0.10352953 5:-0.031173822 6:-0.053243991 7:-0.17619362 8:-0.21253639 9:-0.1890348 10:-0.22628516 11:-0.18994187 12:-0.22541769 13:-0.18926707 14:-0.22464451 15:-0.18841493 16:-0.22520493 17:-0.19553767 18:-0.2547828 19:-0.19546817 20:-0.24893257 21:-0.20057024 22:-0.25105587 23:0.24558547 #
-0.67843043679421621838798728276743 1:-0.23674329 2:-0.25326291 3:-0.2329447 4:-0.23113081 5:-0.031195711 6:-0.067961425 7:-0.17620249 8:-0.21350282 9:-0.18907899 10:-0.2294364 11:-0.19007084 12:-0.23045738 13:-0.18954474 14:-0.231359 15:-0.18881163 16:-0.2305802 17:-0.19586919 18:-0.25716227 19:-0.19568804 20:-0.24975784 21:-0.20078315 22:-0.25136673 23:0.33344296 #
-0.67843043679421621838798728276743 1:-0.0010026477 2:-0.0014427461 3:-0.15817434 4:-0.16653341 5:-0.031209551 6:-0.07379467 7:-0.17616825 8:-0.2116137 9:-0.18897504 10:-0.22218193 11:-0.18988283 12:-0.22271264 13:-0.18909994 14:-0.22059323 15:-0.18796027 16:-0.21927212 17:-0.19480215 18:-0.24941462 19:-0.19422638 20:-0.24349797 21:-0.19884601 22:-0.24654685 23:-0.82240933 #
-0.67843043679421621838798728276743 1:-0.24871621 2:-0.26267567 3:-0.30160815 4:-0.27014181 5:-0.031260703 6:-0.070253059 7:-0.17622462 8:-0.21432032 9:-0.189014 10:-0.22405021 11:-0.18977764 12:-0.21799864 13:-0.18880364 14:-0.21371566 15:-0.18775623 16:-0.21650642 17:-0.19450448 18:-0.24715519 19:-0.19391076 20:-0.24214077 21:-0.19855411 22:-0.24577987 23:-0.80927157 #
-0.67843043679421621838798728276743 1:0.050515823 2:0.055948 3:0.006354773 4:-0.012248306 5:-0.031100236 6:-0.037753541 7:-0.1762148 8:-0.21489836 9:-0.18911418 10:-0.23088567 11:-0.19010724 12:-0.23160675 13:-0.18956342 14:-0.23135617 15:-0.18898925 16:-0.23160014 17:-0.19615868 18:-0.2584503 19:-0.1963104 20:-0.25122461 21:-0.20176822 22:-0.25282872 23:1.0369598 #
-0.67843043679421621838798728276743 1:-0.10979085 2:-0.11678548 3:-0.11669882 4:-0.12337327 5:-0.03121352 6:-0.076135643 7:-0.1762276 8:-0.21748017 9:-0.18912685 10:-0.23300259 11:-0.19016816 12:-0.23510352 13:-0.18974026 14:-0.23654915 15:-0.18916601 16:-0.23569047 17:-0.19647135 18:-0.26229542 19:-0.19655704 20:-0.25392333 21:-0.20170379 22:-0.25419456 23:1.3558196 #
-0.67843043679421621838798728276743 1:-0.11387287 2:-0.12262237 3:-0.11534014 4:-0.10979834 5:-0.031169251 6:-0.047838368 7:-0.17616999 8:-0.21049719 9:-0.18899901 10:-0.22392684 11:-0.18988103 12:-0.22271027 13:-0.18903328 14:-0.21947876 15:-0.18811995 16:-0.22122136 17:-0.1951021 18:-0.25165483 19:-0.19494545 20:-0.24658014 21:-0.20004365 22:-0.2495828 23:0.41950697 #
-0.67843043679421621838798728276743 1:-0.12366062 2:-0.12908465 3:-0.21621147 4:-0.19906512 5:-0.031154467 6:-0.035346776 7:-0.17612155 8:-0.20411412 9:-0.1888808 10:-0.2160175 11:-0.18969412 12:-0.21579848 13:-0.18897238 14:-0.21850945 15:-0.1880009 16:-0.22018865 17:-0.19490846 18:-0.25039119 19:-0.19450378 20:-0.24504079 21:-0.19914611 22:-0.24762303 23:-0.89826995 #
-0.67843043679421621838798728276743 1:-0.17303945 2:-0.18161666 3:-0.18783648 4:-0.16985573 5:-0.031231929 6:-0.06765715 7:-0.17619216 8:-0.21198171 9:-0.18903992 10:-0.22647488 11:-0.18995324 12:-0.22582273 13:-0.18924285 14:-0.22422436 15:-0.1882704 16:-0.22341496 17:-0.19519444 18:-0.25236973 19:-0.19476494 20:-0.24605694 21:-0.19943233 22:-0.24820751 23:-0.88293552 #
-0.67843043679421621838798728276743 1:-0.21319199 2:-0.22738174 3:-0.18730731 4:-0.15154538 5:-0.031137208 6:-0.037750799 7:-0.17616354 8:-0.20952886 9:-0.18903239 10:-0.22663866 11:-0.19000947 12:-0.22859602 13:-0.18945625 14:-0.22946613 15:-0.18868129 16:-0.22904718 17:-0.19572066 18:-0.25651646 19:-0.19538607 20:-0.24896806 21:-0.20012972 22:-0.25035894 23:-0.91797298 #
-0.67843043679421621838798728276743 1:-0.040184002 2:-0.043006539 3:-0.1803709 4:-0.18896285 5:-0.031250302 6:-0.085644826 7:-0.17621593 8:-0.21525545 9:-0.18904254 10:-0.22631153 11:-0.1899021 12:-0.2229161 13:-0.18918934 14:-0.2216416 15:-0.18831192 16:-0.22265261 17:-0.19537726 18:-0.25313389 19:-0.19523306 20:-0.24732433 21:-0.20047902 22:-0.25013748 23:0.57201624 #
-0.67843043679421621838798728276743 1:-0.058515169 2:-0.064109147 3:-0.10261144 4:-0.11420305 5:-0.031134527 6:-0.045371301 7:-0.17617537 8:-0.21074718 9:-0.18893722 10:-0.2191447 11:-0.18980515 12:-0.21914664 13:-0.18904631 14:-0.21921477 15:-0.18817374 16:-0.2216249 17:-0.19526388 18:-0.25266913 19:-0.19532079 20:-0.24814001 21:-0.20061009 22:-0.25100592 23:0.49496609 #
2.4501201410040276407187320728553 1:-0.22486141 2:-0.23865463 3:-0.23274447 4:-0.20455222 5:-0.031083513 6:-0.020571778 7:-0.17613496 8:-0.20612693 9:-0.1889931 10:-0.22309586 11:-0.18993883 12:-0.2254578 13:-0.18927734 14:-0.22511366 15:-0.18846695 16:-0.22594674 17:-0.19545129 18:-0.25420046 19:-0.19507602 20:-0.24733217 21:-0.19979072 22:-0.24904943 23:-0.71423638 #
