SVM-light Version V6.01
1 # kernel type
2 # kernel parameter -d 
1 # kernel parameter -g 
1 # kernel parameter -s 
1 # kernel parameter -r 
empty# kernel parameter -u 
22 # highest feature index 
3079 # number of training documents 
528 # number of support vectors plus 1 
-0.24188516 # threshold b, each following line is a SV (starting with alpha*y)
0.0034949500222453302837599675711999 1:-0.44821984 2:-0.44999665 3:0.25887379 4:0.23863095 5:-0.48477411 6:-0.41614294 7:-0.17733678 8:-0.27086696 9:-0.34410855 10:-0.38720387 11:-0.1795096 12:-0.1793036 13:0.08115834 14:0.0981282 15:0.22887906 16:0.19050658 17:0.2809101 18:0.2430162 19:0.15461223 20:0.13849346 21:-0.57765937 22:-0.58323979 #
0.0034949500222453302837599675711999 1:-0.68762022 2:-0.66435528 3:-0.19009751 4:-0.10717596 5:-0.027026242 6:-0.20836709 7:-0.53156453 8:-0.48433062 9:-0.62945884 10:-0.65960616 11:-0.6174081 12:-0.54699981 13:-0.33174855 14:-0.3289037 15:-0.47715345 16:-0.4578642 17:-0.55547833 18:-0.38513437 19:-0.49466071 20:-0.30295122 21:-0.61805332 22:-0.61044943 #
-0.0019017155341173469246945915145375 1:-0.067516312 2:-0.04237403 3:-0.29411414 4:-0.28169084 5:-0.49704456 6:-0.42866579 7:-0.58619422 8:-0.56407231 9:-0.80873573 10:-0.81011051 11:-0.82366985 12:-0.82061481 13:-0.79866135 14:-0.78686965 15:-0.89302891 16:-0.8655532 17:-0.87446201 18:-0.81552476 19:-0.5075497 20:-0.46579087 21:-0.6106838 22:-0.61238766 #
0.00097380175082448249858357858244062 1:-0.30076641 2:-0.34343776 3:0.47409818 4:0.50008094 5:2.5052269 6:2.6535051 7:9.9215336 8:10.519125 9:7.5582285 10:8.0604963 11:4.9021978 12:5.3311443 13:3.2383945 14:3.6149077 15:2.1075101 16:2.5140457 17:1.3142737 18:1.7413899 19:0.34410569 20:0.52675688 21:-0.57877791 22:-0.57724196 #
0.0034949500222453302837599675711999 1:0.62946635 2:0.64320129 3:0.74714184 4:0.68224996 5:-0.152973 6:-0.25483948 7:0.02181828 8:-0.13202737 9:-0.21326959 10:-0.30699423 11:-0.4438135 12:-0.51815438 13:-0.49281573 14:-0.55876112 15:-0.50896019 16:-0.56518602 17:-0.56724495 18:-0.64485687 19:-0.2714836 20:-0.31354022 21:-0.59405071 22:-0.60156024 #
-0.0019017155341173469246945915145375 1:0.94128656 2:0.935579 3:-0.4076463 4:-0.53870946 5:0.47092482 6:0.38853604 7:-0.026185554 8:-0.28292361 9:0.03050323 10:-0.046307717 11:-0.14337951 12:-0.055412438 13:-0.075123727 14:-0.059017599 15:0.15563442 16:0.11553431 17:0.0023281784 18:-0.023298876 19:-0.027813541 20:-0.033112496 21:0.16981418 22:0.18378326 #
0.0034949500222453302837599675711999 1:0.18633729 2:0.13010556 3:1.4629101 4:1.4340497 5:1.448521 6:1.5210493 7:1.1820236 8:1.1921818 9:1.9263109 10:1.9161272 11:1.9985777 12:2.1144536 13:2.2940156 14:2.4621315 15:2.2755764 16:2.4553916 17:2.2528472 18:2.3695073 19:1.02542 20:1.07813 21:-0.54144931 22:-0.54356903 #
-0.0019017155341173469246945915145375 1:-1.2139322 2:-1.2385634 3:-0.6877358 4:-0.55305094 5:-0.11810695 6:-0.025234852 7:0.59250951 8:0.38346007 9:0.20346621 10:0.17316656 11:0.17748918 12:0.27532518 13:0.036867682 14:0.10259476 15:0.2653029 16:0.4223769 17:0.44244909 18:0.39705935 19:0.10275661 20:0.060141604 21:0.73001409 22:0.72668213 #
0.0034949500222453302837599675711999 1:0.44987762 2:0.43985531 3:-0.38738048 4:-0.38465941 5:-0.51016301 6:-0.45847934 7:0.14735845 8:0.094447084 9:-0.024192048 10:-0.048356947 11:-0.067160048 12:-0.1029155 13:-0.12404645 14:-0.17160542 15:-0.0068926117 16:-0.1334534 17:0.010983964 18:-0.068884537 19:-0.029030593 20:-0.072628371 21:-0.58571589 22:-0.5917055 #
-0.0019017155341173469246945915145375 1:-0.59106052 2:-0.59409153 3:-0.31372625 4:-0.29804656 5:-0.20594546 6:-0.072051913 7:-0.44648278 8:-0.32886615 9:-0.65627873 10:-0.58686894 11:-0.66371417 12:-0.61523509 13:-0.92839962 14:-0.90498239 15:-0.84861672 16:-0.85411888 17:-0.89103848 18:-0.92197579 19:-0.53162056 20:-0.49171609 21:-0.61246729 22:-0.61489487 #
0.0034949500222453302837599675711999 1:-1.1674974 2:-1.191721 3:-0.5215416 4:-0.58705151 5:-0.74609494 6:-0.97852206 7:-0.65629333 8:-0.62788302 9:-0.73048109 10:-0.70506173 11:-0.50009465 12:-0.45122728 13:-0.23014103 14:-0.18012597 15:0.028938821 16:0.041743726 17:0.10015122 18:0.15807363 19:-0.045032412 20:0.016387232 21:-0.58685422 22:-0.58696532 #
0.0034949500222453302837599675711999 1:0.13667363 2:0.1330526 3:0.38649756 4:0.37012136 5:-0.77801806 6:-0.59984964 7:0.084344961 8:0.070015714 9:0.062732354 10:0.015003496 11:-0.15431191 12:-0.18859279 13:-0.0079063252 14:-0.060129754 15:0.013646183 16:-0.11435515 17:-0.0051884321 18:-0.071491793 19:-0.045398995 20:-0.062497456 21:-0.58837813 22:-0.59443182 #
-0.0019017155341173469246945915145375 1:0.4051342 2:0.39471903 3:-0.23106496 4:-0.27258641 5:0.99037415 6:0.54800123 7:0.34840661 8:0.057322968 9:0.55744004 10:0.45008129 11:0.34180599 12:0.2191011 13:0.92565346 14:0.67100495 15:1.132812 16:0.94910216 17:0.84087324 18:1.0011438 19:0.63235211 20:0.6344527 21:-0.01684959 22:0.0059944228 #
-0.0019017155341173469246945915145375 1:-1.1794904 2:-1.2038193 3:-0.590765 4:-0.62089097 5:-1.6548569 6:-1.617417 7:-1.0530078 8:-0.78811806 9:0.19426866 10:0.29986674 11:0.73207474 12:0.76872277 13:1.022073 14:1.1281996 15:1.28128 16:1.3798375 17:1.914512 18:2.3331547 19:0.98089182 20:1.1722496 21:-0.14190768 22:-0.082845539 #
-0.0019017155341173469246945915145375 1:0.61670446 2:0.62458843 3:-0.17636906 4:-0.22021583 5:0.29395095 6:0.3480953 7:0.20677502 8:0.30713013 9:-0.38120031 10:-0.40113446 11:-0.6199373 12:-0.59152979 13:-0.15291031 14:-0.16978471 15:-0.016584871 16:-0.055776235 17:-0.52965212 18:-0.56684864 19:-0.33756888 20:-0.3342481 21:0.34146529 22:0.36556321 #
0.0034949500222453302837599675711999 1:0.71172661 2:0.71268946 3:0.28357047 4:0.26086831 5:-0.21312816 6:-0.40097764 7:-0.45064762 8:-0.4790974 9:-0.62148637 10:-0.66989368 11:-0.72532558 12:-0.79027623 13:-0.68948948 14:-0.7807259 15:-0.63853228 16:-0.73028076 17:-0.63866246 18:-0.75578386 19:-0.36206493 20:-0.42718634 21:-0.59965718 22:-0.6086638 #
-0.0019017155341173469246945915145375 1:0.80505741 2:0.79815376 3:0.77561569 4:0.6204527 5:-0.17083 6:-0.46008778 7:-0.18439537 8:-0.55814517 9:-0.62224025 10:-0.74387288 11:-0.51774013 12:-0.61206377 13:-0.29294387 14:-0.37597299 15:-0.53627807 16:-0.51544583 17:-0.51613295 18:-0.50102228 19:-0.36322331 20:-0.28816712 21:0.11584357 22:0.13190164 #
-0.0019017155341173469246945915145375 1:-0.29984388 2:-0.31644905 3:0.13575351 4:0.09247677 5:-0.44596756 6:-0.53378874 7:0.030797025 8:0.040929373 9:0.22261521 10:0.10918514 11:0.3920241 12:0.41352671 13:-0.043778699 14:-0.10115395 15:-0.41988543 16:-0.3480629 17:-0.84274524 18:-0.71157622 19:-0.40139392 20:-0.3849943 21:0.66672081 22:0.69332784 #
-0.0019017155341173469246945915145375 1:-1.1713413 2:-1.178847 3:1.8652482 4:1.9622673 5:1.636269 6:1.9356818 7:1.7173948 8:1.8962389 9:1.5932955 10:1.7866119 11:1.2855375 12:1.3911781 13:0.84349257 14:0.91141891 15:0.58795071 16:0.62479383 17:0.55915129 18:0.6076684 19:0.043248866 20:0.11333977 21:-0.092880644 22:-0.064523682 #
-0.0019017155341173469246945915145375 1:1.145169 2:1.2205116 3:0.027378632 4:0.041798171 5:1.2538399 6:1.1905152 7:0.82814747 8:0.79723209 9:1.2875522 10:1.4335446 11:1.6791272 12:1.7445375 13:0.8177141 14:1.0136386 15:0.13999367 16:0.39226094 17:0.0035647191 18:0.12084442 19:-0.30747357 20:-0.14713474 21:-0.49519977 22:-0.4763281 #
-0.0019017155341173469246945915145375 1:-1.4072052 2:-1.4335335 3:-0.97341841 4:-1.016893 5:-0.78485161 6:-0.29056981 7:0.8489176 8:0.86321121 9:1.1436332 10:1.1892934 11:0.97095639 12:1.0993547 13:1.514853 14:1.7323781 15:3.2782884 16:3.4498739 17:2.4471107 18:2.6431315 19:0.78103769 20:0.89447397 21:-0.26608622 22:-0.23254783 #
0.0034949500222453302837599675711999 1:-0.58998424 2:-0.609137 3:-0.6238876 4:-0.62201899 5:-0.15407036 6:-0.1395489 7:-0.34549895 8:-0.42748794 9:-0.37162581 10:-0.45855421 11:-0.66188222 12:-0.72037607 13:-0.74275428 14:-0.85079169 15:-0.74722362 16:-0.66015816 17:-0.86831826 18:-0.58541363 19:-0.61396736 20:-0.32301295 21:-0.62349176 22:-0.61394048 #
0.0034949500222453302837599675711999 1:-0.21835241 2:-0.19903265 3:-0.19380201 4:-0.18162274 5:-0.51988959 6:-0.42878067 7:-0.26001155 8:-0.23062025 9:-0.40219635 10:-0.39622873 11:-0.58567458 12:-0.56610674 13:-0.66410571 14:-0.65978795 15:-0.76729214 16:-0.75307435 17:-0.75535005 18:-0.79821652 19:-0.35376343 20:-0.3925069 21:-0.59805244 22:-0.60549402 #
-0.0019017155341173469246945915145375 1:-0.084122121 2:-0.081616238 3:0.21645358 4:0.31001607 5:0.017366873 6:0.13876846 7:0.72083521 8:0.67973018 9:0.45068812 10:0.43225923 11:0.55739278 12:0.51125485 13:-0.038510218 14:0.047560994 15:0.42059281 16:0.43911859 17:0.88610435 18:1.0516298 19:0.27564916 20:0.39176878 21:-0.17442115 22:-0.13987224 #
0.0034949500222453302837599675711999 1:-0.11010714 2:-0.11744608 3:0.49385551 4:0.5555132 5:-0.19407403 6:-0.12553251 7:-0.3101519 8:-0.18840747 9:-0.34173375 10:-0.27956769 11:-0.16145046 12:-0.13297655 13:-0.095102049 14:-0.10189837 15:-0.047976308 16:-0.092381224 17:-0.17868388 18:-0.20877244 19:-0.15796475 20:-0.18250856 21:-0.59105963 22:-0.59746474 #
-0.0019017155341173469246945915145375 1:0.15789215 2:0.15988621 3:-0.28212899 4:-0.22875626 5:-0.83747494 6:-0.6999175 7:-0.61526698 8:-0.59963512 9:-0.7076003 10:-0.68999267 11:-0.77405453 12:-0.79106909 13:-0.91632402 14:-0.88866776 15:-0.87812716 16:-0.81719285 17:-0.80841905 18:-0.80168921 19:-0.46878213 20:-0.43575254 21:-0.60564935 22:-0.60941017 #
0.0015729135046020133875677160517625 1:0.92498827 2:0.94302416 3:3.3765402 4:3.4624827 5:1.9407359 6:2.1706288 7:0.93283641 8:1.0231572 9:0.74893004 10:0.75003427 11:0.55423719 12:0.52967471 13:0.7232601 14:0.69905996 15:0.71707088 16:0.736494 17:0.66088355 18:0.65293986 19:0.2933687 20:0.27023396 21:-0.57437193 22:-0.57979953 #
-0.0019017155341173469246945915145375 1:-1.0068208 2:-1.0094695 3:0.19778579 4:0.27802974 5:0.2019724 6:-0.065158598 7:0.093323708 8:-0.064024322 9:0.47682953 10:0.2669135 11:0.15822454 12:-0.014767258 13:0.23104411 14:0.06044944 15:-0.071745858 16:-0.11290024 17:-0.096945606 18:-0.19105631 19:-0.20248872 20:-0.22146991 21:0.62981516 22:0.63973093 #
-0.0019017155341173469246945915145375 1:0.12744817 2:0.12964024 3:-0.17571533 4:-0.20619662 5:-0.68534124 6:-0.56509584 7:-0.44437331 8:-0.45839578 9:-0.73851013 10:-0.71866113 11:-0.88593131 12:-0.86448413 13:-1.0086271 14:-0.95399797 15:-0.94691348 16:-0.88760227 17:-0.90246433 18:-0.87973052 19:-0.48242944 20:-0.45361304 21:-0.60691017 22:-0.61057293 #
0.0034949500222453302837599675711999 1:-0.15946329 2:-0.16134152 3:-0.40873584 4:-0.43058437 5:-0.01710014 6:-0.048097659 7:0.075285085 8:0.0069567598 9:-0.030355163 10:-0.077563606 11:-0.14504597 12:-0.18938562 13:0.11351034 14:0.052242808 15:-0.014270211 16:0.01054854 17:-0.19151177 18:-0.12513074 19:-0.12223454 20:-0.10763573 21:-0.59586746 22:-0.59949172 #
0.0034949500222453302837599675711999 1:2.2170124 2:2.1992402 3:0.31683835 4:0.18746893 5:0.55257827 6:0.1898364 7:0.37112391 8:0.043011103 9:1.2524207 10:1.1238422 11:1.9108585 12:1.7680181 13:2.6909399 14:2.4945903 15:2.6632667 16:2.515651 17:2.8941786 18:2.8809378 19:1.469162 20:1.4750247 21:-0.52640498 22:-0.52484888 #
-0.00060223780469029544997611180789931 1:-0.39117581 2:-0.37259799 3:0.18674491 4:0.23202421 5:0.25364798 6:0.31673074 7:0.70428407 8:0.74868739 9:1.3191972 10:1.2212944 11:1.1845931 12:1.1394978 13:0.45818481 14:0.51790416 15:-0.031675968 16:-0.0473883 17:-0.21702638 18:-0.1259741 19:-0.34704974 20:-0.29082644 21:0.74640393 22:0.76101267 #
-0.0019017155341173469246945915145375 1:0.85133839 2:0.84484112 3:0.0052242489 4:-0.021449365 5:0.51367193 6:0.36630511 7:2.0340037 8:1.9151191 9:1.4544841 10:1.5147479 11:0.71721846 12:0.59588826 13:0.56676054 14:0.58228362 15:0.041690826 16:0.19286312 17:-0.26597685 18:0.061246816 19:-0.3854298 20:-0.18221682 21:-0.50009525 22:-0.4805606 #
0.0034949500222453302837599675711999 1:-0.39056078 2:-0.4079625 3:-0.71708131 4:-0.76897883 5:-1.3467487 6:-1.3135943 7:-1.2646574 8:-1.1058993 9:-0.21475855 10:-0.22717787 11:0.93554723 12:0.99523115 13:0.97417343 14:1.1837445 15:1.9745605 16:2.0782285 17:2.2350829 18:2.4542019 19:1.2108161 20:1.354136 21:-0.54432529 22:-0.53802377 #
0.0034949500222453302837599675711999 1:-1.2619045 2:-1.2869569 3:-0.23237243 4:-0.22214951 5:-0.26580134 6:-0.38087216 7:-0.28830001 8:-0.3669444 9:-0.58298105 10:-0.48728481 11:-0.43128556 12:-0.38562149 13:0.75958365 14:0.75187838 15:1.9861338 16:1.9734204 17:2.6466222 18:2.7380788 19:1.2655646 20:1.3084046 21:-0.53848219 22:-0.53507489 #
-0.0019017155341173469246945915145375 1:-0.30430284 2:-0.30248937 3:-0.35055336 4:-0.33124143 5:0.40952268 6:0.32844937 7:-0.050525524 8:-0.22440398 9:0.26319376 10:0.23783106 11:0.42306027 12:0.48119381 13:0.54875588 14:0.60950452 15:1.1141908 16:1.1764301 17:2.7115793 18:2.6510966 19:1.4260248 20:1.4492416 21:-0.095853046 22:-0.054769881 #
-0.0019017155341173469246945915145375 1:-0.098575324 2:-0.097592317 3:-0.5368681 4:-0.47385055 5:-0.22230606 6:0.078164786 7:-0.41530058 8:-0.2975246 9:-0.7901898 10:-0.73842895 11:-0.88957149 12:-0.85705805 13:-0.94348812 14:-0.97470737 15:-0.84598452 16:-0.82542366 17:-0.94932634 18:-0.90953487 19:-0.46545565 20:-0.44731799 21:-0.60887527 22:-0.61226457 #
0.0034949500222453302837599675711999 1:-0.0050907759 2:-2.9671433e-05 3:0.3355788 4:0.27964115 5:0.87684751 6:0.52869999 7:0.76221317 8:0.61724949 9:0.37608993 10:0.35327083 11:-0.0030903157 12:-0.043850496 13:-0.53863698 14:-0.51980877 15:-0.96317106 16:-0.8772608 17:-1.2096474 18:-1.1387531 19:-0.79313999 20:-0.72493213 21:-0.62331069 22:-0.62638611 #
0.00072626570959862066668294433569031 1:3.377574 2:3.3932581 3:1.1084399 4:0.96819329 5:0.57572252 6:0.34585497 7:0.11403973 8:-0.0051288172 9:0.065936424 10:0.029078994 11:0.18995802 12:0.15666661 13:0.39032292 14:0.35961932 15:0.33625731 16:0.36701518 17:0.41820022 18:0.43678007 19:0.26036584 20:0.26235488 21:-0.57242531 22:-0.57785857 #
-0.0019017155341173469246945915145375 1:-0.39317468 2:-0.38004315 3:-0.3780829 4:-0.37652186 5:-0.52662337 6:-0.43940786 7:-0.47452784 8:-0.39085534 9:-0.53262067 10:-0.48521486 11:-0.79394555 12:-0.73680061 13:-0.92720741 14:-0.89689231 15:-0.88011813 16:-0.87450808 17:-0.82939643 18:-0.83661431 19:-0.48804969 20:-0.45372394 21:-0.60694003 22:-0.6106984 #
-0.0019017155341173469246945915145375 1:-0.0158538 2:-0.029965427 3:-0.13460259 4:-0.21949069 5:-0.48557219 6:-0.63678628 7:-0.79976398 8:-0.56638533 9:-0.72759748 10:-0.60489804 11:-0.10033543 12:0.0048946501 13:-0.35838094 14:-0.26550186 15:-0.57493103 16:-0.64140147 17:-0.83679134 18:-0.85258311 19:-0.55792224 20:-0.55993462 21:0.066054158 22:0.074373998 #
-0.0019017155341173469246945915145375 1:-1.2014778 2:-1.2140564 3:0.038855329 4:0.0029633786 5:1.1222067 6:1.3452125 7:1.4342939 8:1.5280048 9:0.83402628 10:0.84572697 11:-0.14209126 12:-0.15241383 13:0.019257754 14:-0.00070118101 15:-0.26515129 16:-0.20878085 17:-0.22853011 18:-0.10381517 19:-0.22032554 20:-0.16783054 21:0.0092856549 22:0.039495997 #
0.0034949500222453302837599675711999 1:0.91084254 2:0.90486771 3:-0.080850981 4:-0.1448022 5:-0.26310784 6:-0.51075357 7:-0.37873653 8:-0.4438526 9:-0.48220375 10:-0.4340049 11:-0.52968889 12:-0.47820953 13:-0.73322427 14:-0.63890809 15:-0.81101418 16:-0.70903087 17:-0.98216766 18:-0.86321056 19:-0.63045728 20:-0.52818209 21:-0.61471707 22:-0.61507094 #
-0.0019017155341173469246945915145375 1:0.1114574 2:0.12452169 3:-0.20891058 4:-0.18476498 5:-0.48562208 6:-0.44365871 7:-0.55268621 8:-0.47273657 9:-0.88065755 10:-0.8427946 11:-0.9708612 12:-0.94284105 13:-0.97502649 14:-0.96959502 15:-0.91414791 16:-0.94021815 17:-0.98098952 18:-0.9076938 19:-0.46717125 20:-0.42286345 21:-0.60628366 22:-0.6096586 #
-0.0019017155341173469246945915145375 1:-0.39840242 2:-0.41587299 3:-0.083175376 4:-0.15793513 5:0.65313613 6:0.35768849 7:-0.10875215 8:-0.21515186 9:0.049369521 10:0.10347214 11:0.09128283 12:0.1803719 13:0.06332285 14:0.12975287 15:0.89458519 16:0.93960768 17:1.6436025 18:1.6013311 19:1.1488785 20:1.1383634 21:-0.14355916 22:-0.10293074 #
-0.0019017155341173469246945915145375 1:2.4699435 2:2.506043 3:1.7044291 4:1.4296184 5:1.5400507 6:1.0334625 7:0.86984998 8:0.70826721 9:1.2965802 10:1.3052713 11:1.2397633 12:1.2722288 13:0.83055502 14:0.98842674 15:0.86561221 16:1.0006319 17:0.2218726 18:0.41984117 19:0.32518169 20:0.43991354 21:-0.33992818 22:-0.30725691 #
-0.0019017155341173469246945915145375 1:-0.05198681 2:-0.0499743 3:-0.21196134 4:-0.24817365 5:-0.081495099 6:-0.21859218 7:0.0063759205 8:0.064869225 9:0.20078987 10:0.14017193 11:0.86866462 12:0.85705602 13:0.50042927 14:0.66425127 15:0.24381137 16:0.41902992 17:-0.086327903 18:0.010612005 19:-0.10450664 20:-0.11593913 21:0.40248579 22:0.43613127 #
0.0034949500222453302837599675711999 1:-0.12532912 2:-0.12240952 3:-0.31372625 4:-0.2924872 5:0.342933 6:0.24038734 7:-0.054068346 8:-0.048642676 9:-0.27571118 10:-0.2404875 11:-0.38833603 12:-0.39707774 13:-0.56637305 14:-0.60017103 15:-0.90333188 16:-0.90383172 17:-1.1246231 18:-1.1316699 19:-0.6782847 20:-0.68385875 21:-0.61507851 22:-0.62213266 #
0.0034949500222453302837599675711999 1:0.61209178 2:0.62474352 3:0.5640232 4:0.49242681 5:0.56444967 6:0.30369088 7:0.18516654 8:0.1102046 9:0.049934942 10:0.016825031 11:-0.28696615 12:-0.34586164 13:-0.63251901 14:-0.68345714 15:-0.77924412 16:-0.81504118 17:-0.90928966 18:-0.94437176 19:-0.53389543 20:-0.55096579 21:-0.60775572 22:-0.61437905 #
0.0034949500222453302837599675711999 1:3.2411909 2:2.9902887 3:2.9047608 4:3.1060407 5:2.5921676 6:2.8455412 7:1.9173883 8:1.7641939 9:1.8342035 10:1.7855977 11:1.5611402 12:1.5628895 13:1.3387859 14:1.3358408 15:1.0302097 16:1.0481658 17:0.87526757 18:0.90306568 19:0.37778306 20:0.3753356 21:-0.56714797 22:-0.57362247 #
-0.0019017155341173469246945915145375 1:-0.11764126 2:-0.11248264 3:-0.38883322 4:-0.44105849 5:1.0495317 6:0.48688057 7:0.083641812 8:-0.3087717 9:-0.28971481 10:-0.40657836 11:-0.15341368 12:-0.40591767 13:0.25797459 14:0.13046142 15:0.20049241 16:0.015500699 17:-0.038667534 18:-0.054337915 19:-0.065460443 20:-0.030730452 21:0.6449312 22:0.67115331 #
-0.0019017155341173469246945915145375 1:0.51045805 2:0.53834862 3:0.15529296 4:0.16128364 5:0.53706557 6:0.55133301 7:-0.063587978 8:-0.024616087 9:-0.11942818 10:-0.11211067 11:-0.23600347 12:-0.20586303 13:-0.70136368 14:-0.60474521 15:-0.40919769 16:-0.31077483 17:-0.51162004 18:-0.42153126 19:-0.42144698 20:-0.37611949 21:-0.025857143 22:-0.00029580464 #
-0.0019017155341173469246945915145375 1:0.4923147 2:0.49771044 3:-0.36173952 4:-0.46490726 5:1.0813551 6:0.71390021 7:0.3737202 8:-0.010130743 9:0.040058885 10:-0.19637737 11:0.72498345 12:0.450221 13:0.37101322 14:0.12441633 15:0.034697987 16:-0.21856223 17:0.2547383 18:0.18048611 19:0.1129413 20:0.062376577 21:0.58411455 22:0.58926922 #
-0.0019017155341173469246945915145375 1:1.9852998 2:1.9887593 3:1.0778596 4:0.9366098 5:-0.69471866 6:-0.97237557 7:-0.38254979 8:-0.51688653 9:-0.504161 10:-0.6081478 11:0.049763374 12:0.035920296 13:0.75251871 14:0.71312338 15:0.80819768 16:0.85443735 17:0.62763327 18:0.75933033 19:-0.093695626 20:0.067598753 21:-0.34942752 22:-0.32182175 #
0.0034949500222453302837599675711999 1:0.79613948 2:0.79784352 3:0.62554699 4:0.61747164 5:0.93435901 6:0.91564441 7:0.62690997 8:0.61794341 9:0.16876806 10:0.21114971 11:-0.28436601 12:-0.27057028 13:-0.47951564 14:-0.4861033 15:-0.63751239 16:-0.59371048 17:-0.74881196 18:-0.72353214 19:-0.37751374 20:-0.37618458 21:-0.60113275 22:-0.6075381 #
0.0034949500222453302837599675711999 1:0.23354083 2:0.2358889 3:-0.31234613 4:-0.29305121 5:-0.58109224 6:-0.44923082 7:-0.43201402 8:-0.39741856 9:-0.60105574 10:-0.59235424 11:-0.51983202 12:-0.54660338 13:-0.44038874 14:-0.50226545 15:-0.32089248 16:-0.36718845 17:-0.080476247 18:-0.20247202 19:-0.099072859 20:-0.11993411 21:-0.58822024 22:-0.59456593 #
-0.0019017155341173469246945915145375 1:-1.903842 2:-1.934531 3:0.37197009 4:0.47333169 5:0.066498578 6:0.51577502 7:-0.52867073 8:0.013173026 9:0.42371744 10:0.704144 11:0.42759869 12:0.60748982 13:0.3126733 14:0.44037616 15:0.30476207 16:0.45436442 17:0.44410431 18:0.61332393 19:0.37007016 20:0.44867021 21:-0.18449415 22:-0.14932115 #
-0.0019017155341173469246945915145375 1:1.4151671 2:1.4325436 3:0.26533851 4:0.25216672 5:1.9086133 6:2.2825875 7:2.0815477 8:2.0832474 9:0.99125165 10:0.98321146 11:0.039575566 12:0.088708818 13:0.26166412 14:0.21164879 15:0.25223944 16:0.1865107 17:-0.37929559 18:-0.3573806 19:-0.49537712 20:-0.38887838 21:-0.26295167 22:-0.24419585 #
-0.0019017155341173469246945915145375 1:2.7539334 2:2.7847712 3:0.16255669 4:0.082888931 5:-0.24011318 6:-0.27638108 7:-0.20989825 8:-0.18201771 9:0.60936475 10:0.50673515 11:0.8384676 12:0.77341366 13:0.81130171 14:0.54377073 15:0.53672278 16:0.32767797 17:0.76550269 18:0.66293895 19:0.34882727 20:0.28622115 21:0.25049922 22:0.25555006 #
0.0034949500222453302837599675711999 1:0.10853601 2:0.12746873 3:-0.18029147 4:-0.18121989 5:0.30457535 6:0.22608371 7:0.057111241 8:0.0180593 9:-0.26862454 10:-0.29345691 11:-0.64901155 12:-0.70050275 13:-0.61587578 14:-0.69237232 15:-0.93448514 16:-0.91806662 17:-1.2096522 18:-1.0664113 19:-0.79957092 20:-0.64489979 21:-0.62586439 22:-0.623245 #
0.0034949500222453302837599675711999 1:-0.29723001 2:-0.31381223 3:-0.39391783 4:-0.4502435 5:-1.3078424 6:-1.2247281 7:-0.59828305 8:-0.52165711 9:-0.21302457 10:-0.18940172 11:-0.082004465 12:-0.019867726 13:-0.088971607 14:0.048744898 15:-0.013793842 16:0.073266774 17:-0.0037863702 18:0.13539656 19:-0.15557463 20:-0.059548836 21:-0.5918324 22:-0.59092218 #
-0.0019017155341173469246945915145375 1:-0.58075881 2:-0.58183807 3:-0.1254503 4:-0.051824298 5:-0.5795958 6:-0.37242785 7:-0.4043476 8:-0.32244751 9:-0.7713424 10:-0.70497894 11:-0.73140043 12:-0.64869201 13:-0.87394261 14:-0.80812615 15:-0.83389211 16:-0.80059457 17:-0.91305768 18:-0.89679068 19:-0.54225349 20:-0.50156975 21:-0.609887 22:-0.61297613 #
-0.0019017155341173469246945915145375 1:-0.20543678 2:-0.20601249 3:-0.023758043 4:-0.050535176 5:0.51282394 6:0.39037424 7:0.11520264 8:0.012045424 9:-0.0049676569 10:-0.14556068 11:-0.18576173 12:-0.27987269 13:-0.25740179 14:-0.35442945 15:-0.31264764 16:-0.37451082 17:-0.63487005 18:-0.67882288 19:-0.12890632 20:-0.20605896 21:-0.13679132 22:-0.12752153 #
-0.0019017155341173469246945915145375 1:0.66698319 2:0.69454193 3:-0.1322782 4:-0.12723792 5:0.40204069 6:0.23177069 7:-0.05844954 8:-0.17397994 9:1.345037 10:1.2157263 11:0.78131187 12:0.70589191 13:0.57530773 14:0.48225239 15:0.25882307 16:0.22630556 17:-0.19069877 18:-0.13800718 19:-0.17283539 20:-0.19148462 21:0.53853542 22:0.54876739 #
-0.0019017155341173469246945915145375 1:-0.26478717 2:-0.26541868 3:-0.16561873 4:-0.15052268 5:-0.44891047 6:-0.42602333 7:-0.65751034 8:-0.59648365 9:-0.79537284 10:-0.75540233 11:-0.9822309 12:-0.91792011 13:-0.93271756 14:-0.91992474 15:-0.82647783 16:-0.80487734 17:-0.78929162 18:-0.7818619 19:-0.47535548 20:-0.44603777 21:-0.60579294 22:-0.60930115 #
-0.0019017155341173469246945915145375 1:-0.13978234 2:-0.13978156 3:-0.30050623 4:-0.25921175 5:-0.45494592 6:-0.30992854 7:-0.50795472 8:-0.45486841 9:-0.78591144 10:-0.7418443 11:-0.85443419 12:-0.8440426 13:-1.0031894 14:-0.96174717 15:-0.78646904 16:-0.81256169 17:-0.9897719 18:-0.98403734 19:-0.50940984 20:-0.48266047 21:-0.60799038 22:-0.61091596 #
-0.0013171385970075805572215843497474 1:-0.73943651 2:-0.75990152 3:-0.72274697 4:-0.72659898 5:-1.0814375 6:-1.0291305 7:-1.3752961 8:-0.9931103 9:-0.92553329 10:-0.85103291 11:0.96570879 12:0.9744857 13:0.96451449 14:1.2595236 15:1.7741073 16:2.0668898 17:1.7416105 18:1.9116774 19:1.0870016 20:1.2024254 21:0.19319333 22:0.26525927 #
0.0013955891965433276508123938697281 1:-0.85044944 2:-0.85312116 3:0.099507496 4:0.1374349 5:1.4417374 6:1.3366532 7:1.5364406 8:1.316218 9:2.4823105 10:2.3699172 11:2.5784435 12:2.5705225 13:2.3515904 14:2.3459024 15:2.1885171 16:2.21402 17:2.0651169 18:2.0662773 19:1.0277829 20:1.0004243 21:-0.54165924 22:-0.54822755 #
-0.0019017155341173469246945915145375 1:-1.5343627 2:-1.5618075 3:-0.80911279 4:-0.61533165 5:-0.41658828 6:-0.10456535 7:-0.28267476 8:-0.10181344 9:0.38670105 10:0.39922321 11:0.61525768 12:0.58835649 13:0.61941314 14:0.66606301 15:0.52098435 16:0.66322941 17:1.195079 18:1.2873523 19:0.3372412 20:0.44645452 21:-0.46027058 22:-0.44142359 #
-0.0019017155341173469246945915145375 1:-0.35688791 2:-0.37399396 3:0.37821689 4:0.31831479 5:0.13528296 6:-0.089227736 7:-0.013177191 8:-0.12387395 9:-0.13818139 10:-0.11625052 11:0.6599564 12:0.69098687 13:0.3202135 14:0.12730435 15:0.54637843 16:0.36200154 17:0.40246111 18:0.30654398 19:0.20836359 20:0.11769399 21:0.73065484 22:0.73549736 #
-0.0019017155341173469246945915145375 1:-0.31629592 2:-0.33304557 3:-0.091528662 4:-0.24527313 5:-0.25717211 6:-0.4140175 7:-0.68198556 8:-0.79265743 9:0.054552566 10:0.044727638 11:1.4110177 12:1.3312806 13:1.2252558 14:1.1446397 15:0.72896785 16:0.61424059 17:0.21952122 18:0.08857616 19:-0.11404196 20:-0.10904856 21:-0.36780381 22:-0.35400689 #
-0.0019017155341173469246945915145375 1:1.4803603 2:1.5040482 3:0.21296699 4:0.13735433 5:0.36049074 6:0.30219734 7:-0.12100327 8:-0.13734734 9:0.27764976 10:0.15219821 11:0.21246102 12:0.22934167 13:0.55648136 14:0.55171728 15:1.0438899 16:0.98819345 17:1.0427654 18:1.053515 19:0.41667634 20:0.44594342 21:-0.3110483 22:-0.28991348 #
-0.0019017155341173469246945915145375 1:0.62162471 2:0.63187844 3:0.56692868 4:0.51289159 5:-0.43245009 6:-0.4415333 7:-0.44318336 8:-0.22544484 9:-0.032729939 10:0.019412439 11:0.39799258 12:0.5727908 13:0.76558518 14:0.9632597 15:0.84191597 16:0.88275689 17:1.0079523 18:1.0725319 19:0.39276263 20:0.42696419 21:-0.17756715 22:-0.14833213 #
0.0034949500222453302837599675711999 1:0.50922799 2:0.51973569 3:-0.10692777 4:-0.17719139 5:-0.021290053 6:-0.02305197 7:-0.02383269 8:-0.050868969 9:-0.00091545685 10:-0.056222666 11:-0.16550431 12:-0.21778175 13:-0.23242888 14:-0.31363845 15:-0.19626726 16:-0.27084336 17:-0.23824717 18:-0.32956067 19:-0.11181105 20:-0.1678209 21:-0.58869565 22:-0.59693593 #
-0.0019017155341173469246945915145375 1:0.99710053 2:0.99188304 3:0.29853377 4:0.11157189 5:0.64869684 6:-0.06504371 7:0.73224795 8:0.56416547 9:0.84343112 10:0.8360604 11:0.80234933 12:0.84696078 13:0.19277918 14:0.28141862 15:0.043498583 16:0.14743987 17:0.10273626 18:0.083367161 19:0.052970614 20:0.01410886 21:-0.35086805 22:-0.33868873 #
0.0034949500222453302837599675711999 1:2.0683289 2:2.0725174 3:-0.18145368 4:-0.2679939 5:1.4363005 6:1.1564506 7:0.6967116 8:0.65041256 9:4.2220049 10:4.4328885 11:4.6612358 12:5.0295563 13:4.0993638 14:4.509305 15:4.1137161 16:4.3973484 17:3.5529237 18:3.8576229 19:1.6041772 20:1.7778528 21:-0.53823584 22:-0.52956021 #
0.0034949500222453302837599675711999 1:0.075016871 2:0.075352594 3:-0.13917875 4:-0.12973559 5:0.32367936 6:0.17116702 7:0.033339199 8:-0.00024254314 9:0.16965389 10:0.13437614 11:0.072609119 12:0.018134726 13:-0.073101722 14:-0.13195348 15:-0.28393731 16:-0.34606153 17:-0.41104159 18:-0.47004938 19:-0.26584452 20:-0.31427073 21:-0.59573019 22:-0.60441595 #
-0.0019017155341173469246945915145375 1:0.28489584 2:0.27342492 3:0.90207726 4:0.87142861 5:0.69518489 6:0.58884412 7:0.88191175 8:0.55670595 9:0.88154066 10:0.77948934 11:0.55090427 12:0.42130956 13:0.088738829 14:0.080235049 15:0.27034143 16:0.1829588 17:-0.021146625 18:0.1629023 19:-0.18560921 20:-0.064052537 21:-0.3614338 22:-0.34292653 #
-0.0019017155341173469246945915145375 1:1.7615827 2:1.8590894 3:0.55857539 4:0.51957893 5:0.70146978 6:0.53076798 7:0.54991454 8:0.38091573 9:0.69587451 10:0.68423134 11:1.7968662 12:1.8070513 13:1.5372077 14:1.6778197 15:1.2030213 16:1.2948722 17:0.761832 18:0.94094533 19:0.13752952 20:0.20248075 21:-0.19492687 22:-0.16277225 #
-0.0019017155341173469246945915145375 1:1.0175502 2:1.0256965 3:0.88602442 4:0.81003416 5:0.17952643 6:0.037207041 7:0.26559663 8:0.24097748 9:0.87341744 10:0.84487832 11:0.16472487 12:0.29686341 13:-0.56171679 14:-0.31489411 15:0.25777873 16:0.31078598 17:-0.02392154 18:0.083543554 19:-0.13162322 20:-0.12567465 21:0.67893863 22:0.7072106 #
-0.0019017155341173469246945915145375 1:-0.85106444 2:-0.85032922 3:-0.35941511 4:-0.24954335 5:-1.0597897 6:-0.99248105 7:-0.81985795 8:-0.75544655 9:-0.67175251 10:-0.74242389 11:-0.014318179 12:-0.074426882 13:0.68212736 14:0.62432134 15:0.15432134 16:0.18584129 17:0.27309167 18:0.20203319 19:0.23052818 20:0.12663871 21:0.58399075 22:0.60538375 #
-0.0019017155341173469246945915145375 1:-0.81754529 2:-0.83869618 3:-0.87949836 4:-0.87299484 5:-0.78988951 6:-0.66234899 7:-0.48161349 8:-0.33065876 9:-0.45964336 10:-0.369506 11:-0.29705942 12:-0.24597967 13:0.21718818 14:0.19618624 15:0.32779872 16:0.19983029 17:0.16468501 18:0.045845807 19:0.065072007 20:-0.0013575441 21:0.8323434 22:0.82846278 #
-0.0019017155341173469246945915145375 1:0.365311 2:0.37129778 3:0.45274279 4:0.40847275 5:-0.11197171 6:-0.10686312 7:-0.2321558 8:-0.26999956 9:-0.20721957 10:-0.27360633 11:-0.60190183 12:-0.63633728 13:-0.6032685 14:-0.63075531 15:-0.34387419 16:-0.40158036 17:-0.72251356 18:-0.70042509 19:-0.48627123 20:-0.40928486 21:0.30852211 22:0.34338793 #
0.0034949500222453302837599675711999 1:-0.2910797 2:-0.30760792 3:-0.31684965 4:-0.34953085 5:0.1275017 6:-0.097786933 7:-0.22298776 8:-0.26326287 9:-0.43476474 10:-0.44305047 11:-0.52221942 12:-0.52905566 13:-0.61298376 14:-0.67543882 15:-0.67763722 16:-0.72929031 17:-0.73115963 18:-0.77375352 19:-0.39410418 20:-0.43559343 21:-0.60118842 22:-0.60843736 #
-0.0019017155341173469246945915145375 1:0.43696198 2:0.61280024 3:0.37552932 4:0.41999426 5:-0.64518791 6:-0.51029402 7:-1.1461217 8:-0.65237218 9:1.2347983 10:1.279004 11:0.76325274 12:0.83674663 13:1.4195853 14:1.4759545 15:1.7078189 16:1.7826085 17:1.7817348 18:1.839512 19:0.94061601 20:1.0255899 21:0.16686723 22:0.21624348 #
-0.0019017155341173469246945915145375 1:-0.88043213 2:-0.88088542 3:-0.97850299 4:-0.908768 5:-0.38296923 6:-0.5404523 7:-0.012663347 8:-0.070096023 9:-0.18835327 10:-0.095634058 11:0.002157233 12:-0.01205846 13:0.54444605 14:0.50996661 15:0.17852451 16:0.23832735 17:-0.14249802 18:-0.10086616 19:-0.059079826 20:-0.054136198 21:0.64662665 22:0.67440045 #
0.0011095154241109212323729282800855 1:2.470866 2:2.4908423 3:0.87563729 4:0.72986692 5:0.181372 6:-0.18969773 7:-0.21487443 8:-0.34184802 9:-0.28549299 10:-0.2263913 11:0.10749823 12:0.15793513 13:0.94755709 14:0.95770788 15:1.3695548 16:1.3439702 17:1.4798728 18:1.4927248 19:0.78576136 20:0.79310209 21:-0.55150139 22:-0.55557197 #
0.0034949500222453302837599675711999 1:1.0146289 2:1.0156145 3:0.09420497 4:0.020688802 5:-0.45898619 6:-0.50087321 7:-0.54446471 8:-0.47409546 9:-0.69582069 10:-0.62125045 11:-0.65539372 12:-0.60947388 13:-0.62145841 14:-0.54212368 15:-0.511397 16:-0.49946916 17:-0.52786547 18:-0.55990881 19:-0.31853595 20:-0.34110007 21:-0.5981319 22:-0.60555238 #
-0.0019017155341173469246945915145375 1:-0.82800084 2:-0.84924346 3:-0.98663837 4:-0.94550794 5:-0.24220815 6:-0.42941254 7:0.26565072 8:-0.12089592 9:0.63301826 10:0.44515488 11:0.8578859 12:0.80979079 13:0.20621622 14:0.38168305 15:0.41156012 16:0.55807972 17:-0.1061369 18:0.096166424 19:-0.19404897 20:-0.10487276 21:-0.23849371 22:-0.2152397 #
-0.0019017155341173469246945915145375 1:-2.1723025 2:-2.2053487 3:-0.85291308 4:-0.76366121 5:-0.40661231 6:-0.43113586 7:-0.63154769 8:-0.3590512 9:0.54871368 10:0.64413685 11:0.38893938 12:0.36446443 13:0.8978852 14:0.87334549 15:1.1164933 16:1.1091696 17:1.0233361 18:1.1117951 19:0.30453372 20:0.36320114 21:-0.066464104 22:-0.030029299 #
0.0034949500222453302837599675711999 1:-0.11425859 2:-0.11868694 3:-0.19518213 4:-0.21900727 5:0.08465486 6:-0.087504409 7:-0.072404459 8:-0.11456401 9:-0.098243654 10:-0.11790647 11:-0.19247483 12:-0.24453938 13:-0.53082287 14:-0.59725606 15:-0.64288682 16:-0.72717285 17:-0.813263 18:-0.86912513 19:-0.50148749 20:-0.53585625 21:-0.60483372 22:-0.61332065 #
0.0034949500222453302837599675711999 1:1.611823 2:1.6360447 3:0.80873829 4:0.69296581 5:0.43276671 6:0.23791723 7:-0.20573342 8:-0.11138359 9:-0.27712473 10:-0.21179833 11:-0.043723363 12:0.069786876 13:-0.26619065 14:-0.17880753 15:-0.46682602 16:-0.30250984 17:-0.4384402 18:-0.26238933 19:-0.42914313 20:-0.2779229 21:-0.60405004 22:-0.60032851 #
0.0034949500222453302837599675711999 1:-0.58352643 2:-0.59595287 3:-0.25488999 4:-0.24583712 5:-0.49988773 6:-0.54809237 7:-0.26920664 8:-0.34667647 9:-0.39469507 10:-0.4257873 11:-0.3934772 12:-0.41444048 13:-0.10083777 14:-0.16451095 15:0.10562798 16:0.056067418 17:0.33443189 18:0.29466525 19:0.23444328 20:0.21812797 21:-0.57398599 22:-0.57930547 #
-0.0019017155341173469246945915145375 1:0.62731373 2:0.6188494 3:0.60317469 4:0.62657601 5:0.41850105 6:0.45448202 7:0.37918317 8:0.24187379 9:0.32305324 10:0.20932817 11:-0.24362661 12:-0.38481548 13:-0.20281585 14:-0.40548098 15:-0.13521275 16:-0.31035134 17:-0.29509398 18:-0.30067688 19:-0.2474945 20:-0.18768974 21:-0.26190844 22:-0.24177316 #
0.0034949500222453302837599675711999 1:-0.81201005 2:-0.82706308 3:0.27572563 4:0.1773171 5:0.32188368 6:-0.030692054 7:-0.12562786 8:-0.17016344 9:0.65686029 10:0.55579239 11:1.3401285 12:1.226404 13:1.7832633 14:1.6388315 15:2.2378821 16:2.1101751 17:2.4415803 18:2.3914237 19:1.3492793 20:1.3106227 21:-0.52009434 22:-0.52390522 #
-0.0019017155341173469246945915145375 1:-0.89872926 2:-0.92059296 3:-0.57827139 4:-0.56997067 5:0.11523125 6:0.24325955 7:-0.27036956 8:-0.050435275 9:1.3445281 10:1.279004 11:1.6180358 12:1.5111184 13:1.1305602 14:1.132128 15:2.0750988 16:2.140933 17:2.1461687 18:2.1950417 19:1.1640968 20:1.15484 21:0.17461465 22:0.2350996 #
0.0034949500222453302837599675711999 1:-0.65794504 2:-0.6776945 3:-0.71417582 4:-0.68945616 5:-0.012860348 6:-0.13615969 7:0.25177693 8:0.057612099 9:0.32282707 10:0.2028286 11:-0.10479112 12:-0.16939336 13:-0.30830625 14:-0.37625101 15:-0.47179735 16:-0.50866312 17:-0.70188183 18:-0.67977101 19:-0.46963468 20:-0.44312772 21:-0.60648894 22:-0.61110181 #
0.0034949500222453302837599675711999 1:-0.39993998 2:-0.40268886 3:-0.42602354 4:-0.34985313 5:0.55018401 6:0.54105049 7:0.6965223 8:0.32945085 9:0.27913868 10:0.14677499 11:0.16477215 12:0.047059402 13:-0.27959543 14:-0.35920992 15:-0.58745706 16:-0.59306157 17:-0.8058973 18:-0.75935024 19:-0.52740592 20:-0.478692 21:-0.61146301 22:-0.61521435 #
-0.0019017155341173469246945915145375 1:-1.3826041 2:-1.4087163 3:-0.75841194 4:-0.61992413 5:-0.55136377 6:-0.17608343 7:0.45896417 8:0.34011969 9:-0.38625142 10:-0.4199501 11:-0.64686054 12:-0.72395694 13:0.58344406 14:0.53966296 15:0.88290805 16:0.80404145 17:0.94883692 18:1.0370721 19:0.23121735 20:0.35178518 21:-0.32581604 22:-0.30026191 #
-0.0014837303615855728430167337350554 1:-1.2313067 2:-1.2560905 3:-0.86395395 4:-0.85011297 5:-0.95698714 6:-1.013678 7:-0.65807825 8:-0.51983559 9:-0.6824767 10:-0.6109215 11:-1.042294 12:-0.91809189 13:-0.81310534 14:-0.72564727 15:-0.21682437 16:-0.34688804 17:-0.065696172 18:-0.21813211 19:-0.12334476 20:-0.12744188 21:1.6066445 22:1.6105137 #
-0.0019017155341173469246945915145375 1:-0.29169473 2:-0.26681465 3:-0.28169316 4:-0.29321235 5:-0.70993203 6:-0.67297614 7:-0.69934803 8:-0.65376002 9:-0.88312656 10:-0.81170434 11:-0.6602158 12:-0.58345622 13:-0.68353623 14:-0.61430615 15:-0.71771932 16:-0.73558128 17:-0.68056852 18:-0.70127398 19:-0.42645556 20:-0.40593842 21:-0.60423309 22:-0.60770947 #
-0.0019017155341173469246945915145375 1:-0.45021871 2:-0.46814424 3:-0.34430656 4:-0.32753521 5:-0.35528588 6:-0.23404467 7:-0.45524517 8:-0.3572875 9:-0.67531466 10:-0.65677035 11:-0.78447866 12:-0.7860347 13:-0.87761605 14:-0.87628156 15:-0.97986227 16:-0.96288192 17:-0.84773034 18:-0.90298086 19:-0.45735735 20:-0.44886824 21:-0.60777622 22:-0.61196798 #
-0.0019017155341173469246945915145375 1:-0.42684755 2:-0.44456789 3:-0.80686104 4:-0.72265106 5:0.22606438 6:0.11504399 7:-0.21725434 8:-0.078075975 9:-0.14960293 10:-0.12181862 11:-0.052150168 12:-0.048541341 13:0.52736783 14:0.49944597 15:0.50950873 16:0.44785491 17:0.095205054 18:0.16807821 19:-0.13497274 20:-0.10775628 21:0.54012102 22:0.56771463 #
0.0034949500222453302837599675711999 1:-0.1001129 2:-0.11108667 3:0.015756661 4:0.03462743 5:-0.68918198 6:-0.45020735 7:-0.46471071 8:-0.32450032 9:-0.42517141 10:-0.41007656 11:-0.5578177 12:-0.56370181 13:-0.52077734 14:-0.5273248 15:-0.34278709 16:-0.35989341 17:-0.20739207 18:-0.25545502 19:-0.053713068 20:-0.077479258 21:-0.58780277 22:-0.59441984 #
-0.0019017155341173469246945915145375 1:-0.16622862 2:-0.16614985 3:-0.27225032 4:-0.26638249 5:-0.44457093 6:-0.41884282 7:-0.69304669 8:-0.64216596 9:-0.82880825 10:-0.75498837 11:-0.86020178 12:-0.80808824 13:-0.84642404 14:-0.81952578 15:-0.86925936 16:-0.84731561 17:-0.81610608 18:-0.79513526 19:-0.41224056 20:-0.40394697 21:-0.60775226 22:-0.61053717 #
-0.0019017155341173469246945915145375 1:1.0035583 2:0.99839759 3:-0.06617824 4:-0.19652821 5:0.46743324 6:0.13371336 7:0.12277508 8:-0.062520854 9:0.2923319 10:0.30185387 11:0.587578 12:0.44868824 13:0.63734525 14:0.55769962 15:0.88170493 16:0.90977174 17:0.57841015 18:0.72829676 19:0.045257736 20:0.089191444 21:-0.075283848 22:-0.046869226 #
-0.0019017155341173469246945915145375 1:0.27874553 2:0.26722062 3:-0.32970643 4:-0.34058759 5:0.041957665 6:0.055933867 7:0.2948046 8:0.14218223 9:0.69772154 10:0.56941253 11:0.64072716 12:0.39822531 13:0.45232823 14:0.29561654 15:0.29265743 16:0.23317027 17:-0.11785483 18:-0.11452532 19:0.0019298596 20:0.045381617 21:-0.090501532 22:-0.075232729 #
-0.0019017155341173469246945915145375 1:0.11545509 2:0.10249642 3:-0.20070256 4:-0.25598896 5:0.049290013 6:-0.17918542 7:-0.55425477 8:-0.71184593 9:-0.77680814 10:-0.86835819 11:-0.20598371 12:-0.43693009 13:-0.18599539 14:-0.39517561 15:-0.082317561 16:-0.27465481 17:-0.24999918 18:-0.33718398 19:-0.019943554 20:-0.037473947 21:0.53839546 22:0.55852497 #
0.0034949500222453302837599675711999 1:1.9542408 2:1.9735587 3:0.75476879 4:0.62407833 5:-0.1323726 6:-0.42240435 7:-0.32686535 8:-0.35511905 9:-0.43762955 10:-0.46693742 11:-0.33703062 12:-0.36750558 13:-0.61796224 14:-0.58540803 15:-0.54301441 16:-0.50005656 17:-0.52393192 18:-0.47039664 19:-0.33326417 20:-0.29156178 21:-0.60169876 22:-0.60409993 #
0.0034949500222453302837599675711999 1:-0.27309006 2:-0.27581087 3:-0.051069677 4:-0.074947916 5:0.44902757 6:0.34493586 7:0.13153747 8:-0.011663124 9:-0.19357401 10:-0.23411213 11:-0.44459355 12:-0.50874627 13:-0.5260458 14:-0.63741922 15:-0.58106887 16:-0.65867597 17:-0.646218 18:-0.6770094 19:-0.44577757 20:-0.43580076 21:-0.6026842 22:-0.60924715 #
-0.0019017155341173469246945915145375 1:-0.33351678 2:-0.30264449 3:-0.48623988 4:-0.43598258 5:-0.029719755 6:-0.23858277 7:0.34597263 8:0.44579622 9:0.95088041 10:0.90567207 11:0.52328372 12:0.65885133 13:0.51282716 14:0.53499013 15:0.52479529 16:0.56856459 17:0.33376008 18:0.41893166 19:0.29532728 20:0.35632265 21:-0.071264945 22:-0.036455788 #
-0.0019017155341173469246945915145375 1:-0.89288652 2:-0.89500022 3:-0.1494206 4:-0.0072690253 5:-0.38790736 6:-0.35663068 7:-0.66905832 8:-0.2938816 9:-0.44166291 10:-0.34236926 11:-0.22031993 12:-0.38169706 13:0.0073352046 14:-0.10016736 15:0.31126633 16:0.17414737 17:-0.20907649 18:-0.13786386 19:-0.084162399 20:-0.024582466 21:-0.24913946 22:-0.2258352 #
0.0013676063378655054815491443065412 1:-1.3290964 2:-1.338918 3:0.10277617 4:0.13002244 5:-0.60683024 6:-0.42274901 7:0.13840675 8:0.13079056 9:0.5494864 10:0.51501489 11:0.4697091 12:0.46412176 13:0.44237131 14:0.41680562 15:0.41212809 16:0.39758879 17:0.4989405 18:0.50112367 19:0.36181682 20:0.33595473 21:-0.56623501 22:-0.57287872 #
-0.0010316049212153080138348881789057 1:-0.38610181 2:-0.40346438 3:0.19894798 4:0.11237759 5:1.2431655 6:1.5601114 7:1.0868002 8:1.2737161 9:0.29740188 10:0.37254184 11:-0.51641643 12:-0.44793707 13:-0.84772104 14:-0.81747186 15:-1.3315196 16:-1.1306269 17:-1.3552233 18:-1.2809781 19:-0.75555176 20:-0.69990617 21:-0.076375566 22:-0.066441841 #
-0.0019017155341173469246945915145375 1:-0.98529476 2:-1.0079185 3:-1.3134336 4:-1.3497282 5:-0.20629461 6:-0.5070197 7:-0.49581179 8:-0.35630447 9:-0.074043535 10:-0.063032724 11:0.69739836 12:0.85270876 13:1.2893878 14:1.3709993 15:0.66305196 16:0.91125399 17:0.21995936 18:0.47996241 19:0.088436879 20:0.24840017 21:-0.35206547 22:-0.32270283 #
-0.0019017155341173469246945915145375 1:1.4113232 2:1.4097428 3:0.47794795 4:0.41588518 5:-0.067977645 6:0.044100352 7:1.1322889 8:1.2920468 9:0.79847997 10:0.95048594 11:0.55746371 12:0.73938847 13:0.18023634 14:0.32579723 15:0.1428763 16:0.33591563 17:-0.17001835 18:0.14907224 19:-0.21974739 20:-0.12010529 21:0.52412659 22:0.56502366 #
0.0034949500222453302837599675711999 1:0.32164389 2:0.31049562 3:-0.029859578 4:-0.095090449 5:0.4424434 6:0.10395725 7:-0.14656024 8:-0.30943671 9:-0.49690476 10:-0.54694009 11:-0.6328907 12:-0.67932123 13:-0.64517462 14:-0.73055333 15:-0.67937171 16:-0.78668755 17:-0.59441477 18:-0.71912789 19:-0.32002741 20:-0.39619327 21:-0.59821594 22:-0.60749924 #
-0.0019017155341173469246945915145375 1:0.28397331 2:0.32461041 3:-0.65221614 4:-0.56602275 5:-0.044484206 6:-0.019835092 7:0.0447249 8:-0.13139129 9:-0.18175668 10:-0.30626976 11:-0.37144697 12:-0.44048458 13:0.12972662 14:-0.097943045 15:0.060366903 16:0.062563285 17:0.59155935 18:0.50110161 19:0.17877731 20:0.085131362 21:0.20354548 22:0.2088064 #
0.0034949500222453302837599675711999 1:-0.59613454 2:-0.59812438 3:-0.35331357 4:-0.30787611 5:0.079217955 6:0.023650199 7:-0.15424085 8:-0.13000348 9:-0.045451965 10:-0.074334517 11:-0.085798301 12:-0.13218373 13:-0.047097679 14:-0.10361145 15:-0.010361549 16:-0.079690039 17:0.040144909 18:-0.048296575 19:0.059571184 20:-0.0076911752 21:-0.58155471 22:-0.58966231 #
-0.0019017155341173469246945915145375 1:-1.6639802 2:-1.6925632 3:0.14446999 4:0.33168942 5:1.009927 6:0.77818036 7:0.51064605 8:0.3669219 9:0.2548255 10:0.13197502 11:0.67340618 12:0.6449241 13:1.0038267 14:0.81522644 15:1.1611315 16:1.0655086 17:0.79790592 18:0.83087277 19:0.40772754 20:0.45028797 21:0.083695784 22:0.11530348 #
-0.0019017155341173469246945915145375 1:1.8864338 2:1.903295 3:0.56663811 4:0.41943029 5:1.0608046 6:1.0276607 7:0.66715205 8:0.47543189 9:0.29996511 10:0.24294376 11:0.52724302 12:0.51537752 13:0.14883491 14:0.10271136 15:0.19191779 16:0.26994604 17:0.21415152 18:0.15667354 19:-0.037625365 20:-0.0940523 21:-0.086687163 22:-0.074855648 #
-0.0019017155341173469246945915145375 1:-0.95854092 2:-0.91950721 3:0.39841008 4:0.48654518 5:0.50185037 6:0.91639119 7:0.44260231 8:0.51047426 9:1.0746516 10:0.99262965 11:0.55010062 12:0.61510092 13:0.16549426 14:0.26583052 15:0.27155066 16:0.29162624 17:0.38236976 18:0.5248425 19:0.13747087 20:0.19308276 21:-0.079246618 22:-0.049562644 #
-0.0019017155341173469246945915145375 1:0.13344471 2:0.120644 3:-0.41454685 4:-0.44919607 5:-0.27767277 6:-0.26351357 7:-0.86623913 8:-0.65824151 9:-0.59709775 10:-0.58283257 11:-0.17369474 12:-0.1988598 13:-0.82303816 14:-0.78025055 15:-0.79755372 16:-0.76605242 17:-0.60036862 18:-0.64927214 19:-0.49622759 20:-0.45064753 21:-0.39443871 22:-0.38213167 #
0.0034949500222453302837599675711999 1:-1.2206974 2:-1.2453882 3:-0.523067 4:-0.52944392 5:0.17184493 6:0.13566647 7:-0.048983995 8:-0.23799302 9:-0.34782147 10:-0.45859563 11:-0.48943406 12:-0.60536444 13:-0.18282945 14:-0.29686645 15:-0.050272647 16:-0.1411173 17:0.069826759 18:0.02031894 19:-0.06523212 20:-0.081864819 21:-0.58888924 22:-0.59366363 #
0.0034949500222453302837599675711999 1:-1.0392636 2:-1.0623612 3:-0.66870481 4:-0.67189187 5:-0.4237211 6:-0.59956241 7:-0.61002034 8:-0.6368171 9:-0.53999001 10:-0.53770822 11:-0.64303124 12:-0.56540638 13:-0.025814315 14:0.078826919 15:0.56490791 16:0.56831872 17:0.98159063 18:1.0236114 19:0.56017113 20:0.58755201 21:-0.56030822 22:-0.5588817 #
-0.0019017155341173469246945915145375 1:-1.7214856 2:-1.7505734 3:-0.18007356 4:-0.070194282 5:-0.092718072 6:0.178922 7:0.24696302 8:0.50096196 9:1.1246727 10:1.2514118 11:1.3068703 12:1.5507065 13:1.586936 14:1.706063 15:1.5308298 16:1.6208813 17:1.2633077 18:1.4643537 19:0.63796604 20:0.68266982 21:0.27887303 22:0.3276591 #
-0.00098460723646974783636320882607151 1:-0.23634203 2:-0.22664179 3:-0.27464736 4:-0.27129728 5:-0.40202335 6:-0.39959899 7:-0.34106365 8:-0.31438082 9:-0.73639923 10:-0.66970742 11:-0.86120635 12:-0.83521587 13:-0.86301088 14:-0.86271149 15:-1.1004812 16:-1.0148352 17:-0.96310836 18:-0.96285409 19:-0.47942346 20:-0.45300788 21:-0.60549164 22:-0.6090228 #
0.0034949500222453302837599675711999 1:-1.122754 2:-1.1465846 3:-0.44970331 4:-0.43300149 5:0.088745013 6:0.0098061375 7:-0.24570505 8:-0.28552577 9:-0.26964229 10:-0.29235986 11:-0.28552425 12:-0.28753659 13:-0.42003179 14:-0.40821654 15:-0.23585467 16:-0.17937529 17:-0.26982763 18:-0.22111419 19:-0.17972085 20:-0.11348234 21:-0.59974217 22:-0.59892064 #
-0.0019017155341173469246945915145375 1:0.20740207 2:0.23402761 3:0.95009053 4:0.93515956 5:-0.017399419 6:-0.049993321 7:0.35032678 8:0.25286067 9:0.2662282 10:0.17409803 11:0.14605117 12:-0.0061387457 13:-0.45581555 14:-0.491395 15:-0.71834838 16:-0.67540401 17:-1.0979449 18:-1.0841991 19:-0.81266522 20:-0.74045157 21:0.13791798 22:0.15237735 #
-0.0019017155341173469246945915145375 1:-0.85183322 2:-0.87328511 3:-0.40379652 4:-0.36451688 5:-1.2928784 6:-0.89614701 7:-0.22704442 8:-0.2561214 9:0.45445761 10:0.17496739 11:-0.0099097649 12:-0.25369644 13:0.64765668 14:0.33492765 15:0.68646729 16:0.53428203 17:0.28990182 18:0.35331476 19:0.18159266 20:0.18227196 21:0.61288655 22:0.62141901 #
-0.0011699447645469186318062382312633 1:0.89177662 2:0.88563442 3:0.76450217 4:0.75871104 5:0.023502102 6:-0.13857235 7:-0.32034764 8:-0.13176717 9:-1.0650986 10:-0.88255793 11:-1.5656071 12:-1.4506283 13:-1.2887022 14:-1.2433736 15:-1.1892565 16:-1.0589607 17:-0.96082032 18:-0.87912971 19:-0.56052184 20:-0.58177084 21:2.7782335 22:2.7178717 #
-0.0019017155341173469246945915145375 1:0.19879165 2:0.22285987 3:-0.38127893 4:-0.4200297 5:-0.55266064 6:-0.67504412 7:-0.17449711 8:-0.17938665 9:-0.18051274 10:-0.13009833 11:0.35149741 12:0.33950385 13:-0.21274056 14:-0.19814469 15:-0.12050641 16:-0.092825212 17:0.14002723 18:0.11728355 19:-0.058103673 20:-0.059498206 21:-0.22668737 22:-0.20858687 #
0.0034949500222453302837599675711999 1:-0.36672837 2:-0.37818187 3:-0.41534585 4:-0.41720974 5:-0.044683728 6:-0.08618319 7:-0.12468131 8:-0.10328799 9:-0.26215985 10:-0.26071069 11:-0.50761139 12:-0.53415614 13:-0.50944287 14:-0.57962304 15:-0.34763628 16:-0.47016606 17:-0.33921024 18:-0.45874944 19:-0.17656825 20:-0.25574917 21:-0.59071761 22:-0.59993905 #
-0.0019017155341173469246945915145375 1:0.54858994 2:0.53943437 3:-0.047873635 4:-0.075270198 5:0.51696402 6:0.63284642 7:0.31503382 8:0.24589267 9:0.25092408 10:0.24257119 11:0.78804857 12:0.72476095 13:0.60165012 14:0.66506749 15:0.62479591 16:0.76786 17:0.11554956 18:0.27953985 19:0.14406934 20:0.18303141 21:-0.086281225 22:-0.052611288 #
-0.0019017155341173469246945915145375 1:0.22754429 2:0.21556981 3:-0.1638028 4:-0.14423822 5:-0.019594135 6:-0.087102301 7:0.51226872 8:0.35460505 9:0.72105467 10:0.46235594 11:0.78980958 12:0.64837289 13:0.4414449 14:0.31106114 15:0.16900937 16:0.14368306 17:0.20774001 18:0.21002585 19:0.11075229 20:0.075186089 21:0.039056242 22:0.0561039 #
0.0034949500222453302837599675711999 1:0.42373884 2:0.43675318 3:0.16117658 4:0.097713828 5:-0.17561847 6:-0.18918072 7:0.0057268543 8:-0.19606937 9:-0.35558665 10:-0.49630967 11:-0.53850573 12:-0.66190565 13:-0.51330155 14:-0.67966324 15:-0.4919697 16:-0.64054763 17:-0.52355707 18:-0.67531163 19:-0.30182821 20:-0.3691566 21:-0.59556937 22:-0.60439104 #
-0.0019017155341173469246945915145375 1:0.22293158 2:0.23511337 3:0.045683239 4:0.035674844 5:-0.33308932 6:0.041687693 7:0.11257933 8:0.14082332 9:0.45564499 10:0.32118699 11:0.51398236 12:0.32829869 13:0.13817713 14:-0.024567682 15:-0.51705229 16:-0.56091011 17:-0.72440243 18:-0.70737594 19:-0.60323805 20:-0.54680443 21:-0.39402223 22:-0.38499022 #
-0.0019017155341173469246945915145375 1:0.12960078 2:0.1474776 3:0.31524035 4:0.3390213 5:0.61447918 6:0.39175293 7:-0.032568034 8:-0.11248228 9:0.065163679 10:-0.15491675 11:-0.22010718 12:-0.36050236 13:0.24509339 14:-0.060829338 15:-0.27664521 16:-0.21796797 17:0.040704757 18:0.019767722 19:-0.13703397 20:-0.16804995 21:-0.11546104 22:-0.10395496 #
0.0034949500222453302837599675711999 1:-0.32198495 2:-0.33490685 3:-0.7470805 4:-0.72160363 5:-0.18918581 6:-0.2792533 7:-0.18004122 8:-0.25589007 9:-0.19076575 10:-0.25479069 11:-0.20274536 12:-0.30341941 13:-0.26135716 14:-0.42261177 15:-0.37486866 16:-0.4688136 17:-0.39561889 18:-0.48053905 19:-0.23353088 20:-0.29114708 21:-0.59348857 22:-0.60252559 #
-0.0019017155341173469246945915145375 1:-0.32121617 2:-0.32110229 3:-0.4915424 4:-0.46490726 5:-0.36546138 6:-0.32727668 7:-0.42741647 8:-0.37399915 9:-0.43968391 10:-0.40736493 11:-0.58951569 12:-0.59738344 13:-0.41013929 14:-0.4408547 15:-0.7426737 16:-0.71866196 17:-0.73910952 18:-0.6848532 19:-0.39226916 20:-0.35939938 21:-0.60612643 22:-0.60974485 #
-0.0019017155341173469246945915145375 1:-0.32121617 2:-0.32110229 3:-0.4915424 4:-0.46490726 5:-0.36546138 6:-0.32727668 7:-0.42741647 8:-0.37399915 9:-0.43968391 10:-0.40736493 11:-0.58951569 12:-0.59738344 13:-0.41013929 14:-0.4408547 15:-0.7426737 16:-0.71866196 17:-0.73910952 18:-0.6848532 19:-0.39226916 20:-0.35939938 21:-0.60612643 22:-0.60974485 #
-0.0019017155341173469246945915145375 1:0.14958926 2:0.16143729 3:-0.22721519 4:-0.34783888 5:-0.474848 6:-0.77022922 7:-0.65020835 8:-0.64844006 9:-1.1949763 10:-1.1452522 11:-0.87601531 12:-0.85368854 13:-0.8224259 14:-0.93840981 15:-0.65637165 16:-0.76644856 17:-0.96683264 18:-0.96645355 19:-0.52018529 20:-0.47061524 21:-0.3969216 22:-0.38921288 #
-0.0019017155341173469246945915145375 1:0.18403094 2:0.17167439 3:0.12187979 4:0.096182995 5:0.13727817 6:-0.060735393 7:-0.20713973 8:-0.24163604 9:0.47503901 10:0.48775396 11:0.47150555 12:0.36774144 13:-0.47726002 14:-0.34808838 15:0.00497384 16:-0.053508487 17:-0.27171654 18:-0.33719501 19:-0.13728744 20:-0.13892536 21:0.75580114 22:0.75454718 #
0.0034949500222453302837599675711999 1:0.71603185 2:0.73223305 3:0.19793107 4:0.17103262 5:0.066299058 6:0.0085423635 7:-0.065508127 8:-0.20725864 9:-0.24091879 10:-0.3414585 11:-0.56789911 12:-0.66664934 13:-0.66133451 14:-0.75520909 15:-0.50932658 16:-0.59100556 17:-0.53205222 18:-0.61631489 19:-0.30398789 20:-0.33427221 21:-0.5961442 22:-0.60269094 #
-0.0019017155341173469246945915145375 1:-0.85536969 2:-0.87685263 3:-1.208618 4:-1.158777 5:-0.50253135 6:-0.41510892 7:0.015057177 8:-0.061451077 9:-0.65183073 10:-0.45981687 11:-0.27343363 12:-0.080425873 13:0.52864063 14:0.62866229 15:0.54409426 16:0.71181518 17:0.66078615 18:0.71756458 19:0.17651707 20:0.21240672 21:-0.20258686 22:-0.18047261 #
-0.0019017155341173469246945915145375 1:0.52014476 2:0.51073945 3:1.5215284 4:1.5758531 5:0.059016593 6:0.22746238 7:0.46756431 8:0.5422495 9:0.22621508 10:0.29858339 11:-0.042328741 12:0.10472376 13:-0.46802813 14:-0.24443367 15:-0.72437018 16:-0.32816544 17:-0.67954618 18:-0.33550277 19:-0.12891261 20:0.062152356 21:-0.37549052 22:-0.34391832 #
-0.0019017155341173469246945915145375 1:-0.63826412 2:-0.64403617 3:-0.20142893 4:-0.27798459 5:-0.61900091 6:-0.67797381 7:0.097055838 8:-0.081227474 9:0.090325013 10:-0.13028462 11:-0.41066176 12:-0.59853303 13:-0.77809495 14:-0.90579855 15:-0.43735838 16:-0.60613525 17:-0.78038758 18:-0.81826431 19:-0.41045791 20:-0.45591071 21:0.44279686 22:0.43932575 #
-0.0019017155341173469246945915145375 1:0.90192461 2:0.91510481 3:0.61421555 4:0.42402276 5:0.69927502 6:0.3230496 7:0.1778916 8:0.12385147 9:-0.46852052 10:-0.46513659 11:0.15216148 12:0.01134291 13:0.77828109 14:0.76396859 15:1.0014383 16:1.0014721 17:1.2890073 18:1.4212484 19:1.1508307 20:1.2181522 21:-0.1357016 22:-0.084187515 #
0.0034949500222453302837599675711999 1:-0.68885028 2:-0.69196445 3:-0.52343017 4:-0.49520162 5:0.53906077 6:0.46327099 7:0.17964947 8:0.26699907 9:0.33372089 10:0.33137101 11:0.13240045 12:0.070751473 13:-0.28975379 14:-0.32183611 15:-0.58279109 16:-0.55557543 17:-0.71387726 18:-0.68631947 19:-0.47352046 20:-0.49404749 21:-0.60712391 22:-0.61426401 #
-0.0019017155341173469246945915145375 1:-0.75850242 2:-0.74346012 3:-0.52415657 4:-0.44984064 5:0.0336776 6:0.22367106 7:0.3385354 8:0.32696435 9:0.20582214 10:0.21953291 11:0.13484694 12:0.2125207 13:-0.31834373 14:-0.17904969 15:-0.20696111 16:0.019196033 17:-0.40214726 18:-0.24721432 19:-0.3439956 20:-0.25865439 21:-0.25005352 22:-0.22617312 #
-0.0019017155341173469246945915145375 1:0.018126605 2:0.0043133399 3:-0.48522297 4:-0.4356603 5:0.19628608 6:0.47493219 7:0.60154235 8:0.48124337 9:0.26756635 10:0.32013133 11:-0.17507754 12:-0.22224796 13:-0.29034185 14:-0.29843602 15:-0.83210874 16:-0.74015093 17:-0.88133603 18:-0.88129598 19:-0.7255758 20:-0.64030927 21:-0.17880246 22:-0.16487114 #
-0.0019017155341173469246945915145375 1:0.76707929 2:0.77736932 3:0.24696125 4:0.21349308 5:-0.25612465 6:-0.062114056 7:-0.14520802 8:-0.13422476 9:0.032576449 10:0.10264418 11:-0.088303886 12:-0.091261066 13:-0.041128349 14:0.013945191 15:-0.57989013 16:-0.4878982 17:-0.79841965 18:-0.70490098 19:-0.52776408 20:-0.47874504 21:-0.27099565 22:-0.25705251 #
0.0034949500222453302837599675711999 1:1.5630819 2:1.5628339 3:0.7065376 4:0.57992595 5:-0.16948324 6:-0.40063298 7:-0.33100313 8:-0.41199064 9:-0.35066745 10:-0.37387353 11:-0.2743082 12:-0.36750558 13:-0.28565338 14:-0.31267878 15:-0.19922929 16:-0.15686858 17:-0.44472516 18:-0.34207329 19:-0.33942065 20:-0.24363159 21:-0.60278881 22:-0.60060048 #
-0.0019017155341173469246945915145375 1:-0.24971893 2:-0.25223455 3:-0.45486054 4:-0.43477404 5:-0.44422176 6:-0.29976088 7:-0.45678669 8:-0.47901067 9:-0.8138622 10:-0.76612455 11:-0.84205991 12:-0.80586839 13:-0.94701654 14:-0.87414694 15:-0.7972911 16:-0.80314922 17:-0.80925643 18:-0.88375443 19:-0.48623142 20:-0.47083223 21:-0.60592836 22:-0.60936004 #
0.0034949500222453302837599675711999 1:0.52045232 2:0.51446205 3:0.087377064 4:0.0066696038 5:0.87914199 6:0.67604446 7:0.32041565 8:0.20087534 9:0.052535892 10:-0.017432248 11:-0.26869428 12:-0.34168613 13:-0.39551806 14:-0.51073217 15:-0.44890726 16:-0.55500847 17:-0.517277 18:-0.61695427 19:-0.26381263 20:-0.32185325 21:-0.59646624 22:-0.6048587 #
0.0034949500222453302837599675711999 1:-0.17191765 2:-0.183677 3:-0.28278273 4:-0.28418851 5:0.1806238 6:0.020088658 7:-0.35447767 8:-0.3057937 9:-0.51294392 10:-0.4536899 11:-0.57020378 12:-0.56915909 13:-0.59595382 14:-0.65507025 15:-0.47897953 16:-0.5700357 17:-0.52989554 18:-0.60572046 19:-0.3157227 20:-0.37470666 21:-0.59680545 22:-0.60601217 #
0.0034949500222453302837599675711999 1:-0.20051654 2:-0.21624959 3:-0.43503055 4:-0.43243751 5:-0.033261228 6:-0.10508235 7:-0.013988523 8:-0.071570575 9:-0.18477227 10:-0.23500219 11:-0.34188813 12:-0.37236822 13:-0.42997262 14:-0.4501735 15:-0.54675817 16:-0.57052749 17:-0.58986294 18:-0.59956336 19:-0.27407274 20:-0.32275739 21:-0.59524858 22:-0.60368234 #
-0.0019017155341173469246945915145375 1:1.8892014 2:1.939435 3:0.89539462 4:0.73188114 5:0.015321798 6:-0.39540556 7:-0.35117826 8:-0.29740897 9:-0.23341751 10:-0.21020448 11:-0.12535584 12:-0.14842331 13:-0.1188102 14:-0.10691205 15:-0.2352134 16:-0.21317291 17:-0.084993996 18:-0.14600533 19:-0.051628791 20:-0.0353764 21:-0.11716492 22:-0.092928261 #
-0.0019017155341173469246945915145375 1:-0.74758565 2:-0.7681222 3:-0.38701728 4:-0.3737019 5:0.15588337 6:0.027269186 7:-0.23164196 8:-0.26265571 9:-0.3473126 10:-0.29192516 11:-0.093315057 12:-0.010856018 13:-0.15091246 14:-0.036317069 15:0.96394557 16:0.95414311 17:1.7929124 18:1.8027238 19:0.75334507 20:0.84304059 21:-0.15125327 22:-0.10756417 #
0.0034949500222453302837599675711999 1:0.87686217 2:0.90812498 3:0.014086002 4:0.022380775 5:-0.68593979 6:-0.6347183 7:-0.18047394 8:-0.24481645 9:-0.50393486 10:-0.50732166 11:-0.59317952 12:-0.59068412 13:-0.39715341 14:-0.41086239 15:-0.27775064 16:-0.30978441 17:-0.18270506 18:-0.25368011 19:-0.071832687 20:-0.1127036 21:-0.58615488 22:-0.59381413 #
0.0034949500222453302837599675711999 1:0.50584537 2:0.53074837 3:0.44351786 4:0.34288868 5:-0.047177721 6:-0.07096047 7:0.024657944 8:0.029826835 9:-0.17125864 10:-0.070277467 11:-0.53114265 12:-0.46174532 13:-0.71289152 14:-0.6084404 15:-0.67351484 16:-0.5873034 17:-0.62388241 18:-0.57386011 19:-0.20133871 20:-0.11970266 21:-0.59669912 22:-0.59683084 #
-0.0019017155341173469246945915145375 1:-0.19928648 2:-0.18181571 3:-0.35781708 4:-0.29965794 5:-0.2827605 6:-0.18774462 7:-0.51068622 8:-0.403577 9:-0.54754782 10:-0.50711471 11:-0.59015393 12:-0.60985708 13:-0.80729717 14:-0.83784944 15:-1.0119317 16:-0.97526574 17:-1.0101894 18:-0.97367996 19:-0.57692587 20:-0.521658 21:-0.612997 22:-0.61536741 #
-0.0019017155341173469246945915145375 1:2.1862609 2:2.1914847 3:0.78832722 4:0.47550708 5:-0.15412024 6:-0.65545565 7:-0.52721035 8:-0.52784449 9:0.14360674 10:-0.034550536 11:0.58086497 12:0.59814781 13:1.1446176 14:1.1726141 15:1.1745675 16:1.309872 17:1.038009 18:1.3578861 19:0.48025838 20:0.60772467 21:-0.025200615 22:0.023652101 #
-0.0019017155341173469246945915145375 1:0.10253946 2:0.11754185 3:-0.12218162 4:-0.13738975 5:-0.22624658 6:-0.21462852 7:-0.62803191 8:-0.53267294 9:-0.9754979 10:-0.88841581 11:-0.79727846 12:-0.78719747 13:-0.87511069 14:-0.85710585 15:-0.89518476 16:-0.8497951 17:-0.69603014 18:-0.71748525 19:-0.42525735 20:-0.39945531 21:-0.60641032 22:-0.60908759 #
-0.0019017155341173469246945915145375 1:-0.22250386 2:-0.20663291 3:-0.053248797 4:-0.042719875 5:-0.3694019 6:-0.28419352 7:-0.68066037 8:-0.56759965 9:-0.78263199 10:-0.75558865 11:-0.73505247 12:-0.74365848 13:-0.74788582 14:-0.75383681 15:-0.69495136 16:-0.70813608 17:-0.76398635 18:-0.75181508 19:-0.46642554 20:-0.43578869 21:-0.60623443 22:-0.61005622 #
-0.0019017155341173469246945915145375 1:-0.49942109 2:-0.49854532 3:-0.21639222 4:-0.21344794 5:-0.59495884 6:-0.56595755 7:-0.53524256 8:-0.54762089 9:-0.53567398 10:-0.54429054 11:-0.6340844 12:-0.63146144 13:-0.72277594 14:-0.63134724 15:-0.70330614 16:-0.62492615 17:-0.84055454 18:-0.76444894 19:-0.48655191 20:-0.41832119 21:-0.61005563 22:-0.61048996 #
-0.0019017155341173469246945915145375 1:-0.33197919 2:-0.33304557 3:-0.37110972 4:-0.36064953 5:-0.39080039 6:-0.27339399 7:-0.45456907 8:-0.41040042 9:-0.558272 10:-0.54474592 11:-0.46459094 12:-0.4682993 13:-0.67477959 14:-0.67473924 15:-0.80676961 16:-0.77829963 17:-0.81356484 18:-0.78136581 19:-0.49765831 20:-0.45526698 21:-0.60953373 22:-0.61194777 #
-0.0019017155341173469246945915145375 1:0.68005258 2:0.67205131 3:0.16015966 4:0.084983751 5:0.28626943 6:0.02474164 7:0.52865762 8:0.15828669 9:0.47607562 10:0.26349813 11:0.34750268 12:0.16336593 13:0.22675845 14:0.16074076 15:0.087080158 16:0.028294345 17:-0.47408569 18:-0.38932914 19:-0.33149409 20:-0.30025333 21:-0.12153958 22:-0.10920393 #
0.0034949500222453302837599675711999 1:0.2745941 2:0.27699241 3:0.12928879 4:0.078779854 5:0.059814673 6:-0.10226759 7:-0.19721442 8:-0.25239164 9:-0.37554607 10:-0.42636687 11:-0.49111235 12:-0.56190479 13:-0.58626276 14:-0.65866679 15:-0.64872533 16:-0.71495295 17:-0.76132828 18:-0.82429463 19:-0.41283756 20:-0.45423749 21:-0.60028517 22:-0.60924232 #
-0.0019017155341173469246945915145375 1:0.061178699 2:0.06356442 3:0.17454185 4:0.14267194 5:0.15558408 6:-0.16907524 7:0.0067545422 8:-0.099066712 9:-0.018726291 10:-0.10376887 11:-0.030273564 12:-0.14878008 13:-0.23291223 14:-0.30181733 15:-0.21606708 16:-0.38513237 17:-0.041374292 18:-0.16485696 19:-0.18691005 20:-0.14591478 21:-0.12576997 22:-0.11158679 #
-0.0019017155341173469246945915145375 1:0.025045691 2:0.011293179 3:0.4544861 4:0.30348989 5:0.75070125 6:0.49239522 7:0.25610402 8:0.12911361 9:-0.067013435 10:-0.18571725 11:-0.21008484 12:-0.42439035 13:-0.57299489 14:-0.67667657 15:-0.38964829 16:-0.57862175 17:-0.89793682 18:-0.88385916 19:-0.44139323 20:-0.4557564 21:-0.27618715 22:-0.26631853 #
-0.0019017155341173469246945915145375 1:-0.10334181 2:-0.08844097 3:-0.15254402 4:-0.1181335 5:-0.59765232 6:-0.5347653 7:-0.033217102 8:-0.0060829418 9:0.032878008 10:0.017466709 11:0.20197774 12:0.04970213 13:0.16955438 14:0.075929932 15:-0.065693535 16:-0.12322805 17:-0.060954478 18:-0.14651796 19:-0.084013678 20:-0.1247199 21:-0.11234246 22:-0.093852937 #
0.0034949500222453302837599675711999 1:-0.60013223 2:-0.61487597 3:-0.75034916 4:-0.72998291 5:-0.28465596 6:-0.39724377 7:-0.28354019 8:-0.31429407 9:-0.4107908 10:-0.44224322 11:-0.37225065 12:-0.40673691 13:-0.16396283 14:-0.23434356 15:-0.19528398 16:-0.27405372 17:-0.21392041 18:-0.31198233 19:-0.13888992 20:-0.20931378 21:-0.59116399 22:-0.59957176 #
-0.0019017155341173469246945915145375 1:-0.73067236 2:-0.75106037 3:0.55777633 4:0.63696957 5:-0.053911507 6:-0.045857336 7:0.17461921 8:0.29307845 9:-0.087990642 10:-0.051006451 11:0.36046788 12:0.33341238 13:-0.19322947 14:-0.17623343 15:-0.071684785 16:-0.096438579 17:-0.35430676 18:-0.32166722 19:-0.26452276 20:-0.20342377 21:-0.25550523 22:-0.2353531 #
-0.0019017155341173469246945915145375 1:0.42404637 2:0.41379726 3:-0.29229823 4:-0.36129409 5:-0.41179982 6:-0.37397885 7:-0.29011199 8:-0.2401904 9:-0.35828182 10:-0.34582603 11:-0.12719958 12:-0.16791344 13:-0.17507175 14:-0.20600152 15:0.071665376 16:0.1066614 17:0.29258424 18:0.16417009 19:-0.12270586 20:-0.10666652 21:-0.098299898 22:-0.079620801 #
-0.0019017155341173469246945915145375 1:-0.34212717 2:-0.34359288 3:-0.25532582 4:-0.24446744 5:-0.55480552 6:-0.46835974 7:-0.57397014 8:-0.51370609 9:-0.82419062 10:-0.76186049 11:-0.84060615 12:-0.8015343 13:-0.7087025 14:-0.73519927 15:-0.590639 16:-0.66330022 17:-0.53028017 18:-0.59473473 19:-0.34849301 20:-0.3431277 21:-0.6038112 22:-0.60673606 #
0.0034949500222453302837599675711999 1:-0.092425026 2:-0.090612479 3:-0.18690147 4:-0.20208755 5:-0.29458204 6:-0.32009616 7:-0.46576545 8:-0.40135071 9:-0.48744336 10:-0.47999865 11:-0.44734731 12:-0.45779446 13:-0.47481108 14:-0.4748472 15:-0.38426778 16:-0.40437406 17:-0.47756165 18:-0.49273747 19:-0.31384999 20:-0.30618194 21:-0.60054088 22:-0.60550398 #
-0.0019017155341173469246945915145375 1:-0.13363203 2:-0.12969957 3:-0.55386519 4:-0.53161931 5:-0.39299509 6:-0.16137771 7:-0.43701723 8:-0.36471811 9:-0.7034539 10:-0.68194067 11:-0.72505373 12:-0.66691363 13:-0.83852136 14:-0.80714858 15:-0.73034918 16:-0.7145431 17:-0.66665018 18:-0.67407137 19:-0.4428407 20:-0.4291971 21:-0.61031824 22:-0.61273777 #
-0.0019017155341173469246945915145375 1:0.08301226 2:0.099084049 3:-0.24348594 4:-0.26549622 5:-0.2519846 6:-0.25231194 7:-0.52945507 8:-0.52952141 9:-0.91733468 10:-0.85142624 11:-0.76335847 12:-0.7282778 13:-0.91576821 14:-0.84087199 15:-0.98147458 16:-0.94191211 17:-0.8935554 18:-0.84545583 19:-0.48246297 20:-0.44430184 21:-0.60702199 22:-0.60941511 #
0.0034949500222453302837599675711999 1:-1.3349392 2:-1.360633 3:-0.92693049 4:-0.91118509 5:-0.58792573 6:-0.4898439 7:-0.13725697 8:-0.25392401 9:-0.33061376 10:-0.46567476 11:-0.34492555 12:-0.4635556 13:0.16921604 14:0.059346255 15:0.13007544 16:0.071436189 17:0.10898226 18:0.1135022 19:-0.018123213 20:0.011292841 21:-0.58882278 22:-0.59041774 #
-0.0019017155341173469246945915145375 1:-0.80478346 2:-0.79169858 3:-1.0578957 4:-0.95815748 5:-0.58213967 6:-0.39058024 7:-0.78883803 8:-0.63265359 9:-0.80604053 10:-0.81240809 11:-0.46416548 12:-0.48616415 13:-0.57144815 14:-0.58589238 15:0.036194272 16:0.064714909 17:0.14401434 18:0.18508327 19:-0.024151912 20:0.022643711 21:-0.22047563 22:-0.19994824 #
-0.0019017155341173469246945915145375 1:0.34055606 2:0.34818676 3:-0.1449171 4:-0.1828313 5:-0.35638323 6:-0.28729549 7:-0.54103005 8:-0.44237804 9:-0.84931427 10:-0.80951023 11:-0.77743465 12:-0.75617182 13:-0.85528541 14:-0.78668129 15:-0.93841821 16:-0.89626342 17:-0.93437582 18:-0.92652339 19:-0.5449369 20:-0.49654046 21:-0.61006182 22:-0.61266142 #
-0.0019017155341173469246945915145375 1:1.519876 2:1.5192487 3:0.90091509 4:0.87650454 5:-0.86635536 6:-0.47008309 7:0.55110449 8:0.59715503 9:0.24344164 10:0.31007147 11:-0.0077705621 12:0.048526116 13:0.75128615 14:0.76499104 15:0.41751474 16:0.54889941 17:0.13804097 18:0.37717694 19:0.19320178 20:0.2546446 21:-0.050557587 22:-0.018302556 #
-0.0019017155341173469246945915145375 1:-1.0515642 2:-1.0747699 3:-1.4428734 4:-1.3544818 5:-0.18090574 6:-0.18245974 7:-0.3890675 8:-0.38455233 9:-0.70269996 10:-0.7086013 11:-0.58026159 12:-0.67638785 13:-0.081777796 14:-0.20968778 15:0.031632133 16:-0.13568699 17:0.049745139 18:-0.07704255 19:0.13704982 20:0.030995328 21:0.28796536 22:0.29415515 #
0.0034949500222453302837599675711999 1:0.5472061 2:0.6888029 3:0.53351551 4:0.56880724 5:0.60974061 6:0.39847389 7:-0.032676212 8:-0.091925234 9:-0.27011347 10:-0.30904347 11:-0.5007565 12:-0.57276642 13:-0.64952475 14:-0.71813124 15:-0.70516884 16:-0.76804012 17:-0.73679221 18:-0.82333553 19:-0.44589275 20:-0.48931235 21:-0.60385066 22:-0.61204797 #
0.0034949500222453302837599675711999 1:0.80029094 2:0.80451316 3:0.23395918 4:0.19762076 5:-0.30715179 6:-0.44262472 7:-0.35220596 8:-0.45449254 9:-0.49552891 10:-0.52394319 11:-0.60438377 12:-0.57104862 13:-0.4738605 14:-0.46986941 15:-0.47400817 16:-0.47560316 17:-0.432165 18:-0.44348621 19:-0.20700082 20:-0.2291778 21:-0.59062028 22:-0.59754348 #
-0.0019017155341173469246945915145375 1:0.3794567 2:0.38293085 3:0.006168534 4:0.01134267 5:-0.34830269 6:-0.39575022 7:-0.52580404 8:-0.58775192 9:-0.68935597 10:-0.68266511 11:-0.82895285 12:-0.83771324 13:-1.1196196 14:-1.0633749 15:-1.0010545 16:-0.984972 17:-0.86437982 18:-0.87124729 19:-0.51491278 20:-0.47949967 21:-0.6080187 22:-0.61093706 #
-0.0019017155341173469246945915145375 1:0.26475361 2:0.25310585 3:-0.038648695 4:0.037205674 5:0.23464373 6:0.33654898 7:0.47243229 8:0.50957799 9:0.60414398 10:0.54155135 11:0.13470511 12:0.095447779 13:-0.50933814 14:-0.4290874 15:-0.84949619 16:-0.71277404 17:-1.0379727 18:-1.0282615 19:-0.68765032 20:-0.67573619 21:-0.18183878 22:-0.17140786 #
-0.0019017155341173469246945915145375 1:-0.22650155 2:-0.23005415 3:0.048443455 4:0.086836867 5:-0.24340527 6:-0.17918542 7:-0.29616994 8:-0.22128139 9:-0.61805612 10:-0.58589607 11:-0.84662193 12:-0.81612217 13:-0.83396178 14:-0.85524029 15:-0.76828766 16:-0.78687882 17:-0.89936322 18:-0.87896985 19:-0.51838589 20:-0.48032424 21:-0.60651362 22:-0.60923171 #
-0.0019017155341173469246945915145375 1:1.3745751 2:1.4188942 3:1.1084399 4:1.0274123 5:1.3353436 6:1.0498341 7:0.72540575 8:0.53750783 9:0.19581415 10:0.15542729 11:-0.24860232 12:-0.20528163 13:-0.34706259 14:-0.31853554 15:-0.44104108 16:-0.59481698 17:-0.58170855 18:-0.64840674 19:-0.25746971 20:-0.30406991 21:-0.14345689 22:-0.12953828 #
0.0034949500222453302837599675711999 1:0.23354083 2:0.2358889 3:-0.31234613 4:-0.29305121 5:-0.58109224 6:-0.44923082 7:-0.43201402 8:-0.39741856 9:-0.60105574 10:-0.59235424 11:-0.51983202 12:-0.54660338 13:-0.44038874 14:-0.50226545 15:-0.32089248 16:-0.36718845 17:-0.080476247 18:-0.20247202 19:-0.099072859 20:-0.11993411 21:-0.58822024 22:-0.59456593 #
-0.0019017155341173469246945915145375 1:0.10853601 2:0.095516577 3:-0.097484924 4:-0.12739906 5:-0.62019807 6:-0.68124813 7:-0.86164159 8:-0.7668671 9:-0.8181029 10:-0.82300615 11:-0.68066233 12:-0.66863143 13:-0.87790602 14:-0.8882283 15:-0.81329834 16:-0.85364753 17:-0.77962327 18:-0.75731069 19:-0.46202028 20:-0.42306116 21:-0.60573971 22:-0.60905755 #
-0.0019017155341173469246945915145375 1:1.9437853 2:1.9932574 3:0.70588386 4:0.67661005 5:0.80272597 6:0.59826499 7:-0.055799186 8:-0.036296885 9:-0.66966045 10:-0.6015861 11:-0.27887028 12:-0.27926484 13:-0.51584721 14:-0.4282712 15:-0.23628218 16:-0.19587792 17:0.048493993 18:0.18080582 19:0.16955201 20:0.19724652 21:-0.094357677 22:-0.05671614 #
-0.0019017155341173469246945915145375 1:-0.42085102 2:-0.40237865 3:-0.33232138 4:-0.29989967 5:-0.5069707 6:-0.47502327 7:-0.44531986 8:-0.44284067 9:-0.78140688 10:-0.69042736 11:-0.7311877 12:-0.72398341 13:-0.68213457 14:-0.69632763 15:-0.7217074 16:-0.70159918 17:-0.89084375 18:-0.84031302 19:-0.48593396 20:-0.44181132 21:-0.61113173 22:-0.61324364 #
-0.0019017155341173469246945915145375 1:-0.76403773 2:-0.78471875 3:0.064496301 4:0.10593198 5:-0.25652367 6:-0.033506822 7:-0.60596371 8:-0.052979607 9:0.0069062319 10:0.090452306 11:0.11054748 12:0.16327344 13:0.59943479 14:0.59917223 15:0.53292406 16:0.64257377 17:0.69933313 18:0.84936613 19:0.47230041 20:0.53023589 21:-0.048849057 22:-0.0059033092 #
0.0034949500222453302837599675711999 1:-0.092425026 2:-0.090612479 3:-0.18690147 4:-0.20208755 5:-0.29458204 6:-0.32009616 7:-0.46576545 8:-0.40135071 9:-0.48744336 10:-0.47999865 11:-0.44734731 12:-0.45779446 13:-0.47481108 14:-0.4748472 15:-0.38426778 16:-0.40437406 17:-0.47756165 18:-0.49273747 19:-0.31384999 20:-0.30618194 21:-0.60054088 22:-0.60550398 #
-0.0019017155341173469246945915145375 1:-0.13839851 2:-0.15358613 3:-0.24733572 4:-0.23576586 5:-0.28460607 6:-0.20773521 7:-0.39850599 8:-0.36708897 9:-0.7592423 10:-0.70363349 11:-0.7014398 12:-0.66164142 13:-0.82019442 14:-0.76041108 15:-0.90160966 16:-0.85586751 17:-0.84284264 18:-0.80330426 19:-0.52819353 20:-0.48392141 21:-0.61011112 22:-0.61285353 #
-0.0019017155341173469246945915145375 1:-0.47866383 2:-0.49683914 3:-0.34554139 4:-0.3394596 5:-0.37942776 6:-0.34272918 7:-0.51512152 8:-0.48372346 9:-0.6447441 10:-0.63752002 11:-0.88256294 12:-0.87949479 13:-0.76862943 14:-0.776645 15:-0.77028471 16:-0.7845974 17:-0.78698897 18:-0.76647192 19:-0.38087371 20:-0.38259536 21:-0.60212505 22:-0.60575175 #
0.0034949500222453302837599675711999 1:-0.50803149 2:-0.5264647 3:-0.4560954 4:-0.4240582 5:-0.29777434 6:-0.397531 7:-0.40878287 8:-0.44509587 9:-0.42745194 10:-0.46066555 11:-0.35550338 12:-0.43017793 13:-0.27095965 14:-0.3324644 15:-0.26571929 16:-0.31776935 17:-0.37040612 18:-0.32843065 19:-0.22967653 20:-0.18078953 21:-0.59857231 22:-0.60086322 #
-0.0019017155341173469246945915145375 1:-0.099651627 2:-0.11449904 3:-0.20077519 4:-0.24269488 5:0.61507773 6:0.24377654 7:0.14351813 8:-0.26947913 9:0.19304357 10:0.016224753 11:0.428296 12:0.15941505 13:0.38447443 14:0.19683202 15:-0.30947798 16:-0.35386205 17:-0.69813812 18:-0.63329786 19:-0.42566583 20:-0.4205417 21:-0.01952 22:-0.010643761 #
-0.0019017155341173469246945915145375 1:-0.012009863 2:-0.026087739 3:-0.3327572 4:-0.4160012 5:0.50389546 6:0.76301503 7:0.58215147 8:0.55780464 9:0.53448385 10:0.3735975 11:0.48402166 12:0.50331342 13:0.4854697 14:0.44991019 15:0.17583731 16:0.18685906 17:-0.1713912 18:-0.16125201 19:-0.23186135 20:-0.23772471 21:0.023793269 22:0.03011521 #
0.0034949500222453302837599675711999 1:0.89823443 2:0.89928389 3:0.5301742 4:0.45770109 5:-0.060745057 6:-0.12599206 7:-0.085061245 8:-0.18042751 9:-0.16368197 10:-0.23723771 11:-0.44374257 12:-0.46233994 13:-0.52414465 14:-0.52473277 15:-0.63399458 16:-0.57585537 17:-0.70387781 18:-0.699036 19:-0.27717924 20:-0.3024666 21:-0.59509975 22:-0.60201263 #
0.0034949500222453302837599675711999 1:0.26137096 2:0.26132655 3:0.09420497 4:0.11568096 5:-0.4183341 6:-0.15075052 7:-0.11748749 8:-0.022968054 9:-0.27897179 10:-0.27048072 11:-0.45033747 12:-0.51088691 13:-0.48862675 14:-0.52121693 15:-0.47230425 16:-0.49381346 17:-0.3608059 18:-0.41737506 19:-0.13358811 20:-0.16553289 21:-0.58810079 22:-0.59453404 #
-0.0019017155341173469246945915145375 1:0.71234167 2:0.7232368 3:0.536421 4:0.488076 5:-0.056056343 6:-0.10272714 7:-0.27150542 8:-0.44281176 9:-0.56119341 10:-0.60897577 11:-0.82929558 12:-0.72387767 13:-0.90299171 14:-0.84958088 15:-0.66865951 16:-0.66410625 17:-0.84816849 18:-0.81210172 19:-0.4240759 20:-0.39687556 21:-0.27489993 22:-0.25912869 #
-0.0012859672673957486116469439707544 1:0.87993729 2:0.87369114 3:0.44874775 4:0.44311789 5:-0.20819005 6:-0.44859892 7:-0.22382613 8:-0.45605385 9:0.048144437 10:-0.19006409 11:-0.056475852 12:-0.24224021 13:-0.17698902 14:-0.2908572 15:-0.26870576 16:-0.40234539 17:-0.29389152 18:-0.4248606 19:-0.15030633 20:-0.24628849 21:0.75835824 22:0.75871068 #
0.0034949500222453302837599675711999 1:-0.4523713 2:-0.45790714 3:-0.45595011 4:-0.4388831 5:0.10156415 6:-0.008001578 7:0.055840153 8:-0.0020062278 9:0.049821857 10:0.020882087 11:-0.073908582 12:-0.128365 13:-0.27119327 14:-0.35777488 15:-0.43251529 16:-0.52769303 17:-0.59607482 18:-0.66406679 19:-0.40512678 20:-0.44038644 21:-0.60221982 22:-0.61064446 #
0.0034949500222453302837599675711999 1:1.4265451 2:1.4793861 3:0.4233973 4:0.39807919 5:0.49142548 6:0.27376243 7:-0.064155906 8:-0.059109133 9:-0.51002258 10:-0.42183372 11:-0.32788286 12:-0.2920821 13:-0.65513963 14:-0.53028458 15:-0.54752767 16:-0.38069248 17:-0.70611721 18:-0.39718398 19:-0.53821272 20:-0.2965115 21:-0.62084836 22:-0.6110028 #
-0.0019017155341173469246945915145375 1:0.014590182 2:0.030526515 3:-0.48050153 4:-0.45556113 5:-0.48262927 6:-0.31061786 7:-0.24007982 8:-0.18326098 9:-0.56234306 10:-0.53114653 11:-0.79469013 12:-0.77296638 13:-0.80170643 14:-0.80134559 15:-0.7294392 16:-0.76104558 17:-0.86366421 18:-0.84611177 19:-0.51436394 20:-0.47240901 21:-0.60880411 22:-0.61219281 #
-0.0019017155341173469246945915145375 1:-0.12425283 2:-0.050904945 3:-0.39609694 4:-0.29538774 5:-0.74908775 6:-0.52902085 7:-0.46930826 8:-0.37518457 9:-0.45223632 10:-0.44501689 11:-0.74255741 12:-0.7590524 13:-0.73450518 14:-0.77897692 15:-0.80241513 16:-0.83134574 17:-0.83439618 18:-0.81374985 19:-0.47668773 20:-0.45422062 21:-0.60937744 22:-0.6124503 #
-0.0019017155341173469246945915145375 1:-0.23403567 2:-0.21966195 3:-0.25394571 4:-0.25042963 5:-0.5285188 6:-0.46238554 7:-0.51595986 8:-0.50095552 9:-0.64615768 10:-0.64528227 11:-0.78355682 12:-0.76028126 13:-0.63784391 14:-0.69282973 15:-0.90084624 16:-0.91321689 17:-0.75317395 18:-0.78312969 19:-0.46834013 20:-0.4324905 21:-0.60766774 22:-0.61018401 #
0.0034949500222453302837599675711999 1:1.1662338 2:1.1863879 3:0.3099378 4:0.28826213 5:-0.009568275 6:-0.13265559 7:-0.041654959 8:-0.05190983 9:-0.27205476 10:-0.28370756 11:-0.5076232 12:-0.50405544 13:-0.52643251 14:-0.46054167 15:-0.59181768 16:-0.50621778 17:-0.66990215 18:-0.53422207 19:-0.34241614 20:-0.22371453 21:-0.60588521 22:-0.60407466 #
-0.0019017155341173469246945915145375 1:-0.48266152 2:-0.50087196 3:-0.44178584 4:-0.42059368 5:-0.51589918 6:-0.42269158 7:-0.48396635 8:-0.46212554 9:-0.73634267 10:-0.72718924 11:-0.7273348 12:-0.77078611 13:-0.70244318 14:-0.7402578 15:-0.71414655 16:-0.78706324 17:-0.77881026 18:-0.81921238 19:-0.482088 20:-0.4631412 21:-0.60854763 22:-0.61189163 #
0.0034949500222453302837599675711999 1:0.04457289 2:0.037816569 3:0.092025846 4:0.068225168 5:0.1739399 6:0.037781484 7:-0.21692981 8:-0.23489934 9:-0.36804479 10:-0.374805 11:-0.48067635 12:-0.51610625 13:-0.4676334 14:-0.53845537 15:-0.54421139 16:-0.61829364 17:-0.54076153 18:-0.62372875 19:-0.28079268 20:-0.34624511 21:-0.59621161 22:-0.60533714 #
-0.0019017155341173469246945915145375 1:0.058872338 2:0.057825442 3:-0.62381494 4:-0.66093433 5:-0.30765057 6:-0.29269525 7:0.52708906 8:0.40297624 9:0.34476548 10:0.2980659 11:0.26828122 12:0.28157523 13:0.13824964 14:0.21566691 15:-0.023779251 16:0.19408579 17:0.3159714 18:0.36622426 19:0.090462506 20:0.13475646 21:0.049236547 22:0.080343351 #
-0.0019017155341173469246945915145375 1:-0.48850432 2:-0.50676602 3:-0.36653358 4:-0.39529467 5:-0.23018709 6:-0.51741713 7:-0.70829976 8:-0.66081476 9:-0.40753019 10:-0.31800625 11:0.83019441 12:0.82143205 13:0.53842032 14:0.5376808 15:0.49053341 16:0.2975415 17:0.34563377 18:0.2392624 19:0.40861362 20:0.37998635 21:-0.062032085 22:-0.040186398 #
-0.0019017155341173469246945915145375 1:-0.48266152 2:-0.50087196 3:-0.44178584 4:-0.42059368 5:-0.51589918 6:-0.42269158 7:-0.48396635 8:-0.46212554 9:-0.73634267 10:-0.72718924 11:-0.7273348 12:-0.77078611 13:-0.70244318 14:-0.7402578 15:-0.71414655 16:-0.78706324 17:-0.77881026 18:-0.81921238 19:-0.482088 20:-0.4631412 21:-0.60854763 22:-0.61189163 #
-0.0019017155341173469246945915145375 1:2.3958323 2:2.4028964 3:0.31168112 4:0.22404777 5:1.084697 6:0.88278633 7:0.1916572 8:-0.06009217 9:-0.56486863 10:-0.59920573 11:-0.46037164 12:-0.54134434 13:-0.5243541 14:-0.47147486 15:-0.55310363 16:-0.56422973 17:-0.87785524 18:-0.86620367 19:-0.52023345 20:-0.45710894 21:-0.16269499 22:-0.14982674 #
-0.0019017155341173469246945915145375 1:1.2183576 2:1.2278017 3:0.67624784 4:0.7027148 5:0.38967046 6:0.1608845 7:-0.056231897 8:-0.17160909 9:-0.19681577 10:-0.20432588 11:-0.3027679 12:-0.3592867 13:-0.46072152 14:-0.50570059 15:-0.48258892 16:-0.49711263 17:-0.57090586 18:-0.59074938 19:-0.47095647 20:-0.45884967 21:-0.034253076 22:-0.026033361 #
0.0034949500222453302837599675711999 1:-0.0052445335 2:-0.007319726 3:-0.065016039 4:-0.047956932 5:0.2106515 6:0.10757624 7:0.26581299 8:0.073543087 9:-0.11920201 10:-0.21916726 11:-0.37937737 12:-0.50483501 13:-0.4264603 14:-0.5630573 15:-0.53724909 16:-0.64746702 17:-0.60845482 18:-0.71538514 19:-0.388109 20:-0.44387993 21:-0.60265076 22:-0.61157018 #
-0.0019017155341173469246945915145375 1:-0.17007256 2:-0.16987243 3:-0.16387543 4:-0.11644153 5:-0.11207148 6:-0.068949923 7:-0.43525934 8:-0.32950222 9:-0.71097404 10:-0.63958997 11:-0.80810446 12:-0.78681427 13:-1.0095938 14:-0.97828597 15:-0.9305765 16:-0.95073038 17:-1.0116596 18:-0.98372871 19:-0.52070057 20:-0.4841167 21:-0.60876113 22:-0.61194217 #
0.0034949500222453302837599675711999 1:-0.68885028 2:-0.69041336 3:-0.57144344 4:-0.52638227 5:-0.54368228 6:-0.41677481 7:0.095595442 8:0.00053810416 9:-0.086690165 10:-0.11906563 11:-0.17542028 12:-0.21918239 13:-0.29726177 14:-0.29009485 15:-0.16295202 16:-0.23593919 17:-0.35010058 18:-0.31461164 19:-0.16947751 20:-0.14353997 21:-0.59699875 22:-0.59871268 #
-0.0019017155341173469246945915145375 1:0.10438456 2:0.17710315 3:-0.1552316 4:-0.10258347 5:-0.20833969 6:-0.12541762 7:-0.50300562 8:-0.46469879 9:-0.81112933 10:-0.76544148 11:-0.94179875 12:-0.93583781 13:-1.0395291 14:-1.0676352 15:-0.95047402 16:-0.97715783 17:-0.94785124 18:-0.98213017 19:-0.5499559 20:-0.52450538 21:-0.60929406 22:-0.61310363 #
-0.0019017155341173469246945915145375 1:-0.58352643 2:-0.58711171 3:-0.3457593 4:-0.33438367 5:-0.26475385 6:-0.19756758 7:-0.44212863 8:-0.40785611 9:-0.62668824 10:-0.58728296 11:-0.66886717 12:-0.69758254 13:-0.9427067 14:-0.91546714 15:-0.89950264 16:-0.84678966 17:-0.84275985 18:-0.82022113 19:-0.44163832 20:-0.43149957 21:-0.6080212 22:-0.61107105 #
-0.0019017155341173469246945915145375 1:-0.30138144 2:-0.30373025 3:-0.28227428 4:-0.24849594 5:-0.47848925 6:-0.32888514 7:-0.481316 8:-0.38825318 9:-0.73605996 10:-0.6773454 11:-0.9836846 12:-0.91267431 13:-0.64409518 14:-0.65804791 15:-0.7452876 16:-0.74821782 17:-0.90278566 18:-0.845285 19:-0.46149659 20:-0.42019692 21:-0.6065588 22:-0.60950661 #
0.0034949500222453302837599675711999 1:0.67759246 2:0.68089247 3:-0.083756469 4:-0.11821407 5:0.28138119 6:0.22654326 7:0.29810402 8:0.19642276 9:-0.065090999 10:-0.14404963 11:-0.31698591 12:-0.40427917 13:-0.61000311 14:-0.69729626 15:-0.6548937 16:-0.70501447 17:-0.59787124 18:-0.70212835 19:-0.33354068 20:-0.35357687 21:-0.59887499 22:-0.60362375 #
0.0034949500222453302837599675711999 1:0.33978727 2:0.32879832 3:0.031809509 4:0.031001776 5:-0.16733842 6:-0.18877861 7:-0.22812618 8:-0.20642018 9:-0.288829 10:-0.31779924 11:-0.25345984 12:-0.27170664 13:-0.40863287 14:-0.41044083 15:-0.39640903 16:-0.41435352 17:-0.60701871 18:-0.60461801 19:-0.41488624 20:-0.40888706 21:-0.60482699 22:-0.60828847 #
-0.0019017155341173469246945915145375 1:-0.058598381 2:-0.073085323 3:0.26003596 4:0.23274933 5:0.01976111 6:-0.19176571 7:0.3961941 8:0.29131478 9:0.21767719 10:0.23205596 11:0.3650654 12:0.36094961 13:-0.0085346755 14:-0.043483298 15:0.018110607 16:-0.1055847 17:-0.46597517 18:-0.45302227 19:-0.32358223 20:-0.26078087 21:-0.012798915 22:0.0044605439 #
0.0034949500222453302837599675711999 1:-0.10380308 2:-0.10581302 3:0.12819923 4:0.11157189 5:-0.064336412 6:-0.034196153 7:-0.17152223 8:-0.15362528 9:-0.47276118 10:-0.4537313 11:-0.46181354 12:-0.44804278 13:-0.41047764 14:-0.42444146 15:-0.4013254 16:-0.4263275 17:-0.40429416 18:-0.43823865 19:-0.22916959 20:-0.25449786 21:-0.59102166 22:-0.59861827 #
-0.0019017155341173469246945915145375 1:-0.63980168 2:-0.64651793 3:0.4533239 4:0.54101056 5:0.26112998 6:0.029681846 7:-0.14342308 8:-0.28303927 9:0.61712986 10:0.39748445 11:0.62637913 12:0.53223813 13:0.61441851 14:0.55554706 15:0.31070444 16:0.23075908 17:0.26026866 18:0.36574471 19:0.28616691 20:0.32183847 21:0.065859929 22:0.10238474 #
-0.0019017155341173469246945915145375 1:0.27628541 2:0.26473892 3:0.2536439 4:0.3013145 5:-0.04907316 6:-0.08589597 7:-0.10753515 8:0.094475999 9:-0.33798313 10:-0.21130154 11:-0.23826087 12:-0.070370287 13:-0.88536566 14:-0.56355953 15:-0.6238687 16:-0.33480477 17:-0.65396833 18:-0.42319041 19:-0.11520874 20:-0.073544547 21:-0.12991321 22:-0.10214232 #
-0.0019017155341173469246945915145375 1:-0.13347827 2:-0.1199278 3:-0.18370543 4:-0.1580157 5:-0.41289717 6:-0.30630952 7:-0.53632432 8:-0.44206002 9:-0.69512331 10:-0.65132648 11:-0.63013691 12:-0.66224921 13:-0.96468288 14:-0.93067855 15:-0.93086964 16:-0.88781404 17:-0.84405482 18:-0.80621469 19:-0.48815233 20:-0.43597916 21:-0.60704267 22:-0.60923737 #
0.0034949500222453302837599675711999 1:-0.51925582 2:-0.52972192 3:-0.34379807 4:-0.30497557 5:-0.31682849 6:-0.35071394 7:-0.26736763 8:-0.28974706 9:-0.26359227 10:-0.27606952 11:-0.18170789 12:-0.237589 13:-0.23963879 14:-0.33600715 15:-0.27103874 16:-0.31136227 17:-0.22434339 18:-0.28576645 19:-0.16787921 20:-0.18437706 21:-0.59246296 22:-0.59722364 #
0.0034949500222453302837599675711999 1:0.29119989 2:0.31701013 3:-0.017729145 4:-0.018790551 5:-0.05924866 6:-0.11186077 7:-0.12094918 8:-0.19442134 9:-0.24400978 10:-0.30268878 11:-0.45913067 12:-0.49278417 13:-0.55999285 14:-0.63409173 15:-0.50242537 16:-0.60195494 17:-0.31720567 18:-0.42722532 19:-0.1415356 20:-0.21458417 21:-0.58781326 22:-0.59712452 #
-0.0019017155341173469246945915145375 1:-0.70622492 2:-0.70142597 3:-0.75369048 4:-0.67100561 5:-0.61870164 6:-0.69842392 7:-0.55393022 8:-0.53183448 9:0.13883834 10:0.061804529 11:0.36063334 12:0.32171828 13:0.45381856 14:0.34623757 15:0.43838942 16:0.36718595 17:0.20383078 18:0.12359499 19:0.1647236 20:0.10005047 21:0.047108028 22:0.05824291 #
0.0034949500222453302837599675711999 1:-0.066747524 2:-0.061142042 3:-0.33057809 4:-0.32117018 5:-0.58558142 6:-0.48185915 7:-0.30439144 8:-0.31169191 9:-0.40685168 10:-0.43969721 11:-0.42548254 12:-0.43810612 13:-0.37371913 14:-0.38145304 15:-0.14485003 16:-0.18227145 17:-0.096410096 18:-0.13844264 19:0.0093054855 20:-0.022130504 21:-0.58155251 22:-0.58802021 #
-0.0019017155341173469246945915145375 1:-0.33013409 2:-0.33211493 3:-0.42813003 4:-0.39400557 5:-0.52787036 6:-0.39540556 7:-0.64552969 8:-0.47843239 9:-0.67182785 10:-0.60168964 11:-0.51505727 12:-0.54772651 13:-0.73066252 14:-0.70631909 15:-0.77184206 16:-0.7393859 17:-0.91134894 18:-0.82410169 19:-0.53637141 20:-0.46031797 21:-0.60892791 22:-0.6115579 #
-0.0010548101740521860676669252399051 1:1.2841657 2:1.2814689 3:0.48034498 4:0.31887877 5:-0.37249446 6:-0.52620608 7:-0.21882291 8:-0.37177286 9:-0.70175761 10:-0.66840333 11:-0.29997864 12:-0.24253091 13:0.08083611 14:0.22384663 15:1.0707376 16:1.1588756 17:1.0890723 18:1.2283885 19:0.6755501 20:0.8485955 21:0.39968386 22:0.47354731 #
-0.0019017155341173469246945915145375 1:-0.15838699 2:-0.15684339 3:-0.20644091 4:-0.21111141 5:-0.33972335 6:-0.32836813 7:-0.52574998 8:-0.46033296 9:-0.64785391 10:-0.61899418 11:-0.9228887 12:-0.90921229 13:-0.94582427 14:-0.97448313 15:-0.9376182 16:-0.94162524 17:-0.76713127 18:-0.78787017 19:-0.53053963 20:-0.50399762 21:-0.61227083 22:-0.61478603 #
-0.0019017155341173469246945915145375 1:-0.17806795 2:-0.082391776 3:-0.67654967 4:-0.5693261 5:-0.89358979 6:-0.53752261 7:1.3975406 8:1.4111389 9:1.1685119 10:1.172527 11:0.38415277 12:0.51400328 13:0.81412929 14:0.86924666 15:0.36004519 16:0.48624951 17:0.4130204 18:0.44299227 19:0.0019131015 20:0.012587535 21:0.30197579 22:0.33198386 #
-0.0019017155341173469246945915145375 1:1.1826857 2:1.1790979 3:0.9157331 4:0.69675261 5:0.04430202 6:-0.2966589 7:-0.22709849 8:-0.34329367 9:-0.05357521 10:-0.14071706 11:0.0014362859 12:0.023525894 13:0.26142246 14:0.14645316 15:0.29729286 16:0.079885595 17:0.014669245 18:0.11484166 19:0.31718394 20:0.31043696 21:0.046759903 22:0.077630244 #
-0.0019017155341173469246945915145375 1:1.379034 2:1.4022976 3:0.40262303 4:0.43965337 5:-0.27333319 6:-0.25547138 7:0.0019676809 8:-0.21535425 9:0.12281801 10:0.068200603 11:0.32819074 12:0.24100932 13:0.78701353 14:0.62162167 15:0.55635768 16:0.55165899 17:0.095872007 18:0.12476357 19:0.25548717 20:0.25702664 21:0.058634993 22:0.083355561 #
0.0034949500222453302837599675711999 1:-0.13578464 2:-0.13264662 3:0.275653 4:0.21494333 5:-0.30685249 6:-0.24742919 7:-0.18528783 8:-0.12954088 9:-0.19574147 10:-0.21084616 11:0.2884323 12:0.26739699 13:-0.14923687 14:-0.10751297 15:-0.33709511 16:-0.24962763 17:-0.48958626 18:-0.42522439 19:-0.313209 20:-0.27969015 21:-0.59733886 22:-0.60077488 #
0.0034949500222453302837599675711999 1:0.17957196 2:0.17353567 3:-0.4076463 4:-0.37120423 5:-0.25607476 6:-0.11967319 7:-0.11078048 8:-0.078538582 9:-0.12229299 10:-0.11745108 11:-0.094272383 12:-0.12126926 13:-0.12733321 14:-0.1794802 15:-0.37472209 16:-0.37554908 17:-0.51372313 18:-0.50614309 19:-0.32261655 20:-0.34548083 21:-0.59846503 22:-0.60581613 #
-0.0019017155341173469246945915145375 1:-0.066440009 2:-0.066725917 3:-0.3442339 4:-0.33180544 5:-0.41080222 6:-0.31934938 7:-0.44429219 8:-0.39764985 9:-0.68104428 10:-0.61740035 11:-0.85653794 12:-0.8364712 13:-0.87498987 14:-0.82999259 15:-0.9411726 16:-0.91838765 17:-0.78233004 18:-0.74658954 19:-0.48538095 20:-0.43866742 21:-0.60619593 22:-0.60900593 #
-0.0019017155341173469246945915145375 1:0.071480453 2:0.073646411 3:-0.28794 4:-0.26259571 5:-0.51814377 6:-0.57158703 7:-0.56361216 8:-0.55568755 9:-0.88495475 10:-0.86425978 11:-0.81512481 12:-0.82192296 13:-0.80926275 14:-0.81924772 15:-0.81255931 16:-0.84681016 17:-0.82782888 18:-0.82081646 19:-0.50941199 20:-0.4703404 21:-0.60816425 22:-0.61230212 #
0.0034949500222453302837599675711999 1:0.35547054 2:0.36447304 3:-0.0029111311 4:0.0079587251 5:-0.020741373 6:-0.031726051 7:-0.16600516 8:-0.19760175 9:-0.27073544 10:-0.30751172 11:-0.13804923 12:-0.20857184 13:-0.057135176 14:-0.13970269 15:-0.199156 16:-0.23481214 17:-0.19670135 18:-0.23523638 19:-0.10661816 20:-0.14324825 21:-0.58961433 22:-0.59650803 #
0.0034949500222453302837599675711999 1:-0.2201975 2:-0.23610336 3:-0.019254528 4:-0.097749256 5:-0.43803665 6:-0.55044758 7:-0.3913933 8:-0.36983567 9:-0.39394119 10:-0.35294658 11:-0.3817766 12:-0.3405101 13:-0.30568811 14:-0.30918983 15:-0.25357801 16:-0.28675175 17:-0.21258165 18:-0.26831493 19:-0.13877681 20:-0.16625859 21:-0.58943182 22:-0.59690726 #
-0.0019017155341173469246945915145375 1:0.17987947 2:0.1823768 3:-0.22351068 4:-0.22714485 5:-0.41688758 6:-0.35375848 7:-0.54389673 8:-0.4932358 9:-0.94355148 10:-0.88485551 11:-0.97607332 12:-0.92968023 13:-0.92591846 14:-0.8928563 15:-0.86894786 16:-0.84073782 17:-0.78251016 18:-0.75473654 19:-0.44055113 20:-0.41165003 21:-0.60608423 22:-0.60852581 #
-0.0019017155341173469246945915145375 1:0.06779027 2:0.070544258 3:-0.2414521 4:-0.21989354 5:-0.51101094 6:-0.43693775 7:-0.62310982 8:-0.52006692 9:-0.69276738 10:-0.65465903 11:-0.81448662 12:-0.79857445 13:-0.76970083 14:-0.80626065 15:-0.89507484 16:-0.88527304 17:-0.8688246 18:-0.90890092 19:-0.50500458 20:-0.49363041 21:-0.60858202 22:-0.61230004 #
-0.0019017155341173469246945915145375 1:0.0033658857 2:0.0053990926 3:-0.22118628 4:-0.21296452 5:-0.35718131 6:-0.34175265 7:-0.48023421 8:-0.45735493 9:-0.66483545 10:-0.60808569 11:-0.7893244 12:-0.77537125 13:-0.84435374 14:-0.84157157 15:-1.021062 16:-0.98871511 17:-0.93253076 18:-0.90433687 19:-0.51272798 20:-0.47459576 21:-0.60927469 22:-0.61253607 #
-0.0019017155341173469246945915145375 1:-0.085044667 2:-0.079134516 3:-0.75107557 4:-0.70170283 5:0.81679207 6:1.0240417 7:1.6964895 8:1.4335753 9:1.8356547 10:1.8195031 11:0.7544359 12:0.73915064 13:0.076421544 14:0.069893792 15:-0.34970054 16:-0.3663483 17:-0.42891788 18:-0.43589047 19:-0.10329797 20:-0.15073913 21:0.1322971 22:0.14717607 #
-0.0019017155341173469246945915145375 1:-0.58844668 2:-0.60758591 3:0.25669464 4:0.54479736 5:-0.039446335 6:0.37561107 7:-0.54232818 8:-0.1028543 9:-0.23230551 10:-0.16907504 11:0.56748605 12:0.48469543 13:0.48086181 14:0.29474655 15:-0.32715857 16:-0.36740705 17:-0.54471457 18:-0.43829927 19:-0.34095609 20:-0.26319423 21:-0.25654364 22:-0.24074799 #
-0.0019017155341173469246945915145375 1:0.61270678 2:0.60411423 3:0.24398313 4:0.15725514 5:0.88078803 6:0.8578555 7:0.20415172 8:0.367558 9:0.39096057 10:0.29794171 11:0.20859627 12:0.081507385 13:0.33136269 14:0.23148821 15:0.1494111 16:-0.077114917 17:0.028173828 18:-0.038132131 19:-0.086875111 20:-0.1552549 21:0.16641623 22:0.15893026 #
-0.0019017155341173469246945915145375 1:0.014436425 2:0.00059075875 3:-0.17912927 4:-0.23826353 5:-0.11281967 6:0.022673648 7:-0.070592478 8:0.24621071 9:-0.14440104 10:-0.10420355 11:-0.050850101 12:-0.072471261 13:0.056169324 14:0.085768923 15:0.82017404 16:0.78660303 17:0.89802188 18:0.9554975 19:0.62661666 20:0.74093342 21:0.093671478 22:0.14390828 #
-0.0019017155341173469246945915145375 1:-0.12917307 2:-0.14427969 3:0.52370948 4:0.44787154 5:-0.98975825 6:-0.76270407 7:-0.272452 8:-0.24377559 9:-0.4273577 10:-0.42947176 11:-0.85305136 12:-0.88748908 13:-0.2216422 14:-0.29587984 15:-0.064307183 16:-0.08617907 17:-0.60886377 18:-0.4624536 19:-0.47614729 20:-0.40405786 21:-0.2679598 22:-0.24652374 #
0.0034949500222453302837599675711999 1:-0.12917307 2:-0.13016491 3:-0.039883528 4:-0.043364435 5:0.16860273 6:0.13566647 7:0.48468342 8:0.34419641 9:0.18731396 10:0.062529005 11:-0.015830986 12:-0.162258 13:-0.31925404 14:-0.47930479 15:-0.50218719 16:-0.59591675 17:-0.64816535 18:-0.68587297 19:-0.40536767 20:-0.41536534 21:-0.60193723 22:-0.6089192 #
0.0034949500222453302837599675711999 1:-0.15592687 2:-0.16599475 3:-0.32084468 4:-0.30932638 5:-0.22963841 6:-0.21376686 7:-0.30028069 8:-0.29399723 9:-0.27989531 10:-0.28602588 11:-0.33204308 12:-0.30800453 13:-0.20098718 14:-0.21151745 15:-0.23534776 16:-0.24074107 17:-0.18530472 18:-0.23388588 19:-0.090681277 20:-0.14788455 21:-0.58719522 22:-0.59530842 #
-0.0019017155341173469246945915145375 1:-0.19928648 2:-0.18181571 3:-0.35781708 4:-0.29965794 5:-0.2827605 6:-0.18774462 7:-0.51068622 8:-0.403577 9:-0.54754782 10:-0.50711471 11:-0.59015393 12:-0.60985708 13:-0.80729717 14:-0.83784944 15:-1.0119317 16:-0.97526574 17:-1.0101894 18:-0.97367996 19:-0.57692587 20:-0.521658 21:-0.612997 22:-0.61536741 #
0.0034949500222453302837599675711999 1:0.55028129 2:0.56208009 3:0.0075486433 4:-0.072369672 5:-0.02732552 6:-0.15482907 7:-0.052797258 8:-0.21986465 9:-0.056835819 10:-0.13264434 11:-0.1269632 12:-0.24198915 13:-0.42869982 14:-0.50967383 15:-0.55818486 16:-0.64739186 17:-0.57147056 18:-0.67525649 19:-0.3097401 20:-0.36220816 21:-0.59815472 22:-0.6060186 #
-0.0019017155341173469246945915145375 1:1.9380963 2:2.017144 3:1.064567 4:0.96505105 5:0.54614371 6:0.3566545 7:-0.067374192 8:-0.13705821 9:-0.5515812 10:-0.50407189 11:0.017734416 12:0.047085829 13:-0.11342089 14:-0.15431319 15:0.0056578554 16:0.081381485 17:-0.027499719 18:0.052620266 19:-0.2823135 20:-0.15903771 21:0.012096901 22:0.043461181 #
-0.0019017155341173469246945915145375 1:1.6831664 2:1.6962264 3:-0.0049449764 4:-0.1165221 5:1.0470377 6:1.1467426 7:1.1917055 8:0.93086731 9:0.41446334 10:0.39866433 11:-0.17368293 12:-0.20425098 13:0.097439066 14:0.029739596 15:-0.44566429 16:-0.41489995 17:-0.11152608 18:-0.12102968 19:-0.15692365 20:-0.13219874 21:0.01446196 22:0.038554475 #
0.0034949500222453302837599675711999 1:0.019817937 2:0.01191361 3:-0.3422727 4:-0.3515451 5:-0.45639247 6:-0.41407493 7:0.05135078 8:-0.045462262 9:-0.11810885 10:-0.17956957 11:-0.3544988 12:-0.40811113 13:-0.30975628 14:-0.39767796 15:-0.21769771 16:-0.28659466 17:-0.18235455 18:-0.27271363 19:-0.14970723 20:-0.17849188 21:-0.58961177 22:-0.5964092 #
0.0034949500222453302837599675711999 1:0.32072133 2:0.31437331 3:0.22502479 4:0.17763938 5:-0.05879974 6:-0.16683491 7:-0.32605401 8:-0.29064333 9:-0.4294309 10:-0.39070204 11:-0.4957453 12:-0.45770195 13:-0.41585889 14:-0.38984802 15:-0.3384265 16:-0.30754399 17:-0.3421458 18:-0.34297729 19:-0.20887354 20:-0.22384955 21:-0.59432143 22:-0.60024947 #
-0.0019017155341173469246945915145375 1:-0.15838699 2:-0.15684339 3:-0.20644091 4:-0.21111141 5:-0.33972335 6:-0.32836813 7:-0.52574998 8:-0.46033296 9:-0.64785391 10:-0.61899418 11:-0.9228887 12:-0.90921229 13:-0.94582427 14:-0.97448313 15:-0.9376182 16:-0.94162524 17:-0.76713127 18:-0.78787017 19:-0.53053963 20:-0.50399762 21:-0.61227083 22:-0.61478603 #
0.0034949500222453302837599675711999 1:0.34178612 2:0.34399885 3:-0.18312433 4:-0.20184584 5:0.26297551 6:0.18610252 7:0.21986452 8:0.10433529 9:0.037062142 10:-0.027140202 11:-0.11844184 12:-0.18836817 13:-0.22314057 14:-0.31395239 15:-0.34435055 16:-0.42580155 17:-0.41947344 18:-0.49520141 19:-0.24720542 20:-0.30725724 21:-0.59376615 22:-0.60311258 #
-0.0019017155341173469246945915145375 1:1.757585 2:1.7810702 3:1.9142057 4:1.8049139 5:1.3181849 6:0.88847327 7:0.42372531 8:0.1832674 9:0.98079127 10:0.75202143 11:0.80935788 12:0.68986374 13:0.49165654 14:0.47200981 15:0.48865849 16:0.66779906 17:0.032000288 18:0.24936622 19:-0.052780904 20:-0.012370878 21:0.15696706 22:0.19552003 #
-0.0019017155341173469246945915145375 1:1.9911426 2:1.9946533 3:0.11149265 4:0.10085607 5:-0.18364914 6:-0.2501865 7:0.55172652 8:0.22675236 9:-0.11158764 10:-0.13450727 11:0.5900836 12:0.47890785 13:0.60032094 14:0.4827188 15:0.39632857 16:0.3112641 17:0.75997233 18:0.80263394 19:0.25734103 20:0.21454526 21:0.078081839 22:0.098000079 #
-0.0019017155341173469246945915145375 1:-1.3437034 2:-1.3694742 3:-1.0310198 4:-1.0259169 5:-0.91284347 6:-0.90298289 7:0.30140343 8:0.3489092 9:0.092680946 10:0.23168337 11:0.53009135 12:0.55324781 13:0.3673237 14:0.44825989 15:0.75047159 16:0.76471108 17:0.98658061 18:0.99149197 19:0.35740319 20:0.41636315 21:0.51219344 22:0.55039096 #
-0.0019017155341173469246945915145375 1:-0.29246351 2:-0.30900389 3:0.038564779 4:-0.048762631 5:0.13433525 6:-0.13638946 7:-0.18212365 8:-0.35399142 9:-0.41510686 10:-0.53961253 11:-0.30568713 12:-0.37585661 13:-0.46846312 14:-0.57972169 15:-0.73464262 16:-0.79004133 17:-0.70868278 18:-0.76372689 19:-0.51462162 20:-0.49852228 21:-0.047883742 22:-0.038685258 #
0.0034949500222453302837599675711999 1:-0.88812 2:-0.90989053 3:-0.2753011 4:-0.25913119 5:0.016768314 6:0.013367681 7:0.022088725 8:-0.041587938 9:-0.060548767 10:-0.17081378 11:-0.23011771 12:-0.40266711 13:-0.12954855 14:-0.29488429 15:-0.032579847 16:-0.11910922 17:-0.080870576 18:-0.10148352 19:-0.009930633 20:-0.022335436 21:-0.58570278 22:-0.59011489 #
-0.0019017155341173469246945915145375 1:-0.086120971 2:-0.064864621 3:0.020986548 4:-0.037724528 5:1.7965831 6:2.2335877 7:2.4467285 8:2.4817822 9:1.4880514 10:1.5145615 11:0.19618653 12:0.287561 13:-0.43853593 14:-0.27474889 15:-0.72806507 16:-0.64097798 17:-0.78900927 18:-0.75571215 19:-0.51029384 20:-0.4710685 21:-0.043100391 22:-0.02615751 #
-0.0019017155341173469246945915145375 1:0.095159106 2:0.08202222 3:-0.26426023 4:-0.25631124 5:0.1294969 6:-0.074119903 7:0.15809508 8:-0.010130743 9:0.21694213 10:0.15166003 11:-0.028760757 12:-0.12132212 13:-0.15212889 14:-0.2749193 15:-0.044776089 16:-0.21645841 17:-0.40098861 18:-0.44105536 19:-0.26641011 20:-0.26723987 21:0.11903876 22:0.13367662 #
0.0034949500222453302837599675711999 1:0.49815747 2:0.59248114 3:0.42761028 4:0.463341 5:-0.36506236 6:-0.10686312 7:-0.30820471 8:-0.12416308 9:-0.45430955 10:-0.41659683 11:-0.4763743 12:-0.47412652 13:-0.36544585 14:-0.37426889 15:-0.32420874 16:-0.33316544 17:-0.36043105 18:-0.36500391 19:-0.22659515 20:-0.22499235 21:-0.59552854 22:-0.60118514 #
-0.0019017155341173469246945915145375 1:0.96542645 2:0.9599309 3:-0.23462419 4:-0.3062647 5:0.81230289 6:0.67742312 7:-0.18956086 8:-0.065412141 9:-0.56435978 10:-0.55149388 11:-0.6380319 12:-0.68838584 13:1.6761457 14:1.5837798 15:1.4381883 16:1.4717906 17:0.94226962 18:0.92672944 19:0.30656981 20:0.43143657 21:-0.03979018 22:0.0041175266 #
0.0034949500222453302837599675711999 1:-0.6559462 2:-0.66993916 3:-0.20673145 4:-0.090336807 5:-0.028821917 6:0.10401469 7:0.0025356135 8:-0.018081781 9:-0.089724608 10:-0.16255477 11:-0.27595103 12:-0.34459314 13:-0.1764815 14:-0.22598445 15:-0.21006972 16:-0.24297467 17:-0.17265695 18:-0.22030389 19:-0.12331124 20:-0.17014989 21:-0.58993393 22:-0.5971539 #
-0.0019017155341173469246945915145375 1:-0.12425283 2:-0.050904945 3:-0.39609694 4:-0.29538774 5:-0.74908775 6:-0.52902085 7:-0.46930826 8:-0.37518457 9:-0.45223632 10:-0.44501689 11:-0.74255741 12:-0.7590524 13:-0.73450518 14:-0.77897692 15:-0.80241513 16:-0.83134574 17:-0.83439618 18:-0.81374985 19:-0.47668773 20:-0.45422062 21:-0.60937744 22:-0.6124503 #
-0.0019017155341173469246945915145375 1:-0.39701861 2:-0.41447702 3:-0.192204 4:-0.26283741 5:-0.043187331 6:-0.21560508 7:0.099354617 8:-0.038118396 9:-0.27778438 10:-0.31721967 11:-0.37184879 12:-0.38896456 13:-0.33591339 14:-0.48478487 15:-0.44454053 16:-0.5888949 17:-0.64541477 18:-0.84892851 19:-0.43147457 20:-0.44424883 21:0.078508861 22:0.084227912 #
-0.0019017155341173469246945915145375 1:0.40144402 2:0.37998381 3:0.538818 4:0.56421477 5:0.56629521 6:0.36038837 7:-0.080409601 8:0.11963019 9:0.37360209 10:0.45871288 11:-0.053982083 12:0.077424362 13:-0.23173608 14:-0.048757069 15:0.64901739 16:0.63760114 17:0.19793531 18:0.32143787 19:0.33149949 20:0.3915711 21:0.18982004 22:0.23607546 #
0.0034949500222453302837599675711999 1:0.1721916 2:0.15973109 3:0.007693918 4:-0.072450243 5:-0.096159786 6:-0.26845378 7:-0.41248795 8:-0.43760744 9:-0.33754963 10:-0.3776201 11:-0.023324108 12:-0.086530581 13:-0.12638263 14:-0.21654907 15:-0.17683999 16:-0.2964375 17:-0.41249233 18:-0.48214307 19:-0.33234876 20:-0.37536243 21:-0.60063481 22:-0.60836989 #
0.0034949500222453302837599675711999 1:0.019817937 2:0.01191361 3:-0.3422727 4:-0.3515451 5:-0.45639247 6:-0.41407493 7:0.05135078 8:-0.045462262 9:-0.11810885 10:-0.17956957 11:-0.3544988 12:-0.40811113 13:-0.30975628 14:-0.39767796 15:-0.21769771 16:-0.28659466 17:-0.18235455 18:-0.27271363 19:-0.14970723 20:-0.17849188 21:-0.58961177 22:-0.5964092 #
0.0034949500222453302837599675711999 1:-0.6559462 2:-0.66993916 3:-0.20673145 4:-0.090336807 5:-0.028821917 6:0.10401469 7:0.0025356135 8:-0.018081781 9:-0.089724608 10:-0.16255477 11:-0.27595103 12:-0.34459314 13:-0.1764815 14:-0.22598445 15:-0.21006972 16:-0.24297467 17:-0.17265695 18:-0.22030389 19:-0.12331124 20:-0.17014989 21:-0.58993393 22:-0.5971539 #
0.0034949500222453302837599675711999 1:0.35531676 2:0.34818676 3:0.35795107 4:0.2926935 5:0.64121485 6:0.42972356 7:0.18705964 8:0.1337975 9:0.0062465714 10:0.00016212517 11:-0.31709227 12:-0.35961705 13:-0.55943704 14:-0.57450175 15:-0.66423172 16:-0.67358023 17:-0.78196001 18:-0.7802248 19:-0.47071978 20:-0.47688618 21:-0.60593492 22:-0.6133576 #
-0.0019017155341173469246945915145375 1:-0.0012468388 2:-0.01523021 3:0.091226839 4:0.14162454 5:0.095428921 6:0.0014192776 7:-0.30923238 8:-0.55100369 9:-0.72281021 10:-0.84393311 11:-0.67368925 12:-0.73788416 13:-0.58678639 14:-0.68798643 15:-0.17485513 16:-0.40743414 17:0.19301349 18:0.0091567915 19:0.041260947 20:-0.033927403 21:0.16614531 22:0.16947268 #
